{"learner":{"attributes":{"best_iteration":"99","best_ntree_limit":"100","scikit_learn":"{\"use_label_encoder\": false, \"n_estimators\": 100, \"objective\": \"binary:logistic\", \"max_depth\": 3, \"max_leaves\": null, \"max_bin\": null, \"grow_policy\": null, \"learning_rate\": null, \"verbosity\": null, \"booster\": null, \"tree_method\": null, \"gamma\": null, \"min_child_weight\": null, \"max_delta_step\": null, \"subsample\": null, \"sampling_method\": null, \"colsample_bytree\": null, \"colsample_bylevel\": null, \"colsample_bynode\": null, \"reg_alpha\": null, \"reg_lambda\": null, \"scale_pos_weight\": null, \"base_score\": null, \"missing\": NaN, \"num_parallel_tree\": null, \"random_state\": null, \"n_jobs\": null, \"monotone_constraints\": null, \"interaction_constraints\": null, \"importance_type\": null, \"gpu_id\": null, \"validate_parameters\": null, \"predictor\": null, \"enable_categorical\": false, \"max_cat_to_onehot\": null, \"eval_metric\": null, \"early_stopping_rounds\": null, \"callbacks\": null, \"classes_\": [0, 1], \"n_classes_\": 2, \"_estimator_type\": \"classifier\"}"},"feature_names":["annual_premium","age","region_code","vintage","vehicle_damage","policy_sales_channel","previously_insured"],"feature_types":["float","float","float","float","int","float","int"],"gradient_booster":{"model":{"gbtree_model_param":{"num_parallel_tree":"1","num_trees":"100","size_leaf_vector":"0"},"tree_info":[0,0,0,0,0,0,0,0,0,0,0,0,0,0,0,0,0,0,0,0,0,0,0,0,0,0,0,0,0,0,0,0,0,0,0,0,0,0,0,0,0,0,0,0,0,0,0,0,0,0,0,0,0,0,0,0,0,0,0,0,0,0,0,0,0,0,0,0,0,0,0,0,0,0,0,0,0,0,0,0,0,0,0,0,0,0,0,0,0,0,0,0,0,0,0,0,0,0,0,0],"trees":[{"base_weights":[-1.5082701E0,-1.9789265E0,-1.0470278E0,-1.8467784E0,-1.9981471E0,-1.54957E0,-9.073438E-1,-1.7458692E0,-1.8753434E0,-1.6486355E0,-1.3431958E0,-7.8980035E-1,-1.31621E0],"categories":[],"categories_nodes":[],"categories_segments":[],"categories_sizes":[],"default_left":[1,1,1,1,0,1,1,0,0,0,0,0,0],"id":0,"left_children":[1,3,5,7,-1,9,11,-1,-1,-1,-1,-1,-1],"loss_changes":[1.654486E4,9.2125E1,2.7010781E3,1.05703125E1,0E0,1.6894727E2,1.446873E3,0E0,0E0,0E0,0E0,0E0,0E0],"parents":[2147483647,0,0,1,1,2,2,3,3,5,5,6,6],"right_children":[2,4,6,8,-1,10,12,-1,-1,-1,-1,-1,-1],"split_conditions":[5E-1,5E-1,1.15384616E-1,4.232552E-2,-5.9944415E-1,1.1152361E-1,5.7692313E-1,-5.237608E-1,-5.6260306E-1,-4.9459067E-1,-4.0295875E-1,-2.3694012E-1,-3.9486304E-1],"split_indices":[4,6,1,5,0,2,1,0,0,0,0,0,0],"split_type":[0,0,0,0,0,0,0,0,0,0,0,0,0],"sum_hessian":[7.622175E4,3.772425E4,3.84975E4,4.8025E3,3.292175E4,8.371E3,3.01265E4,1.07325E3,3.72925E3,5.65125E3,2.71975E3,2.340175E4,6.72475E3],"tree_param":{"num_deleted":"0","num_feature":"7","num_nodes":"13","size_leaf_vector":"0"}},{"base_weights":[-1.1274172E0,-1.5294503E0,-7.5638175E-1,-1.4096184E0,-1.5471075E0,-7.066797E-1,-1.6704487E0,-1.4508911E0,-1.3517584E0,-1.1280637E0,-6.0737294E-1,-1.5972791E0,-1.7136412E0],"categories":[],"categories_nodes":[],"categories_segments":[],"categories_sizes":[],"default_left":[1,1,1,1,0,1,1,0,0,0,0,0,0],"id":1,"left_children":[1,3,5,7,-1,9,11,-1,-1,-1,-1,-1,-1],"loss_changes":[1.0748359E4,7.1E1,1.7014902E3,8.671875E0,0E0,1.4868301E3,3.3686523E0,0E0,0E0,0E0,0E0,0E0,0E0],"parents":[2147483647,0,0,1,1,2,2,3,3,5,5,6,6],"right_children":[2,4,6,8,-1,10,12,-1,-1,-1,-1,-1,-1],"split_conditions":[5E-1,5E-1,5E-1,1.1152361E-1,-4.6413225E-1,1E-1,1.15384616E-1,-4.3526736E-1,-4.0552753E-1,-3.384191E-1,-1.8221189E-1,-4.7918373E-1,-5.140924E-1],"split_indices":[4,6,6,2,0,1,1,0,0,0,0,0,0],"split_type":[0,0,0,0,0,0,0,0,0,0,0,0,0],"sum_hessian":[7.206189E4,3.458472E4,3.747717E4,4.4519336E3,3.0132785E4,3.5546137E4,1.9310343E3,2.5843726E3,1.867561E3,6.777429E3,2.8768709E4,7.3087866E2,1.2001556E3],"tree_param":{"num_deleted":"0","num_feature":"7","num_nodes":"13","size_leaf_vector":"0"}},{"base_weights":[-9.0367764E-1,-1.3219283E0,-5.638652E-1,-1.1841381E0,-1.342817E0,-5.2333254E-1,-1.3868303E0,-1.0754282E0,-1.2156657E0,-9.1311604E-1,-4.4534802E-1],"categories":[],"categories_nodes":[],"categories_segments":[],"categories_sizes":[],"default_left":[1,1,1,1,0,1,0,0,0,0,0],"id":2,"left_children":[1,3,5,7,-1,9,-1,-1,-1,-1,-1],"loss_changes":[9.175219E3,8.170703E1,1.187543E3,1.1778809E1,0E0,1.0316436E3,0E0,0E0,0E0,0E0,0E0],"parents":[2147483647,0,0,1,1,2,2,3,3,5,5],"right_children":[2,4,6,8,-1,10,-1,-1,-1,-1,-1],"split_conditions":[5E-1,5E-1,5E-1,4.232552E-2,-4.028451E-1,8.461539E-2,-4.1604912E-1,-3.226285E-1,-3.6469972E-1,-2.739348E-1,-1.336044E-1],"split_indices":[4,6,6,5,0,1,0,0,0,0,0],"split_type":[0,0,0,0,0,0,0,0,0,0,0],"sum_hessian":[6.4560816E4,2.8938998E4,3.5621816E4,3.8171516E3,2.5121846E4,3.3951285E4,1.6705319E3,8.660509E2,2.9511008E3,5.658443E3,2.8292842E4],"tree_param":{"num_deleted":"0","num_feature":"7","num_nodes":"11","size_leaf_vector":"0"}},{"base_weights":[-7.405532E-1,-1.2011609E0,-4.2316943E-1,-1.032783E0,-1.2277474E0,-3.889628E-1,-1.2322973E0,-9.1308606E-1,-1.0685787E0,-5.717541E-1,-2.551022E-1],"categories":[],"categories_nodes":[],"categories_segments":[],"categories_sizes":[],"default_left":[1,1,1,1,0,1,0,0,0,0,0],"id":3,"left_children":[1,3,5,7,-1,9,-1,-1,-1,-1,-1],"loss_changes":[8.326086E3,1.0275E2,9.3289355E2,1.2627197E1,0E0,7.9157666E2,0E0,0E0,0E0,0E0,0E0],"parents":[2147483647,0,0,1,1,2,2,3,3,5,5],"right_children":[2,4,6,8,-1,10,-1,-1,-1,-1,-1],"split_conditions":[5E-1,5E-1,5E-1,4.232552E-2,-3.6832425E-1,1.1152361E-1,-3.696892E-1,-2.7392584E-1,-3.2057363E-1,-1.7152624E-1,-7.653066E-2],"split_indices":[4,6,6,5,0,2,0,0,0,0,0],"split_type":[0,0,0,0,0,0,0,0,0,0,0],"sum_hessian":[5.695658E4,2.3234457E4,3.3722117E4,3.173826E3,2.006063E4,3.235573E4,1.3663873E3,7.367416E2,2.4370842E3,1.3676596E4,1.8679135E4],"tree_param":{"num_deleted":"0","num_feature":"7","num_nodes":"11","size_leaf_vector":"0"}},{"base_weights":[-6.0715616E-1,-1.1210893E0,-3.1530634E-1,-9.12838E-1,-1.1558062E0,-6.5279794E-1,-2.405508E-1,-9.788541E-1,-8.2327145E-1,-9.006896E-1,-5.673299E-1,-1.2158745E-1,-5.635913E-1],"categories":[],"categories_nodes":[],"categories_segments":[],"categories_sizes":[],"default_left":[1,1,1,1,0,1,1,0,0,0,0,0,0],"id":4,"left_children":[1,3,5,7,-1,9,11,-1,-1,-1,-1,-1,-1],"loss_changes":[7.5556797E3,1.3085938E2,8.105078E2,1.4637451E1,0E0,1.2292554E2,1.01089795E3,0E0,0E0,0E0,0E0,0E0,0E0],"parents":[2147483647,0,0,1,1,2,2,3,3,5,5,6,6],"right_children":[2,4,6,8,-1,10,12,-1,-1,-1,-1,-1,-1],"split_conditions":[5E-1,5E-1,1.15384616E-1,1.1152361E-1,-3.4674186E-1,2.3076924E-2,5.307692E-1,-2.9365626E-1,-2.4698144E-1,-2.702069E-1,-1.7019898E-1,-3.6476236E-2,-1.690774E-1],"split_indices":[4,6,1,2,0,1,1,0,0,0,0,0,0],"split_type":[0,0,0,0,0,0,0,0,0,0,0,0,0],"sum_hessian":[5.0375477E4,1.8244672E4,3.2130805E4,2.6108198E3,1.5633852E4,5.8250913E3,2.6305715E4,1.497292E3,1.113528E3,1.4910144E3,4.334077E3,1.9226654E4,7.079059E3],"tree_param":{"num_deleted":"0","num_feature":"7","num_nodes":"13","size_leaf_vector":"0"}},{"base_weights":[-4.9466538E-1,-2.451582E-1,-1.1078484E0,-1.8108648E-1,-6.249164E-1,-1.15557946E-1,-5.518552E-1,-7.2367024E-1,-4.1751233E-1],"categories":[],"categories_nodes":[],"categories_segments":[],"categories_sizes":[],"default_left":[1,1,0,1,1,0,0,0,0],"id":5,"left_children":[1,3,-1,5,7,-1,-1,-1,-1],"loss_changes":[6.876E3,7.772179E2,0E0,6.6410583E2,9.415076E1,0E0,0E0,0E0,0E0],"parents":[2147483647,0,0,1,1,3,3,4,4],"right_children":[2,4,-1,6,8,-1,-1,-1,-1],"split_conditions":[5E-1,2.814551E-1,-3.3235455E-1,6.230769E-1,1.09427616E-1,-3.4667384E-2,-1.6555656E-1,-2.1710108E-1,-1.252537E-1],"split_indices":[6,5,0,1,2,0,0,0,0],"split_type":[0,0,0,0,0,0,0,0,0],"sum_hessian":[4.4943836E4,3.194618E4,1.2997658E4,2.7335662E4,4.6105176E3,2.3231168E4,4.104494E3,3.1216692E3,1.4888485E3],"tree_param":{"num_deleted":"0","num_feature":"7","num_nodes":"9","size_leaf_vector":"0"}},{"base_weights":[-3.973106E-1,-1.8058139E-1,-1.0716E0,-7.6665246E-1,-1.4003772E-1,-6.1297977E-1,-8.177032E-1,-4.736608E-1,-9.6562296E-2],"categories":[],"categories_nodes":[],"categories_segments":[],"categories_sizes":[],"default_left":[1,1,0,1,1,0,0,0,0],"id":6,"left_children":[1,3,-1,5,7,-1,-1,-1,-1],"loss_changes":[5.9500127E3,7.3207306E2,0E0,1.5138062E1,4.1798932E2,0E0,0E0,0E0,0E0],"parents":[2147483647,0,0,1,1,3,3,4,4],"right_children":[2,4,-1,6,8,-1,-1,-1,-1],"split_conditions":[5E-1,5E-1,-3.2148E-1,4.232552E-2,6.923077E-2,-1.8389393E-1,-2.4531096E-1,-1.4209825E-1,-2.896869E-2],"split_indices":[6,4,0,5,1,0,0,0,0],"split_type":[0,0,0,0,0,0,0,0,0],"sum_hessian":[4.0715297E4,3.0812764E4,9.902533E3,1.9925104E3,2.8820252E4,5.001046E2,1.4924058E3,3.3215261E3,2.5498727E4],"tree_param":{"num_deleted":"0","num_feature":"7","num_nodes":"9","size_leaf_vector":"0"}},{"base_weights":[-3.153806E-1,-1.3250616E-1,-1.044277E0,-6.6659397E-1,-1.01008065E-1,-1.0499924E0,-9.770628E-1,-5.905902E-1,-7.946679E-1,-6.699249E-2,-4.9138302E-1,-9.380811E-1,-1.0414603E0],"categories":[],"categories_nodes":[],"categories_segments":[],"categories_sizes":[],"default_left":[1,1,1,1,1,0,1,0,0,0,0,0,0],"id":7,"left_children":[1,3,5,7,9,-1,11,-1,-1,-1,-1,-1,-1],"loss_changes":[4.9834404E3,5.0275684E2,1.8549805E0,1.5732117E1,3.7477713E2,0E0,5.343628E-1,0E0,0E0,0E0,0E0,0E0,0E0],"parents":[2147483647,0,0,1,1,2,2,3,3,4,4,6,6],"right_children":[2,4,6,8,10,-1,12,-1,-1,-1,-1,-1,-1],"split_conditions":[5E-1,5E-1,5E-1,1.783365E-1,7.0000005E-1,-3.1499773E-1,2.2057196E-1,-1.7717706E-1,-2.3840038E-1,-2.0097747E-2,-1.4741491E-1,-2.8142434E-1,-3.124381E-1],"split_indices":[6,4,4,0,1,0,0,0,0,0,0,0,0],"split_type":[0,0,0,0,0,0,0,0,0,0,0,0,0],"sum_hessian":[3.738616E4,2.9888541E4,7.497621E3,1.6634023E3,2.8225139E4,6.8965605E3,6.0106055E2,1.0474302E3,6.1597217E2,2.5963926E4,2.261212E3,3.8411246E2,2.1694809E2],"tree_param":{"num_deleted":"0","num_feature":"7","num_nodes":"13","size_leaf_vector":"0"}},{"base_weights":[-2.4641705E-1,-9.627402E-2,-1.0223368E0,-2.4191049E-1,4.215455E-3,-1.0312656E0,-9.2145807E-1,-4.70137E-1,-1.5786704E-1,8.440485E-2,-1.8480441E-1,-8.743148E-1,-1.0014403E0],"categories":[],"categories_nodes":[],"categories_segments":[],"categories_sizes":[],"default_left":[1,1,1,1,1,0,1,0,0,0,0,0,0],"id":8,"left_children":[1,3,5,7,9,-1,11,-1,-1,-1,-1,-1,-1],"loss_changes":[4.0645757E3,4.2784683E2,4.1450195E0,2.2887036E2,2.622311E2,0E0,8.9419556E-1,0E0,0E0,0E0,0E0,0E0,0E0],"parents":[2147483647,0,0,1,1,2,2,3,3,4,4,6,6],"right_children":[2,4,6,8,10,-1,12,-1,-1,-1,-1,-1,-1],"split_conditions":[5E-1,1.1152361E-1,5E-1,1.3076924E-1,4.846154E-1,-3.093797E-1,2.2057196E-1,-1.410411E-1,-4.7360115E-2,2.5321456E-2,-5.5441324E-2,-2.6229444E-1,-3.004321E-1],"split_indices":[6,2,4,1,1,0,0,0,0,0,0,0,0],"split_type":[0,0,0,0,0,0,0,0,0,0,0,0,0],"sum_hessian":[3.4889227E4,2.9233559E4,5.655666E3,1.1935042E4,1.7298516E4,5.1873105E3,4.6835526E2,3.210927E3,8.724115E3,1.2146194E4,5.1523223E3,3.0217685E2,1.661784E2],"tree_param":{"num_deleted":"0","num_feature":"7","num_nodes":"13","size_leaf_vector":"0"}},{"base_weights":[-1.9026679E-1,-6.971236E-2,-1.0031643E0,-5.428289E-1,-4.6304855E-2,-1.0160172E0,-8.6438876E-1,-4.9566633E-1,-8.237621E-1,-4.3785256E-1,-2.2450417E-2,-8.077434E-1,-9.6393305E-1],"categories":[],"categories_nodes":[],"categories_segments":[],"categories_sizes":[],"default_left":[1,1,1,1,1,0,1,0,0,0,0,0,0],"id":9,"left_children":[1,3,5,7,9,-1,11,-1,-1,-1,-1,-1,-1],"loss_changes":[3.231976E3,3.1805896E2,6.71875E0,1.7530945E1,2.5562361E2,0E0,1.2950134E0,0E0,0E0,0E0,0E0,0E0,0E0],"parents":[2147483647,0,0,1,1,2,2,3,3,4,4,6,6],"right_children":[2,4,6,8,10,-1,12,-1,-1,-1,-1,-1,-1],"split_conditions":[5E-1,5E-1,5E-1,5.461539E-1,3.846154E-2,-3.0480516E-1,2.2057196E-1,-1.4869991E-1,-2.4712865E-1,-1.3135578E-1,-6.7351256E-3,-2.4232303E-1,-2.8917992E-1],"split_indices":[6,4,4,1,1,0,0,0,0,0,0,0,0],"split_type":[0,0,0,0,0,0,0,0,0,0,0,0,0],"sum_hessian":[3.2979598E4,2.872126E4,4.258338E3,1.352953E3,2.7368307E4,3.891591E3,3.6674658E2,1.1608379E3,1.9211519E2,1.5706263E3,2.579768E4,2.3954727E2,1.2719931E2],"tree_param":{"num_deleted":"0","num_feature":"7","num_nodes":"13","size_leaf_vector":"0"}},{"base_weights":[-1.453911E-1,-5.0374456E-2,-9.848055E-1,-1.4645503E-2,-3.1325337E-1,-1.0025996E0,-8.029058E-1,7.0938274E-2,-1.5087746E-1,-2.7727634E-1,-9.3409973E-1,-7.3613024E-1,-9.2559594E-1],"categories":[],"categories_nodes":[],"categories_segments":[],"categories_sizes":[],"default_left":[1,1,1,1,1,0,1,0,0,0,0,0,0],"id":10,"left_children":[1,3,5,7,9,-1,11,-1,-1,-1,-1,-1,-1],"loss_changes":[2.5150007E3,2.6606293E2,9.573242E0,2.9078702E2,7.544833E1,0E0,1.7005157E0,0E0,0E0,0E0,0E0,0E0,0E0],"parents":[2147483647,0,0,1,1,2,2,3,3,4,4,6,6],"right_children":[2,4,6,8,10,-1,12,-1,-1,-1,-1,-1,-1],"split_conditions":[5E-1,2.814551E-1,5E-1,4.3846154E-1,3.1538463E-1,-3.0077988E-1,2.2057196E-1,2.1281483E-2,-4.526324E-2,-8.31829E-2,-2.8022993E-1,-2.2083908E-1,-2.776788E-1],"split_indices":[6,5,4,1,1,0,0,0,0,0,0,0,0],"split_type":[0,0,0,0,0,0,0,0,0,0,0,0,0],"sum_hessian":[3.1532377E4,2.8326992E4,3.2053848E3,2.4938547E4,3.388445E3,2.9156533E3,2.8973148E2,1.5316733E4,9.621814E3,3.2042126E3,1.8423224E2,1.9215097E2,9.758051E1],"tree_param":{"num_deleted":"0","num_feature":"7","num_nodes":"13","size_leaf_vector":"0"}},{"base_weights":[-1.09968305E-1,-3.624614E-2,-9.6559936E-1,-1.5789253E-1,2.3566337E-2,-9.8968923E-1,-7.353484E-1,-5.701653E-1,-1.3141605E-1,5.3483855E-2,-2.527386E-1,-6.317903E-1,-8.470475E-1],"categories":[],"categories_nodes":[],"categories_segments":[],"categories_sizes":[],"default_left":[1,1,1,1,1,0,1,0,0,0,0,0,0],"id":11,"left_children":[1,3,5,7,9,-1,11,-1,-1,-1,-1,-1,-1],"loss_changes":[1.921717E3,2.0409549E2,1.2676758E1,1.0085011E2,1.5546318E2,0E0,2.1575851E0,0E0,0E0,0E0,0E0,0E0,0E0],"parents":[2147483647,0,0,1,1,2,2,3,3,4,4,6,6],"right_children":[2,4,6,8,10,-1,12,-1,-1,-1,-1,-1,-1],"split_conditions":[5E-1,1.024601E-1,5E-1,2.3076924E-2,6.692308E-1,-2.9690677E-1,2.018305E-1,-1.710496E-1,-3.9424818E-2,1.6045157E-2,-7.582158E-2,-1.895371E-1,-2.5411427E-1],"split_indices":[6,2,4,1,1,0,5,0,0,0,0,0,0],"split_type":[0,0,0,0,0,0,0,0,0,0,0,0,0],"sum_hessian":[3.0464807E4,2.8049105E4,2.4157012E3,9.245007E3,1.88041E4,2.1839124E3,2.3178873E2,5.5665393E2,8.688353E3,1.6967691E4,1.8364075E3,1.2373144E2,1.0805729E2],"tree_param":{"num_deleted":"0","num_feature":"7","num_nodes":"13","size_leaf_vector":"0"}},{"base_weights":[-8.262602E-2,-2.6085068E-2,-9.4400054E-1,-4.228205E-1,-9.24794E-3,-9.761137E-1,-6.6134787E-1,-3.2655823E-1,-5.938641E-1,-1.19621076E-1,3.772961E-2,-5.6807184E-1,-8.4460014E-1],"categories":[],"categories_nodes":[],"categories_segments":[],"categories_sizes":[],"default_left":[1,1,1,1,1,0,1,0,0,0,0,0,0],"id":12,"left_children":[1,3,5,7,9,-1,11,-1,-1,-1,-1,-1,-1],"loss_changes":[1.4441514E3,1.8587895E2,1.593335E1,1.845874E1,1.3842169E2,0E0,2.7583847E0,0E0,0E0,0E0,0E0,0E0,0E0],"parents":[2147483647,0,0,1,1,2,2,3,3,4,4,6,6],"right_children":[2,4,6,8,10,-1,12,-1,-1,-1,-1,-1,-1],"split_conditions":[5E-1,5E-1,5E-1,1.783365E-1,1.2575315E-1,-2.928341E-1,2.2057196E-1,-9.7967476E-2,-1.7815924E-1,-3.5886325E-2,1.1318883E-2,-1.7042156E-1,-2.5338006E-1],"split_indices":[6,4,4,0,5,0,0,0,0,0,0,0,0],"split_type":[0,0,0,0,0,0,0,0,0,0,0,0,0],"sum_hessian":[2.965175E4,2.7826254E4,1.8254956E3,1.1318649E3,2.6694389E4,1.6370511E3,1.8844441E2,7.261189E2,4.0574594E2,7.9692334E3,1.8725154E4,1.2759703E2,6.084739E1],"tree_param":{"num_deleted":"0","num_feature":"7","num_nodes":"13","size_leaf_vector":"0"}},{"base_weights":[-6.170801E-2,-1.8777674E-2,-9.185151E-1,6.593918E-3,-2.1841528E-1,-9.607383E-1,-5.822152E-1,-5.7976585E-2,1.3316998E-1,-1.8856896E-1,-7.8563523E-1,-8.776422E-1,-9.695899E-1,-4.717943E-1,-7.817853E-1],"categories":[],"categories_nodes":[],"categories_segments":[],"categories_sizes":[],"default_left":[1,1,1,1,1,1,1,0,0,0,0,0,0,0,0],"id":13,"left_children":[1,3,5,7,9,11,13,-1,-1,-1,-1,-1,-1,-1,-1],"loss_changes":[1.0688732E3,1.4017276E2,1.9128784E1,2.0069234E2,5.2679672E1,5.3955078E-2,3.0953484E0,0E0,0E0,0E0,0E0,0E0,0E0,0E0,0E0],"parents":[2147483647,0,0,1,1,2,2,3,3,4,4,5,5,6,6],"right_children":[2,4,6,8,10,12,14,-1,-1,-1,-1,-1,-1,-1,-1],"split_conditions":[5E-1,2.814551E-1,5E-1,2.018305E-1,3.1538463E-1,4.232552E-2,4.076923E-1,-1.7392976E-2,3.9950997E-2,-5.657069E-2,-2.3569058E-1,-2.6329267E-1,-2.9087698E-1,-1.4153829E-1,-2.345356E-1],"split_indices":[6,5,4,5,1,5,1,0,0,0,0,0,0,0,0],"split_type":[0,0,0,0,0,0,0,0,0,0,0,0,0,0,0],"sum_hessian":[2.9058344E4,2.7672818E4,1.3855253E3,2.4553346E4,3.1194744E3,1.2293241E3,1.5620108E2,1.6259431E4,8.293914E3,2.9648032E3,1.5467128E2,1.2798556E2,1.1013386E3,1.0272698E2,5.3474106E1],"tree_param":{"num_deleted":"0","num_feature":"7","num_nodes":"15","size_leaf_vector":"0"}},{"base_weights":[-4.59349E-2,-1.3568551E-2,-8.87659E-1,2.549768E-3,-3.1749845E-1,-9.4240737E-1,-5.003003E-1,-3.8987213E-1,1.5229403E-2,-3.6329484E-1,7.011505E-3,-8.3687973E-1,-9.5398307E-1,-3.4378284E-1,-6.843671E-1],"categories":[],"categories_nodes":[],"categories_segments":[],"categories_sizes":[],"default_left":[1,1,1,1,1,1,1,0,0,0,0,0,0,0,0],"id":14,"left_children":[1,3,5,7,9,11,13,-1,-1,-1,-1,-1,-1,-1,-1],"loss_changes":[7.7945575E2,1.3497704E2,2.1995789E1,1.3020221E2,2.0624527E1,3.3410645E-1,3.6057549E0,0E0,0E0,0E0,0E0,0E0,0E0,0E0,0E0],"parents":[2147483647,0,0,1,1,2,2,3,3,4,4,5,5,6,6],"right_children":[2,4,6,8,10,12,14,-1,-1,-1,-1,-1,-1,-1,-1],"split_conditions":[5E-1,7.4615383E-1,5E-1,2.3076924E-2,1.3192171E0,4.232552E-2,2.018305E-1,-1.1696164E-1,4.5688213E-3,-1.0898846E-1,2.1034516E-3,-2.5106394E-1,-2.8619492E-1,-1.03134856E-1,-2.0531015E-1],"split_indices":[6,1,4,1,0,5,5,0,0,0,0,0,0,0,0],"split_type":[0,0,0,0,0,0,0,0,0,0,0,0,0,0,0],"sum_hessian":[2.8610107E4,2.7551695E4,1.058414E3,2.6165074E4,1.3866212E3,9.2608966E2,1.3232423E2,8.1803296E2,2.5347041E4,1.2150308E3,1.7159045E2,9.8789604E1,8.273001E2,7.306372E1,5.9260506E1],"tree_param":{"num_deleted":"0","num_feature":"7","num_nodes":"15","size_leaf_vector":"0"}},{"base_weights":[-3.413621E-2,-9.869007E-3,-8.500304E-1,6.628771E-2,-5.8305006E-2,-9.198652E-1,-4.1915613E-1,-9.2382215E-2,1.6611701E-1,-1.4202428E-1,5.7762656E-2,-8.6345696E-1,-9.586265E-1,-2.9194322E-1,-7.0071E-1],"categories":[],"categories_nodes":[],"categories_segments":[],"categories_sizes":[],"default_left":[1,1,1,1,1,1,1,0,0,0,0,0,0,0,0],"id":15,"left_children":[1,3,5,7,9,11,13,-1,-1,-1,-1,-1,-1,-1,-1],"loss_changes":[5.596235E2,1.0125793E2,2.4179749E1,1.6905295E2,1.6305112E2,7.0648193E-1,3.9395256E0,0E0,0E0,0E0,0E0,0E0,0E0,0E0,0E0],"parents":[2147483647,0,0,1,1,2,2,3,3,4,4,5,5,6,6],"right_children":[2,4,6,8,10,12,14,-1,-1,-1,-1,-1,-1,-1,-1],"split_conditions":[5E-1,3.1538463E-1,5E-1,1.3076924E-1,2.018305E-1,2.814551E-1,2.2057196E-1,-2.7714666E-2,4.9835104E-2,-4.2607285E-2,1.7328797E-2,-2.590371E-1,-2.8758797E-1,-8.758297E-2,-2.10213E-1],"split_indices":[6,1,4,1,5,5,0,0,0,0,0,0,0,0,0],"split_type":[0,0,0,0,0,0,0,0,0,0,0,0,0,0,0],"sum_hessian":[2.826399E4,2.7448598E4,8.153936E2,1.0670627E4,1.677797E4,7.006927E2,1.1470092E2,4.120897E3,6.5497295E3,9.747153E3,7.030817E3,2.948634E2,4.0582928E2,8.040767E1,3.4293243E1],"tree_param":{"num_deleted":"0","num_feature":"7","num_nodes":"15","size_leaf_vector":"0"}},{"base_weights":[-2.5371918E-2,-7.255172E-3,-8.0446476E-1,-3.1607008E-1,4.2753317E-3,-8.9179236E-1,-3.426953E-1,-1.0172515E-1,-4.0012097E-1,-1.2127267E-1,3.5461843E-2,-8.2087755E-1,-9.4194525E-1,-2.0698203E-1,-6.2083155E-1],"categories":[],"categories_nodes":[],"categories_segments":[],"categories_sizes":[],"default_left":[1,1,1,1,1,1,1,0,0,0,0,0,0,0,0],"id":16,"left_children":[1,3,5,7,9,11,13,-1,-1,-1,-1,-1,-1,-1,-1],"loss_changes":[3.951079E2,9.7417725E1,2.5346954E1,1.7700241E1,1.0327047E2,1.1272278E0,3.751687E0,0E0,0E0,0E0,0E0,0E0,0E0,0E0,0E0],"parents":[2147483647,0,0,1,1,2,2,3,3,4,4,5,5,6,6],"right_children":[2,4,6,8,10,12,14,-1,-1,-1,-1,-1,-1,-1,-1],"split_conditions":[5E-1,5E-1,5E-1,4.232552E-2,-8.624056E-1,2.814551E-1,4.076923E-1,-3.0517546E-2,-1.200363E-1,-3.6381803E-2,1.0638554E-2,-2.4626328E-1,-2.825836E-1,-6.209461E-2,-1.8624946E-1],"split_indices":[6,4,4,5,0,5,1,0,0,0,0,0,0,0,0],"split_type":[0,0,0,0,0,0,0,0,0,0,0,0,0,0,0],"sum_hessian":[2.799221E4,2.735707E4,6.351422E2,9.837389E2,2.637333E4,5.33347E2,1.01795204E2,2.77718E2,7.060209E2,5.247103E3,2.1126229E4,2.2813622E2,3.052108E2,6.9585815E1,3.220939E1],"tree_param":{"num_deleted":"0","num_feature":"7","num_nodes":"15","size_leaf_vector":"0"}},{"base_weights":[-1.8810155E-2,-5.341639E-3,-7.502175E-1,-2.873209E-1,5.075214E-3,-8.5685307E-1,-2.7366155E-1,-4.8719093E-1,-2.4226196E-1,-5.646496E-1,9.995367E-3,-6.471756E-1,-8.820292E-1,-9.831714E-2,-5.076104E-1],"categories":[],"categories_nodes":[],"categories_segments":[],"categories_sizes":[],"default_left":[1,1,1,1,1,1,1,0,0,0,0,0,0,0,0],"id":17,"left_children":[1,3,5,7,9,11,13,-1,-1,-1,-1,-1,-1,-1,-1],"loss_changes":[2.7379553E2,8.0169044E1,2.530426E1,8.638794E0,7.378768E1,1.5945129E0,3.7798915E0,0E0,0E0,0E0,0E0,0E0,0E0,0E0,0E0],"parents":[2147483647,0,0,1,1,2,2,3,3,4,4,5,5,6,6],"right_children":[2,4,6,8,10,12,14,-1,-1,-1,-1,-1,-1,-1,-1],"split_conditions":[5E-1,6.8863824E-2,5E-1,6.3498933E-3,7.6923077E-3,4.232552E-2,2.018305E-1,-1.4615728E-1,-7.267859E-2,-1.6939488E-1,2.9986103E-3,-1.941527E-1,-2.6460877E-1,-2.9495142E-2,-1.5228312E-1],"split_indices":[6,2,4,5,1,5,5,0,0,0,0,0,0,0,0],"split_type":[0,0,0,0,0,0,0,0,0,0,0,0,0,0,0],"sum_hessian":[2.7793166E4,2.7291611E4,5.0155466E2,9.713391E2,2.6320273E4,4.0919415E2,9.2360504E1,1.7688962E2,7.944495E2,2.2438214E2,2.609589E4,4.672811E1,3.6246606E2,5.3604347E1,3.8756157E1],"tree_param":{"num_deleted":"0","num_feature":"7","num_nodes":"15","size_leaf_vector":"0"}},{"base_weights":[-1.3906151E-2,-3.932943E-3,-6.8732464E-1,6.9793835E-2,-4.0508416E-2,-8.138158E-1,-2.1402945E-1,1.5182796E-1,-1.1706933E-1,-9.336078E-2,3.4436014E-2,-7.0455575E-1,-8.956727E-1,-8.071703E-2,-5.3368014E-1],"categories":[],"categories_nodes":[],"categories_segments":[],"categories_sizes":[],"default_left":[1,1,1,1,1,1,1,0,0,0,0,0,0,0,0],"id":18,"left_children":[1,3,5,7,9,11,13,-1,-1,-1,-1,-1,-1,-1,-1],"loss_changes":[1.857381E2,7.34938E1,2.3988129E1,1.3855301E2,7.2160225E1,2.2141418E0,3.6418147E0,0E0,0E0,0E0,0E0,0E0,0E0,0E0,0E0],"parents":[2147483647,0,0,1,1,2,2,3,3,4,4,5,5,6,6],"right_children":[2,4,6,8,10,12,14,-1,-1,-1,-1,-1,-1,-1,-1],"split_conditions":[5E-1,2.846154E-1,5E-1,2.814551E-1,2.018305E-1,2.814551E-1,1.9467258E-1,4.554839E-2,-3.51208E-2,-2.8008236E-2,1.0330805E-2,-2.1136673E-1,-2.6870182E-1,-2.421511E-2,-1.6010405E-1],"split_indices":[6,1,4,5,5,5,0,0,0,0,0,0,0,0,0],"split_type":[0,0,0,0,0,0,0,0,0,0,0,0,0,0,0],"sum_hessian":[2.7654875E4,2.725228E4,4.0259558E2,9.036369E3,1.821591E4,3.17123E2,8.547259E1,6.279719E3,2.7566494E3,1.0682292E4,7.533619E3,1.399411E2,1.7718188E2,6.1200882E1,2.427171E1],"tree_param":{"num_deleted":"0","num_feature":"7","num_nodes":"15","size_leaf_vector":"0"}},{"base_weights":[-1.0355078E-2,-3.545224E-1,4.6230196E-3,-2.4092954E-1,-7.618767E-1,1.5847694E-2,-1.9432542E-1,-5.9566957E-1,-1.7033291E-1,-6.348976E-1,-8.62647E-1,-7.840834E-2,3.898185E-2,-1.2367949E-1,-3.3857152E-1],"categories":[],"categories_nodes":[],"categories_segments":[],"categories_sizes":[],"default_left":[1,1,1,1,1,1,1,0,0,0,0,0,0,0,0],"id":19,"left_children":[1,3,5,7,9,11,13,-1,-1,-1,-1,-1,-1,-1,-1],"loss_changes":[1.419626E2,5.2960785E1,5.893797E1,2.2426048E1,2.6508636E0,5.4478466E1,1.4321922E1,0E0,0E0,0E0,0E0,0E0,0E0,0E0,0E0],"parents":[2147483647,0,0,1,1,2,2,3,3,4,4,5,5,6,6],"right_children":[2,4,6,8,10,12,14,-1,-1,-1,-1,-1,-1,-1,-1],"split_conditions":[5E-1,5E-1,7.307693E-1,1.2922821E-2,2.814551E-1,-1.0353297E0,8.384615E-1,-1.7870088E-1,-5.1099874E-2,-1.9046928E-1,-2.587941E-1,-2.3522502E-2,1.1694556E-2,-3.7103847E-2,-1.0157146E-1],"split_indices":[4,6,1,5,5,0,1,0,0,0,0,0,0,0,0],"split_type":[0,0,0,0,0,0,0,0,0,0,0,0,0,0,0],"sum_hessian":[2.753765E4,1.1475076E3,2.6390145E4,8.9853723E2,2.489703E2,2.4981602E4,1.4085421E3,1.4790315E2,7.5063403E2,1.1338989E2,1.3558041E2,4.9226685E3,2.0058934E4,9.4672955E2,4.6181256E2],"tree_param":{"num_deleted":"0","num_feature":"7","num_nodes":"15","size_leaf_vector":"0"}},{"base_weights":[-7.750871E-3,-2.1942088E-3,-5.4692596E-1,-5.005634E-1,1.9685398E-3,-7.008388E-1,-1.6217174E-1,4.7656843E-1,-6.6746086E-1,3.367244E-2,-6.0011037E-2,-8.0353284E-1,-5.348688E-1,-4.327823E-2,-4.727741E-1],"categories":[],"categories_nodes":[],"categories_segments":[],"categories_sizes":[],"default_left":[1,1,1,1,1,1,1,0,0,0,0,0,0,0,0],"id":20,"left_children":[1,3,5,7,9,11,13,-1,-1,-1,-1,-1,-1,-1,-1],"loss_changes":[8.2174965E1,5.6325394E1,1.6454926E1,3.699496E1,5.291109E1,2.9712448E0,2.979777E0,0E0,0E0,0E0,0E0,0E0,0E0,0E0,0E0],"parents":[2147483647,0,0,1,1,2,2,3,3,4,4,5,5,6,6],"right_children":[2,4,6,8,10,12,14,-1,-1,-1,-1,-1,-1,-1,-1],"split_conditions":[5E-1,7.6923077E-3,5E-1,4.232552E-2,4.3846154E-1,1.923077E-1,4.2307693E-1,1.4297053E-1,-2.0023827E-1,1.0101733E-2,-1.8003311E-2,-2.4105985E-1,-1.6046064E-1,-1.2983469E-2,-1.4183223E-1],"split_indices":[6,1,4,5,1,1,1,0,0,0,0,0,0,0,0],"split_type":[0,0,0,0,0,0,0,0,0,0,0,0,0,0,0],"sum_hessian":[2.74275E4,2.7148715E4,2.7878674E2,2.2389996E2,2.6924814E4,1.9854247E2,8.024428E1,3.239311E1,1.9150685E2,1.7813354E4,9.111461E3,1.2027862E2,7.826385E1,5.8854916E1,2.1389364E1],"tree_param":{"num_deleted":"0","num_feature":"7","num_nodes":"15","size_leaf_vector":"0"}},{"base_weights":[-5.7852454E-3,-2.566155E-1,3.7954226E-3,-1.8434532E-1,-6.314868E-1,1.7766284E-2,-1.1956706E-1,-9.768931E-2,-4.2255455E-1,-2.498971E-1,-6.883608E-1,1.1883922E-1,-9.0338895E-3,-2.3648995E-3,-3.1496745E-1],"categories":[],"categories_nodes":[],"categories_segments":[],"categories_sizes":[],"default_left":[1,1,1,1,1,1,1,0,0,0,0,0,0,0,0],"id":21,"left_children":[1,3,5,7,9,11,13,-1,-1,-1,-1,-1,-1,-1,-1],"loss_changes":[6.574419E1,2.7151978E1,4.5419125E1,1.740645E1,3.3495865E0,6.412318E1,6.139543E1,0E0,0E0,0E0,0E0,0E0,0E0,0E0,0E0],"parents":[2147483647,0,0,1,1,2,2,3,3,4,4,5,5,6,6],"right_children":[2,4,6,8,10,12,14,-1,-1,-1,-1,-1,-1,-1,-1],"split_conditions":[5E-1,5E-1,2.814551E-1,3.3879057E-1,4.232552E-2,2.5384617E-1,1E-1,-2.9306794E-2,-1.2676637E-1,-7.496913E-2,-2.0650825E-1,3.5651766E-2,-2.7101669E-3,-7.094699E-4,-9.449024E-2],"split_indices":[4,6,5,0,5,1,1,0,0,0,0,0,0,0,0],"split_type":[0,0,0,0,0,0,0,0,0,0,0,0,0,0,0],"sum_hessian":[2.7356424E4,1.00551E3,2.6350914E4,8.44243E2,1.6126701E2,2.3671016E4,2.679898E3,6.200798E2,2.241632E2,2.1617922E1,1.396491E2,4.960349E3,1.8710668E4,1.6757728E3,1.0041251E3],"tree_param":{"num_deleted":"0","num_feature":"7","num_nodes":"15","size_leaf_vector":"0"}},{"base_weights":[-4.3884213E-3,-2.6085907E-1,2.55283E-3,4.7853312E-1,-3.8813E-1,1.6309328E-2,-1.1737967E-1,1.405736E0,1.308506E-1,-6.3067144E-1,6.259449E-2,1.3346007E-1,-1.2501966E-2,-8.481674E-2,-5.21552E-1],"categories":[],"categories_nodes":[],"categories_segments":[],"categories_sizes":[],"default_left":[1,1,1,1,1,1,1,0,0,0,0,0,0,0,0],"id":22,"left_children":[1,3,5,7,9,11,13,-1,-1,-1,-1,-1,-1,-1,-1],"loss_changes":[4.8588284E1,6.786608E1,4.3846245E1,3.4008698E1,6.717784E1,8.047161E1,3.594647E1,0E0,0E0,0E0,0E0,0E0,0E0,0E0,0E0],"parents":[2147483647,0,0,1,1,2,2,3,3,4,4,5,5,6,6],"right_children":[2,4,6,8,10,12,14,-1,-1,-1,-1,-1,-1,-1,-1],"split_conditions":[2.3076924E-2,4.232552E-2,2.814551E-1,1.024601E-1,1.2575315E-1,2.5384617E-1,2.5384617E-1,4.217208E-1,3.925518E-2,-1.8920144E-1,1.8778346E-2,4.0038023E-2,-3.75059E-3,-2.5445024E-2,-1.5646562E-1],"split_indices":[1,5,5,2,5,1,1,0,0,0,0,0,0,0,0],"split_type":[0,0,0,0,0,0,0,0,0,0,0,0,0,0,0],"sum_hessian":[2.7291932E4,7.182145E2,2.6573717E4,1.0506571E2,6.1314874E2,2.3840076E4,2.7336406E3,2.7823252E1,7.724246E1,3.9837704E2,2.1477173E2,4.705051E3,1.9135025E4,2.5309402E3,2.027003E2],"tree_param":{"num_deleted":"0","num_feature":"7","num_nodes":"15","size_leaf_vector":"0"}},{"base_weights":[-3.501751E-3,-6.2030014E-2,2.3638714E-2,4.5513455E-2,-9.835445E-2,-1.2396106E-1,3.425052E-2,-1.6620186E-1,1.502832E-1,-7.494904E-1,-4.7327306E-2,-4.797543E-2,-3.7266243E-1,3.9656077E-2,-2.661001E-1],"categories":[],"categories_nodes":[],"categories_segments":[],"categories_sizes":[],"default_left":[1,1,1,1,1,1,1,0,0,0,0,0,0,0,0],"id":23,"left_children":[1,3,5,7,9,11,13,-1,-1,-1,-1,-1,-1,-1,-1],"loss_changes":[4.325574E1,3.3705105E1,2.9143692E1,4.8354713E1,2.1423846E2,2.356747E1,2.8190645E1,0E0,0E0,0E0,0E0,0E0,0E0,0E0,0E0],"parents":[2147483647,0,0,1,1,2,2,3,3,4,4,5,5,6,6],"right_children":[2,4,6,8,10,12,14,-1,-1,-1,-1,-1,-1,-1,-1],"split_conditions":[1.024601E-1,4.232552E-2,3.207746E-3,4.5262673E-3,1.2575315E-1,2.4796072E-3,8.384615E-1,-4.986056E-2,4.508496E-2,-2.2484712E-1,-1.4198192E-2,-1.4392629E-2,-1.1179873E-1,1.18968235E-2,-7.9830036E-2],"split_indices":[2,5,5,5,5,5,1,0,0,0,0,0,0,0,0],"split_type":[0,0,0,0,0,0,0,0,0,0,0,0,0,0,0],"sum_hessian":[2.7228904E4,8.625904E3,1.8603E4,2.1778445E3,6.4480596E3,1.247052E3,1.735595E4,7.2076324E2,1.4570813E3,4.6759454E2,5.9804653E3,9.5612146E2,2.9093054E2,1.704996E4,3.0598853E2],"tree_param":{"num_deleted":"0","num_feature":"7","num_nodes":"15","size_leaf_vector":"0"}},{"base_weights":[-2.9183165E-3,-7.4008785E-2,1.4544908E-2,-1.2760845E-1,-1.660962E-3,-2.4300914E-1,2.2705419E-2,-5.67589E-2,-2.2679509E-1,-7.353911E-2,7.581094E-2,-1.784759E-1,-5.590556E-1,-1.7840236E-1,2.9485462E-2],"categories":[],"categories_nodes":[],"categories_segments":[],"categories_sizes":[],"default_left":[1,1,1,1,1,1,1,0,0,0,0,0,0,0,0],"id":24,"left_children":[1,3,5,7,9,11,13,-1,-1,-1,-1,-1,-1,-1,-1],"loss_changes":[3.373041E1,2.0777155E1,4.5849148E1,2.1615677E1,1.2708671E1,1.35644455E1,2.8834045E1,0E0,0E0,0E0,0E0,0E0,0E0,0E0,0E0],"parents":[2147483647,0,0,1,1,2,2,3,3,4,4,5,5,6,6],"right_children":[2,4,6,8,10,12,14,-1,-1,-1,-1,-1,-1,-1,-1],"split_conditions":[-9.8454833E-1,1.2007743E-1,5E-1,1.0063654E-1,1.2575315E-1,5E-1,6.8863824E-2,-1.702767E-2,-6.803853E-2,-2.2061734E-2,2.2743283E-2,-5.3542774E-2,-1.677167E-1,-5.3520713E-2,8.845639E-3],"split_indices":[0,2,4,2,5,6,2,0,0,0,0,0,0,0,0],"split_type":[0,0,0,0,0,0,0,0,0,0,0,0,0,0,0],"sum_hessian":[2.716789E4,5.3570034E3,2.1810889E4,3.0767766E3,2.2802268E3,6.6896277E2,2.1141926E4,1.795683E3,1.2810936E3,1.1828416E3,1.0973853E3,5.5682904E2,1.1213368E2,6.8869604E2,2.0453229E4],"tree_param":{"num_deleted":"0","num_feature":"7","num_nodes":"15","size_leaf_vector":"0"}},{"base_weights":[-2.2443703E-3,-2.526515E-1,1.4019805E-3,-1.3721418E-1,-4.673939E-1,7.5702496E-2,-1.330983E-2,5.140424E-1,-1.7858629E-1,-4.9420685E-1,1.2748438E-1,-2.9045435E-2,1.8107712E-1,-1.5783723E-1,9.416001E-3],"categories":[],"categories_nodes":[],"categories_segments":[],"categories_sizes":[],"default_left":[1,1,1,1,1,1,1,0,0,0,0,0,0,0,0],"id":25,"left_children":[1,3,5,7,9,11,13,-1,-1,-1,-1,-1,-1,-1,-1],"loss_changes":[2.4764153E1,9.585608E0,2.9222862E1,6.951424E0,2.2271767E0,4.87763E1,7.32971E1,0E0,0E0,0E0,0E0,0E0,0E0,0E0,0E0],"parents":[2147483647,0,0,1,1,2,2,3,3,4,4,5,5,6,6],"right_children":[2,4,6,8,10,12,14,-1,-1,-1,-1,-1,-1,-1,-1],"split_conditions":[4.7558604E-4,4.846154E-1,2.1853998E-2,1.7692308E-1,4.5262673E-4,6.3498933E-3,1.2575315E-1,1.5421271E-1,-5.357589E-2,-1.4826205E-1,3.8245317E-2,-8.713631E-3,5.432314E-2,-4.735117E-2,2.8248003E-3],"split_indices":[5,1,5,1,5,5,5,0,0,0,0,0,0,0,0],"split_type":[0,0,0,0,0,0,0,0,0,0,0,0,0,0,0],"sum_hessian":[2.7120402E4,3.8827057E2,2.673213E4,2.5358951E2,1.3468106E2,4.417557E3,2.2314574E4,1.4464983E1,2.3912453E2,1.2903433E2,5.6467357E0,2.2157297E3,2.2018276E3,3.0312249E3,1.928335E4],"tree_param":{"num_deleted":"0","num_feature":"7","num_nodes":"15","size_leaf_vector":"0"}},{"base_weights":[-1.7333974E-3,5.250733E-4,-3.2475364E-1,-1.2998457E-1,5.8621657E-3,-7.171431E-2,-5.302989E-1,-3.211842E-1,-8.654795E-2,2.866981E-1,1.7586577E-3,-4.9612162E-1,8.772471E-2,5.53511E-1,-5.665173E-1],"categories":[],"categories_nodes":[],"categories_segments":[],"categories_sizes":[],"default_left":[1,1,1,1,1,1,1,0,0,0,0,0,0,0,0],"id":26,"left_children":[1,3,5,7,9,11,13,-1,-1,-1,-1,-1,-1,-1,-1],"loss_changes":[1.9770056E1,1.8746283E1,9.748257E0,8.753658E0,2.9796156E1,5.8285084E0,4.382862E0,0E0,0E0,0E0,0E0,0E0,0E0,0E0,0E0],"parents":[2147483647,0,0,1,1,2,2,3,3,4,4,5,5,6,6],"right_children":[2,4,6,8,10,12,14,-1,-1,-1,-1,-1,-1,-1,-1],"split_conditions":[5E-1,6.9944896E-2,2.018305E-1,6.923077E-2,7.11426E-2,1.3076924E-1,5.9496395E-2,-9.635526E-2,-2.5964385E-2,8.6009435E-2,5.275973E-4,-1.488365E-1,2.6317414E-2,1.6605331E-1,-1.699552E-1],"split_indices":[6,2,5,1,2,1,2,0,0,0,0,0,0,0,0],"split_type":[0,0,0,0,0,0,0,0,0,0,0,0,0,0,0],"sum_hessian":[2.7098418E4,2.691126E4,1.871579E2,1.0563612E3,2.5854898E4,8.449188E1,1.0266602E2,1.9437332E2,8.619879E2,3.713532E2,2.5483545E4,2.2496708E1,6.1995174E1,2.8580575E0,9.980796E1],"tree_param":{"num_deleted":"0","num_feature":"7","num_nodes":"15","size_leaf_vector":"0"}},{"base_weights":[-1.3419951E-3,4.7382643E-3,-1.1752938E-1,1.353825E-2,-6.7288965E-2,-7.236685E-1,-1.0056636E-1,-1.3924691E-1,2.1455862E-2,1.6666893E-2,-1.839951E-1,-4.1927063E-1,-8.308982E-1,-1.39395E-1,1.5472066E-1],"categories":[],"categories_nodes":[],"categories_segments":[],"categories_sizes":[],"default_left":[1,1,1,1,1,1,1,0,0,0,0,0,0,0,0],"id":27,"left_children":[1,3,5,7,9,11,13,-1,-1,-1,-1,-1,-1,-1,-1],"loss_changes":[1.9130526E1,1.6311722E1,1.37734585E1,2.77443E1,2.745619E1,8.4298325E-1,1.3018327E1,0E0,0E0,0E0,0E0,0E0,0E0,0E0,0E0],"parents":[2147483647,0,0,1,1,2,2,3,3,4,4,5,5,6,6],"right_children":[2,4,6,8,10,12,14,-1,-1,-1,-1,-1,-1,-1,-1],"split_conditions":[7.307693E-1,2.814551E-1,5E-1,6.923077E-2,8.461539E-2,-2.4555865E-1,1.3193333E0,-4.1774075E-2,6.4367587E-3,5.000068E-3,-5.519853E-2,-1.257812E-1,-2.4926947E-1,-4.18185E-2,4.64162E-2],"split_indices":[1,5,4,1,1,0,0,0,0,0,0,0,0,0,0],"split_type":[0,0,0,0,0,0,0,0,0,0,0,0,0,0,0],"sum_hessian":[2.7078033E4,2.5732379E4,1.3456547E3,2.2931516E4,2.8008645E3,3.5499256E1,1.3101554E3,1.1289879E3,2.1802527E4,1.629497E3,1.1713676E3,1.0526691E1,2.4972565E1,1.1375851E3,1.7257042E2],"tree_param":{"num_deleted":"0","num_feature":"7","num_nodes":"15","size_leaf_vector":"0"}},{"base_weights":[-1.090396E-3,3.649382E-2,-2.0074656E-2,5.5557396E-2,-1.4455825E-1,-5.3751856E-2,2.6732676E-2,-3.309893E-2,1.0474448E-1,-8.1356466E-2,-3.345238E-1,2.3362036E-3,-9.732505E-2,-6.257052E-3,2.0057468E-1],"categories":[],"categories_nodes":[],"categories_segments":[],"categories_sizes":[],"default_left":[1,1,1,1,1,1,1,0,0,0,0,0,0,0,0],"id":28,"left_children":[1,3,5,7,9,11,13,-1,-1,-1,-1,-1,-1,-1,-1],"loss_changes":[1.9289932E1,3.1323517E1,2.8316109E1,3.5802616E1,1.0353285E1,2.5531162E1,4.310919E1,0E0,0E0,0E0,0E0,0E0,0E0,0E0,0E0],"parents":[2147483647,0,0,1,1,2,2,3,3,4,4,5,5,6,6],"right_children":[2,4,6,8,10,12,14,-1,-1,-1,-1,-1,-1,-1,-1],"split_conditions":[2.846154E-1,9.58428E-1,2.018305E-1,1.2575315E-1,2.814551E-1,4.232552E-2,1.0708911E0,-9.929679E-3,3.1423345E-2,-2.4406942E-2,-1.00357145E-1,7.008611E-4,-2.9197516E-2,-1.8771157E-3,6.0172405E-2],"split_indices":[1,0,5,5,5,5,0,0,0,0,0,0,0,0,0],"split_type":[0,0,0,0,0,0,0,0,0,0,0,0,0,0,0],"sum_hessian":[2.7033295E4,9.072008E3,1.796129E4,8.208409E3,8.635978E2,1.0445647E4,7.515641E3,2.9291484E3,5.279261E3,6.490772E2,2.1452057E2,4.5673867E3,5.878261E3,6.317704E3,1.1979369E3],"tree_param":{"num_deleted":"0","num_feature":"7","num_nodes":"15","size_leaf_vector":"0"}},{"base_weights":[-9.2223904E-4,6.966673E-3,-6.882358E-2,6.765704E-2,-9.579938E-3,-5.1070187E-2,-5.033322E-1,-3.7447438E-2,1.8163444E-1,-3.5341147E-2,2.8418498E-2,-1.0934898E-1,3.7307113E-2,-3.456421E-1,-7.231186E-1],"categories":[],"categories_nodes":[],"categories_segments":[],"categories_sizes":[],"default_left":[1,1,1,1,1,1,1,0,0,0,0,0,0,0,0],"id":29,"left_children":[1,3,5,7,9,11,13,-1,-1,-1,-1,-1,-1,-1,-1],"loss_changes":[1.4481493E1,2.432345E1,2.1681364E1,6.216793E1,1.8631792E1,1.3934355E1,3.5745506E0,0E0,0E0,0E0,0E0,0E0,0E0,0E0,0E0],"parents":[2147483647,0,0,1,1,2,2,3,3,4,4,5,5,6,6],"right_children":[2,4,6,8,10,12,14,-1,-1,-1,-1,-1,-1,-1,-1],"split_conditions":[2.814551E-1,2.5384617E-1,3.1538463E-1,1.2575315E-1,2.018305E-1,1.09427616E-1,6.1111116E-1,-1.1234231E-2,5.4490335E-2,-1.0602345E-2,8.525549E-3,-3.2804698E-2,1.1192135E-2,-1.0369263E-1,-2.1693559E-1],"split_indices":[5,1,1,5,5,2,3,0,0,0,0,0,0,0,0],"split_type":[0,0,0,0,0,0,0,0,0,0,0,0,0,0,0],"sum_hessian":[2.7032576E4,2.4219594E4,2.8129827E3,5.1879434E3,1.9031648E4,2.7036335E3,1.0934904E2,2.6993782E3,2.4885652E3,1.1342214E4,7.689435E3,1.6291097E3,1.0745239E3,6.51666E1,4.4182434E1],"tree_param":{"num_deleted":"0","num_feature":"7","num_nodes":"15","size_leaf_vector":"0"}},{"base_weights":[-7.8564114E-4,4.1587878E-2,-1.5870955E-2,-8.040831E-2,7.689826E-2,-5.4954183E-1,1.5154859E-3,-1.6086262E-2,-2.5706506E-1,5.753495E-1,6.181261E-2,-4.2103112E-1,-8.7496096E-1,-2.1089555E-1,7.93466E-3],"categories":[],"categories_nodes":[],"categories_segments":[],"categories_sizes":[],"default_left":[1,1,1,1,1,1,1,0,0,0,0,0,0,0,0],"id":30,"left_children":[1,3,5,7,9,11,13,-1,-1,-1,-1,-1,-1,-1,-1],"loss_changes":[1.7252247E1,3.0530323E1,1.8468E2,1.807484E1,4.1290245E1,2.5893875E1,2.6285532E1,0E0,0E0,0E0,0E0,0E0,0E0,0E0,0E0],"parents":[2147483647,0,0,1,1,2,2,3,3,4,4,5,5,6,6],"right_children":[2,4,6,8,10,12,14,-1,-1,-1,-1,-1,-1,-1,-1],"split_conditions":[4.232552E-2,3.207746E-3,1.2575315E-1,2.0974984E-3,3.296303E-3,1E-1,5E-1,-4.825879E-3,-7.711952E-2,1.7260486E-1,1.8543784E-2,-1.2630934E-1,-2.624883E-1,-6.326867E-2,2.380398E-3],"split_indices":[5,5,5,5,5,1,4,0,0,0,0,0,0,0,0],"split_type":[0,0,0,0,0,0,0,0,0,0,0,0,0,0,0],"sum_hessian":[2.6987592E4,7.0848945E3,1.9902697E4,1.5900496E3,5.494845E3,6.269854E2,1.927571E4,1.1664335E3,4.2361618E2,1.6032553E2,5.3345195E3,4.5112585E2,1.7585953E2,5.645E2,1.871121E4],"tree_param":{"num_deleted":"0","num_feature":"7","num_nodes":"15","size_leaf_vector":"0"}},{"base_weights":[-9.0336084E-4,1.53245125E-2,-2.9428484E-2,-4.7100294E-2,3.1471472E-2,-3.1300044E-1,-2.3699591E-2,1.9967586E-1,-6.058429E-2,9.660937E-2,5.2961456E-3,-3.5142845E-1,2.037065E0,-2.7283648E-2,3.5178947E-1],"categories":[],"categories_nodes":[],"categories_segments":[],"categories_sizes":[],"default_left":[1,1,1,1,1,1,1,0,0,0,0,0,0,0,0],"id":31,"left_children":[1,3,5,7,9,11,13,-1,-1,-1,-1,-1,-1,-1,-1],"loss_changes":[1.2472767E1,1.7312714E1,1.5865126E1,1.17577E1,2.326516E1,1.8181244E1,1.2899435E1,0E0,0E0,0E0,0E0,0E0,0E0,0E0,0E0],"parents":[2147483647,0,0,1,1,2,2,3,3,4,4,5,5,6,6],"right_children":[2,4,6,8,10,12,14,-1,-1,-1,-1,-1,-1,-1,-1],"split_conditions":[4.2307693E-1,-7.52326E-1,5E-1,5E-1,-3.734628E-2,1.8924466E-1,2.8932652E0,5.990276E-2,-1.8175289E-2,2.8982813E-2,1.5888438E-3,-1.0542854E-1,6.111195E-1,-8.185095E-3,1.0553685E-1],"split_indices":[1,0,4,4,0,2,0,0,0,0,0,0,0,0,0],"split_type":[0,0,0,0,0,0,0,0,0,0,0,0,0,0,0],"sum_hessian":[2.6942744E4,1.7173336E4,9.769407E3,3.5288276E3,1.3644509E4,1.9239699E2,9.57701E3,1.8211203E2,3.3467156E3,3.9104856E3,9.734023E3,1.9013832E2,2.2586613E0,9.48738E3,8.963004E1],"tree_param":{"num_deleted":"0","num_feature":"7","num_nodes":"15","size_leaf_vector":"0"}},{"base_weights":[-7.225454E-4,1.8129773E-3,-1.6757064E-1,-1.9115473E-1,3.9506597E-3,2.5637332E-1,-2.0250183E-1,-2.3794739E-1,2.560716E-1,5.4534703E-2,-6.368405E-3,-1.5731369E-1,4.967688E-1,9.462043E-1,-2.126006E-1],"categories":[],"categories_nodes":[],"categories_segments":[],"categories_sizes":[],"default_left":[1,1,1,1,1,1,1,0,0,0,0,0,0,0,0],"id":32,"left_children":[1,3,5,7,9,11,13,-1,-1,-1,-1,-1,-1,-1,-1],"loss_changes":[1.139458E1,1.0945151E1,6.022648E0,6.1447067E0,1.3698106E1,3.1743035E0,4.528776E0,0E0,0E0,0E0,0E0,0E0,0E0,0E0,0E0],"parents":[2147483647,0,0,1,1,2,2,3,3,4,4,5,5,6,6],"right_children":[2,4,6,8,10,12,14,-1,-1,-1,-1,-1,-1,-1,-1],"split_conditions":[8.384615E-1,4.09988E-4,5.5555556E-2,1.167774E0,2.1853998E-2,4.418879E-2,5.9496395E-2,-7.138422E-2,7.682148E-2,1.6360411E-2,-1.9105216E-3,-4.719411E-2,1.4903064E-1,2.838613E-1,-6.378018E-2],"split_indices":[1,5,3,0,5,0,2,0,0,0,0,0,0,0,0],"split_type":[0,0,0,0,0,0,0,0,0,0,0,0,0,0,0],"sum_hessian":[2.6932822E4,2.6530637E4,4.021862E2,2.8971548E2,2.624092E4,3.0133257E1,3.7205292E2,2.6269775E2,2.7017744E1,4.4453813E3,2.179554E4,1.1201921E1,1.8931335E1,2.4345555E0,3.6961838E2],"tree_param":{"num_deleted":"0","num_feature":"7","num_nodes":"15","size_leaf_vector":"0"}},{"base_weights":[-5.470671E-4,-1.18961036E-1,2.6755198E-3,-3.3642048E-1,-6.617318E-2,3.001313E-2,-7.040067E-3,-6.4132327E-1,-2.797471E-1,8.204049E-1,-8.973629E-2,3.7240088E-1,2.1737596E-2,-4.3795538E-1,5.1220395E-3],"categories":[],"categories_nodes":[],"categories_segments":[],"categories_sizes":[],"default_left":[1,1,1,1,1,1,1,0,0,0,0,0,0,0,0],"id":33,"left_children":[1,3,5,7,9,11,13,-1,-1,-1,-1,-1,-1,-1,-1],"loss_changes":[1.0274918E1,8.166599E0,6.962338E0,2.2241812E0,1.209124E1,1.9467106E1,1.0136214E2,0E0,0E0,0E0,0E0,0E0,0E0,0E0,0E0],"parents":[2147483647,0,0,1,1,2,2,3,3,4,4,5,5,6,6],"right_children":[2,4,6,8,10,12,14,-1,-1,-1,-1,-1,-1,-1,-1],"split_conditions":[6.2170517E-2,6.3498933E-3,4.232552E-2,-3.9580992E-1,8.84426E-3,3.846154E-2,1.2575315E-1,-1.9239698E-1,-8.392413E-2,2.4612148E-1,-2.6920889E-2,1.1172027E-1,6.521279E-3,-1.3138662E-1,1.5366119E-3],"split_indices":[2,5,5,0,5,1,5,0,0,0,0,0,0,0,0],"split_type":[0,0,0,0,0,0,0,0,0,0,0,0,0,0,0],"sum_hessian":[2.6924102E4,7.123641E2,2.6211736E4,1.3809773E2,5.7426636E2,6.8723384E3,1.9339398E4,2.0028461E1,1.18069275E2,1.3991958E1,5.602744E2,1.6114644E2,6.711192E3,5.298894E2,1.880951E4],"tree_param":{"num_deleted":"0","num_feature":"7","num_nodes":"15","size_leaf_vector":"0"}},{"base_weights":[-5.734009E-4,5.5271178E-3,-5.364523E-2,6.0581397E-2,-7.4250223E-3,-2.7664227E-3,-1.5100649E-1,-6.1602943E-2,9.663E-2,-2.8865634E-2,2.48081E-2,1.5702123E-2,-2.1330099E-1,-1.2194903E-1,-4.030563E-1],"categories":[],"categories_nodes":[],"categories_segments":[],"categories_sizes":[],"default_left":[1,1,1,1,1,1,1,0,0,0,0,0,0,0,0],"id":34,"left_children":[1,3,5,7,9,11,13,-1,-1,-1,-1,-1,-1,-1,-1],"loss_changes":[8.7107E0,1.7207312E1,1.3739786E1,2.0248955E1,1.3501828E1,7.090791E0,6.9231606E0,0E0,0E0,0E0,0E0,0E0,0E0,0E0,0E0],"parents":[2147483647,0,0,1,1,2,2,3,3,4,4,5,5,6,6],"right_children":[2,4,6,8,10,12,14,-1,-1,-1,-1,-1,-1,-1,-1],"split_conditions":[2.814551E-1,2.3846154E-1,1E-1,6.923077E-2,2.018305E-1,9.58428E-1,3.1538463E-1,-1.8480884E-2,2.8989E-2,-8.659691E-3,7.44243E-3,4.710637E-3,-6.39903E-2,-3.6584713E-2,-1.20916896E-1],"split_indices":[5,1,1,1,5,0,1,0,0,0,0,0,0,0,0],"split_type":[0,0,0,0,0,0,0,0,0,0,0,0,0,0,0],"sum_hessian":[2.690242E4,2.4129652E4,2.7727673E3,4.5949043E3,1.9534748E4,1.8217765E3,9.5099097E2,1.0466488E3,3.5482556E3,1.1731423E4,7.803324E3,1.6757053E3,1.4607108E2,8.540195E2,9.697149E1],"tree_param":{"num_deleted":"0","num_feature":"7","num_nodes":"15","size_leaf_vector":"0"}},{"base_weights":[-4.8454542E-4,7.585887E-4,-2.0741943E-1,-2.5887564E-1,1.820763E-3,2.2639558E-2,-4.1805914E-1,-8.877899E-1,-2.1309155E-1,2.3427553E-1,6.34613E-4,1.8593027E-1,-4.2974526E-1,-6.385626E-1,-2.2659262E-1],"categories":[],"categories_nodes":[],"categories_segments":[],"categories_sizes":[],"default_left":[1,1,1,1,1,1,1,0,0,0,0,0,0,0,0],"id":35,"left_children":[1,3,5,7,9,11,13,-1,-1,-1,-1,-1,-1,-1,-1],"loss_changes":[6.912414E0,7.366627E0,7.785185E0,2.944665E0,7.3349237E0,5.8153596E0,3.393919E0,0E0,0E0,0E0,0E0,0E0,0E0,0E0,0E0],"parents":[2147483647,0,0,1,1,2,2,3,3,4,4,5,5,6,6],"right_children":[2,4,6,8,10,12,14,-1,-1,-1,-1,-1,-1,-1,-1],"split_conditions":[5E-1,4.9664497E-2,2.018305E-1,3.8768463E-3,5.9496395E-2,4.5384616E-1,-7.3855385E-2,-2.6633698E-1,-6.392747E-2,7.028266E-2,1.903839E-4,5.577908E-2,-1.2892358E-1,-1.9156879E-1,-6.7977786E-2],"split_indices":[6,2,5,5,2,1,0,0,0,0,0,0,0,0,0],"split_type":[0,0,0,0,0,0,0,0,0,0,0,0,0,0,0],"sum_hessian":[2.6869031E4,2.6709572E4,1.5945793E2,1.07835815E2,2.6601736E4,7.664233E1,8.28156E1,6.069612E0,1.01766205E2,1.3405426E2,2.6467684E4,5.6747875E1,1.9894447E1,3.7403984E1,4.5411617E1],"tree_param":{"num_deleted":"0","num_feature":"7","num_nodes":"15","size_leaf_vector":"0"}},{"base_weights":[-4.1582793E-4,-3.238903E-2,7.2638076E-3,5.896829E-2,-4.9918756E-2,1.2283194E-1,1.9483892E-3,1.7123314E-2,2.4807906E-1,-5.353979E-1,-2.601885E-2,-1.3800688E-2,1.741475E-1,1.5460653E-2,-3.163873E-2],"categories":[],"categories_nodes":[],"categories_segments":[],"categories_sizes":[],"default_left":[1,1,1,1,1,1,1,0,0,0,0,0,0,0,0],"id":36,"left_children":[1,3,5,7,9,11,13,-1,-1,-1,-1,-1,-1,-1,-1],"loss_changes":[6.5965643E0,8.335451E0,1.3306736E1,6.6278887E0,5.064371E1,6.68077E0,9.399819E0,0E0,0E0,0E0,0E0,0E0,0E0,0E0,0E0],"parents":[2147483647,0,0,1,1,2,2,3,3,4,4,5,5,6,6],"right_children":[2,4,6,8,10,12,14,-1,-1,-1,-1,-1,-1,-1,-1],"split_conditions":[-1.0339636E0,8.1233636E-2,-4.3324918E-1,7.90572E-2,8.582833E-2,8.7757364E-2,4.6923077E-1,5.136994E-3,7.442372E-2,-1.6061938E-1,-7.8056552E-3,-4.1402066E-3,5.2244253E-2,4.638196E-3,-9.49162E-3],"split_indices":[0,2,0,2,2,2,1,0,0,0,0,0,0,0,0],"split_type":[0,0,0,0,0,0,0,0,0,0,0,0,0,0,0],"sum_hessian":[2.6863305E4,5.202041E3,2.1661264E4,8.3709607E2,4.364945E3,9.5150385E2,2.070976E4,6.8632245E2,1.507736E2,2.0379767E2,4.161147E3,2.5998907E2,6.915148E2,1.4768756E4,5.9410034E3],"tree_param":{"num_deleted":"0","num_feature":"7","num_nodes":"15","size_leaf_vector":"0"}},{"base_weights":[-3.8011864E-4,-1.2895279E-1,1.364136E-3,-8.640955E-1,-1.04372144E-1,1.5953475E-1,-1.003325E-3,-1.2229322E-1,-9.3773395E-1,-1.7640106E-2,-2.8229558E-1,8.044976E-3,5.242954E-1,-1.2638253E-1,3.0445824E-3],"categories":[],"categories_nodes":[],"categories_segments":[],"categories_sizes":[],"default_left":[1,1,1,1,1,1,1,0,0,0,0,0,0,0,0],"id":37,"left_children":[1,3,5,7,9,11,13,-1,-1,-1,-1,-1,-1,-1,-1],"loss_changes":[6.0221806E0,6.404663E0,9.921155E0,5.1305294E-1,5.3795915E0,2.1585629E1,1.3248892E1,0E0,0E0,0E0,0E0,0E0,0E0,0E0,0E0],"parents":[2147483647,0,0,1,1,2,2,3,3,4,4,5,5,6,6],"right_children":[2,4,6,8,10,12,14,-1,-1,-1,-1,-1,-1,-1,-1],"split_conditions":[4.7558604E-4,5E-1,1.3841193E-3,1.923077E-1,4.846154E-1,1.3398407E-3,3.207746E-3,-3.6687966E-2,-2.8132018E-1,-5.292032E-3,-8.468868E-2,2.4134929E-3,1.5728863E-1,-3.791476E-2,9.1337477E-4],"split_indices":[5,4,5,1,1,5,5,0,0,0,0,0,0,0,0],"split_type":[0,0,0,0,0,0,0,0,0,0,0,0,0,0,0],"sum_hessian":[2.6851363E4,3.5842166E2,2.6492941E4,1.049161E1,3.4793005E2,3.897134E2,2.6103229E4,1.1877227E0,9.303886E0,2.3464647E2,1.1328357E2,2.760771E2,1.1363631E2,8.154483E2,2.5287781E4],"tree_param":{"num_deleted":"0","num_feature":"7","num_nodes":"15","size_leaf_vector":"0"}},{"base_weights":[-3.3632698E-4,4.515577E-3,-4.2814128E-2,2.1288233E-2,-1.3739246E-2,3.5171062E-4,-1.07058056E-1,3.4698676E-2,-6.380307E-2,-5.0331816E-2,3.7598453E-2,-2.4162956E-2,1.6863337E-1,-1.6573282E-1,-3.42716E-2],"categories":[],"categories_nodes":[],"categories_segments":[],"categories_sizes":[],"default_left":[1,1,1,1,1,1,1,0,0,0,0,0,0,0,0],"id":38,"left_children":[1,3,5,7,9,11,13,-1,-1,-1,-1,-1,-1,-1,-1],"loss_changes":[5.5332794E0,7.3779287E0,7.6324E0,1.4332286E1,2.167808E1,6.7992496E0,4.7180634E0,0E0,0E0,0E0,0E0,0E0,0E0,0E0,0E0],"parents":[2147483647,0,0,1,1,2,2,3,3,4,4,5,5,6,6],"right_children":[2,4,6,8,10,12,14,-1,-1,-1,-1,-1,-1,-1,-1],"split_conditions":[2.814551E-1,1.3518041E-1,8.461539E-2,6.1144614E-1,2.018305E-1,1.4631364E-1,1.09427616E-1,1.0409603E-2,-1.9140922E-2,-1.5099545E-2,1.1279536E-2,-7.248887E-3,5.0590012E-2,-4.9719848E-2,-1.0281481E-2],"split_indices":[5,2,1,0,5,2,2,0,0,0,0,0,0,0,0],"split_type":[0,0,0,0,0,0,0,0,0,0,0,0,0,0,0],"sum_hessian":[2.6845844E4,2.4094602E4,2.7512422E3,1.2556988E4,1.1537612E4,1.6461678E3,1.1050745E3,1.0847938E4,1.7090498E3,6.7361953E3,4.801417E3,1.4375999E3,2.0856796E2,6.111423E2,4.939322E2],"tree_param":{"num_deleted":"0","num_feature":"7","num_nodes":"15","size_leaf_vector":"0"}},{"base_weights":[-2.961942E-4,2.504206E-2,-9.434161E-3,2.6147205E-1,1.9005507E-2,-3.6365217E-1,-1.6389258E-5,4.6587047E-1,-2.0800744E-1,-2.3978108E-1,2.6538098E-2,-2.50285E-1,-6.9055337E-1,4.440399E-3,-1.6521762E-1],"categories":[],"categories_nodes":[],"categories_segments":[],"categories_sizes":[],"default_left":[1,1,1,1,1,1,1,0,0,0,0,0,0,0,0],"id":39,"left_children":[1,3,5,7,9,11,13,-1,-1,-1,-1,-1,-1,-1,-1],"loss_changes":[6.213704E0,1.0146898E1,6.579601E1,1.7082998E1,1.3528917E1,1.8757843E1,1.4147029E1,0E0,0E0,0E0,0E0,0E0,0E0,0E0,0E0],"parents":[2147483647,0,0,1,1,2,2,3,3,4,4,5,5,6,6],"right_children":[2,4,6,8,10,12,14,-1,-1,-1,-1,-1,-1,-1,-1],"split_conditions":[4.232552E-2,3.846154E-2,1.2575315E-1,2.2458333E-1,6.923077E-2,1.15384616E-1,7.9230773E-1,1.3976115E-1,-6.2402233E-2,-7.193433E-2,7.96143E-3,-7.5085506E-2,-2.0716602E-1,1.3321197E-3,-4.956529E-2],"split_indices":[5,1,5,0,1,1,1,0,0,0,0,0,0,0,0],"split_type":[0,0,0,0,0,0,0,0,0,0,0,0,0,0,0],"sum_hessian":[2.683438E4,7.112026E3,1.9722355E4,1.7601064E2,6.936015E3,5.0981342E2,1.9212543E4,1.2262903E2,5.338161E1,1.9530667E2,6.7407085E3,3.798497E2,1.2996373E2,1.8708791E4,5.037514E2],"tree_param":{"num_deleted":"0","num_feature":"7","num_nodes":"15","size_leaf_vector":"0"}},{"base_weights":[-3.8300848E-4,-1.4910973E-3,1.8748862E-1,-7.079605E-4,-2.7265236E-1,1.0990635E0,1.2448478E-1,-9.673115E-4,9.1515034E-1,-4.1255507E-1,1.5368386E-1,1.2930192E0,-2.0462161E-1,-1.6353942E-1,2.6253897E-1],"categories":[],"categories_nodes":[],"categories_segments":[],"categories_sizes":[],"default_left":[1,1,1,1,1,1,1,0,0,0,0,0,0,0,0],"id":40,"left_children":[1,3,5,7,9,11,13,-1,-1,-1,-1,-1,-1,-1,-1],"loss_changes":[5.58237E0,5.660747E0,8.893473E0,6.314868E0,4.642127E0,2.8024864E0,5.9356275E0,0E0,0E0,0E0,0E0,0E0,0E0,0E0,0E0],"parents":[2147483647,0,0,1,1,2,2,3,3,4,4,5,5,6,6],"right_children":[2,4,6,8,10,12,14,-1,-1,-1,-1,-1,-1,-1,-1],"split_conditions":[3.0991526E0,2.710778E0,3.150515E0,2.6901689E0,5.6153846E-1,7.3846155E-1,3.4615386E-1,-2.9019345E-4,2.745451E-1,-1.2376653E-1,4.6105158E-2,3.8790578E-1,-6.1386485E-2,-4.906183E-2,7.87617E-2],"split_indices":[0,0,0,0,1,1,1,0,0,0,0,0,0,0,0],"split_type":[0,0,0,0,0,0,0,0,0,0,0,0,0,0,0],"sum_hessian":[2.6812969E4,2.6656736E4,1.5623248E2,2.658097E4,7.57655E1,9.036918E0,1.4719557E2,2.6574443E4,6.526356E0,5.707018E1,1.869532E1,7.873691E0,1.1632268E0,4.7633205E1,9.956236E1],"tree_param":{"num_deleted":"0","num_feature":"7","num_nodes":"15","size_leaf_vector":"0"}},{"base_weights":[-2.713256E-4,-8.743947E-2,2.046663E-3,-4.697002E-1,-6.972015E-2,6.5927334E-2,-3.0428837E-3,-5.218922E-1,3.2531515E-2,-2.4015862E-1,-3.008643E-2,-7.672911E-3,3.1101957E-1,-8.002373E-2,4.573779E-3],"categories":[],"categories_nodes":[],"categories_segments":[],"categories_sizes":[],"default_left":[1,1,1,1,1,1,1,0,0,0,0,0,0,0,0],"id":41,"left_children":[1,3,5,7,9,11,13,-1,-1,-1,-1,-1,-1,-1,-1],"loss_changes":[5.417713E0,4.6717057E0,8.491995E0,8.1893635E-1,4.4846106E0,3.4770977E1,1.4185169E1,0E0,0E0,0E0,0E0,0E0,0E0,0E0,0E0],"parents":[2147483647,0,0,1,1,2,2,3,3,4,4,5,5,6,6],"right_children":[2,4,6,8,10,12,14,-1,-1,-1,-1,-1,-1,-1,-1],"split_conditions":[6.2170517E-2,5E-1,7.4437484E-2,6.11359E-1,6.3498933E-3,7.3290944E-2,8.982305E-2,-1.5656766E-1,9.759455E-3,-7.204759E-2,-9.0259295E-3,-2.3018734E-3,9.330587E-2,-2.400712E-2,1.3721338E-3],"split_indices":[2,4,2,0,5,2,2,0,0,0,0,0,0,0,0],"split_type":[0,0,0,0,0,0,0,0,0,0,0,0,0,0,0],"sum_hessian":[2.6811207E4,6.935483E2,2.6117658E4,2.9594536E1,6.6395374E2,1.9264287E3,2.419123E4,2.6773123E1,2.821412E0,1.2431171E2,5.39642E2,1.4822756E3,4.4415295E2,2.1771804E3,2.2014049E4],"tree_param":{"num_deleted":"0","num_feature":"7","num_nodes":"15","size_leaf_vector":"0"}},{"base_weights":[-2.674368E-4,-2.7144913E-2,6.324914E-3,-5.9302628E-2,1.5100518E-2,2.574951E-2,-1.3390094E-2,3.8909544E-3,-1.4923912E-1,-3.019735E-1,2.7513636E-2,1.0842082E-1,4.6779756E-3,-8.138069E-2,1.2112162E-2],"categories":[],"categories_nodes":[],"categories_segments":[],"categories_sizes":[],"default_left":[1,1,1,1,1,1,1,0,0,0,0,0,0,0,0],"id":42,"left_children":[1,3,5,7,9,11,13,-1,-1,-1,-1,-1,-1,-1,-1],"loss_changes":[4.749296E0,7.1730905E0,8.243341E0,1.7038399E1,8.992403E0,1.8887295E1,1.8524609E1,0E0,0E0,0E0,0E0,0E0,0E0,0E0,0E0],"parents":[2147483647,0,0,1,1,2,2,3,3,4,4,5,5,6,6],"right_children":[2,4,6,8,10,12,14,-1,-1,-1,-1,-1,-1,-1,-1],"split_conditions":[-7.106137E-1,1.2007743E-1,1.3518041E-1,1.0063654E-1,3.846154E-2,4.232552E-2,1.7124397E-1,1.1672864E-3,-4.477174E-2,-9.059205E-2,8.254091E-3,3.2526247E-2,1.4033928E-3,-2.4414208E-2,3.6336489E-3],"split_indices":[0,2,2,2,1,5,0,0,0,0,0,0,0,0,0],"split_type":[0,0,0,0,0,0,0,0,0,0,0,0,0,0,0],"sum_hessian":[2.6802086E4,5.2784316E3,2.1523654E4,2.9968164E3,2.2816155E3,1.0841524E4,1.068213E4,1.7606549E3,1.2361616E3,8.50789E1,2.1965366E3,2.201214E3,8.640311E3,2.9131912E3,7.768939E3],"tree_param":{"num_deleted":"0","num_feature":"7","num_nodes":"15","size_leaf_vector":"0"}},{"base_weights":[-2.5914935E-4,-9.184893E-2,1.5782206E-3,-4.9541217E-1,-5.798821E-2,2.2068347E-1,-3.313552E-4,-7.19387E-1,-2.4966067E-1,-7.1786565E-1,-4.0417254E-2,3.0406704E-2,4.532909E-1,-1.0154096E-1,2.8953783E-3],"categories":[],"categories_nodes":[],"categories_segments":[],"categories_sizes":[],"default_left":[1,1,1,1,1,1,1,0,0,0,0,0,0,0,0],"id":43,"left_children":[1,3,5,7,9,11,13,-1,-1,-1,-1,-1,-1,-1,-1],"loss_changes":[4.51026E0,7.17387E0,1.0993265E1,2.058897E0,5.6224303E0,1.0033808E1,8.507109E0,0E0,0E0,0E0,0E0,0E0,0E0,0E0,0E0],"parents":[2147483647,0,0,1,1,2,2,3,3,4,4,5,5,6,6],"right_children":[2,4,6,8,10,12,14,-1,-1,-1,-1,-1,-1,-1,-1],"split_conditions":[1.1643658E-3,7.188505E-2,1.3841193E-3,5E-1,5E-1,4.5384616E-1,3.207746E-3,-2.1581611E-1,-7.4898206E-2,-2.153597E-1,-1.2125176E-2,9.122011E-3,1.3598728E-1,-3.046229E-2,8.6861354E-4],"split_indices":[5,2,5,3,4,1,5,0,0,0,0,0,0,0,0],"split_type":[0,0,0,0,0,0,0,0,0,0,0,0,0,0,0],"sum_hessian":[2.6799566E4,5.260859E2,2.6273482E4,3.9668827E1,4.8641708E2,2.2601393E2,2.6047467E4,1.9745623E1,1.9923206E1,1.158246E1,4.748346E2,1.249409E2,1.0107303E2,8.0383826E2,2.5243629E4],"tree_param":{"num_deleted":"0","num_feature":"7","num_nodes":"15","size_leaf_vector":"0"}},{"base_weights":[-2.4370907E-4,-1.9046212E-2,8.144451E-3,-1.008383E-2,-2.1351057E-1,5.111193E-2,-8.935595E-3,1.094932E-2,-7.1733005E-2,-2.7364624E-1,-1.3694395E-2,2.718865E-2,2.1522063E-1,-1.8694325E-1,-4.8942687E-3],"categories":[],"categories_nodes":[],"categories_segments":[],"categories_sizes":[],"default_left":[1,1,1,1,1,1,1,0,0,0,0,0,0,0,0],"id":44,"left_children":[1,3,5,7,9,11,13,-1,-1,-1,-1,-1,-1,-1,-1],"loss_changes":[4.226532E0,1.4406122E1,1.3600085E1,1.0249508E1,4.372156E0,2.0688732E1,9.538755E0,0E0,0E0,0E0,0E0,0E0,0E0,0E0,0E0],"parents":[2147483647,0,0,1,1,2,2,3,3,4,4,5,5,6,6],"right_children":[2,4,6,8,10,12,14,-1,-1,-1,-1,-1,-1,-1,-1],"split_conditions":[1.024601E-1,1.0063654E-1,1.2739733E-1,3.753578E-1,5.461539E-1,1.2571533E-1,1.2938423E-1,3.2847961E-3,-2.1519903E-2,-8.209387E-2,-4.1083186E-3,8.156595E-3,6.4566195E-2,-5.6082975E-2,-1.4682807E-3],"split_indices":[2,2,2,0,1,2,2,0,0,0,0,0,0,0,0],"split_type":[0,0,0,0,0,0,0,0,0,0,0,0,0,0,0],"sum_hessian":[2.679598E4,8.266012E3,1.8529969E4,7.902841E3,3.6317056E2,5.270137E3,1.3259832E4,5.8930894E3,2.0097516E3,2.788729E2,8.429767E1,4.600636E3,6.6950134E2,2.9335184E2,1.29664795E4],"tree_param":{"num_deleted":"0","num_feature":"7","num_nodes":"15","size_leaf_vector":"0"}},{"base_weights":[-2.333238E-4,1.8214475E-2,-7.7181747E-3,3.269088E-2,-1.2712371E-1,-1.4699722E-2,6.88096E-2,6.764042E-2,-1.0093113E-2,8.2985985E-1,-1.3177398E-1,-1.4147874E-2,-5.430899E-1,-3.6379155E-2,1.3088264E-1],"categories":[],"categories_nodes":[],"categories_segments":[],"categories_sizes":[],"default_left":[1,1,1,1,1,1,1,0,0,0,0,0,0,0,0],"id":45,"left_children":[1,3,5,7,9,11,13,-1,-1,-1,-1,-1,-1,-1,-1],"loss_changes":[3.6994374E0,1.6274052E1,1.0184014E1,1.0517386E1,3.2275057E0,5.0854325E0,1.0409762E1,0E0,0E0,0E0,0E0,0E0,0E0,0E0,0E0],"parents":[2147483647,0,0,1,1,2,2,3,3,4,4,5,5,6,6],"right_children":[2,4,6,8,10,12,14,-1,-1,-1,-1,-1,-1,-1,-1],"split_conditions":[2.5384617E-1,9.58428E-1,1.3174149E0,2.018305E-1,2.213935E-4,1.3108456E0,3.888889E-1,2.0292126E-2,-3.027934E-3,2.4895796E-1,-3.9532196E-2,-4.2443625E-3,-1.6292699E-1,-1.0913746E-2,3.926479E-2],"split_indices":[1,0,0,5,5,0,3,0,0,0,0,0,0,0,0],"split_type":[0,0,0,0,0,0,0,0,0,0,0,0,0,0,0],"sum_hessian":[2.6790156E4,7.731936E3,1.905822E4,7.0322627E3,6.9967303E2,1.7465654E4,1.5925652E3,3.8701885E3,3.1620745E3,2.5253403E0,6.971477E2,1.7448459E4,1.7196291E1,5.911754E2,1.0013898E3],"tree_param":{"num_deleted":"0","num_feature":"7","num_nodes":"15","size_leaf_vector":"0"}},{"base_weights":[-2.0081509E-4,6.6963054E-4,-1.5437084E-1,-1.8552051E-1,1.387303E-3,2.2382993E-2,-3.3819142E-1,-7.855382E-1,-1.4730121E-1,1.6346535E-1,5.29641E-4,-4.8188466E-1,1.254728E-1,7.882761E-1,-3.8632217E-1],"categories":[],"categories_nodes":[],"categories_segments":[],"categories_sizes":[],"default_left":[1,1,1,1,1,1,1,0,0,0,0,0,0,0,0],"id":46,"left_children":[1,3,5,7,9,11,13,-1,-1,-1,-1,-1,-1,-1,-1],"loss_changes":[3.5944223E0,3.5592663E0,4.8934975E0,2.229723E0,3.688262E0,4.094513E0,4.304571E0,0E0,0E0,0E0,0E0,0E0,0E0,0E0,0E0],"parents":[2147483647,0,0,1,1,2,2,3,3,4,4,5,5,6,6],"right_children":[2,4,6,8,10,12,14,-1,-1,-1,-1,-1,-1,-1,-1],"split_conditions":[5E-1,4.9664497E-2,2.018305E-1,3.8768463E-3,5.9496395E-2,4.5262673E-3,5.9496395E-2,-2.3566146E-1,-4.4190366E-2,4.9039606E-2,1.588923E-4,-1.445654E-1,3.7641842E-2,2.3648283E-1,-1.1589666E-1],"split_indices":[6,2,5,5,2,5,2,0,0,0,0,0,0,0,0],"split_type":[0,0,0,0,0,0,0,0,0,0,0,0,0,0,0],"sum_hessian":[2.6782973E4,2.6633596E4,1.493779E2,1.01276634E2,2.6532318E4,7.660047E1,7.2777435E1,4.8937984E0,9.6382835E1,1.38663E2,2.6393656E4,1.2378102E1,6.422237E1,2.3520262E0,7.042541E1],"tree_param":{"num_deleted":"0","num_feature":"7","num_nodes":"15","size_leaf_vector":"0"}},{"base_weights":[-1.840792E-4,-7.065388E-2,1.6644109E-3,-5.318706E-2,-4.0852386E-1,9.686875E-2,-9.74488E-4,-2.685133E-1,-2.5988467E-2,-4.8962983E-1,2.1229178E-1,-1.5806729E-2,1.8806082E-1,-3.4270102E-1,1.1569526E-3],"categories":[],"categories_nodes":[],"categories_segments":[],"categories_sizes":[],"default_left":[1,1,1,1,1,1,1,0,0,0,0,0,0,0,0],"id":47,"left_children":[1,3,5,7,9,11,13,-1,-1,-1,-1,-1,-1,-1,-1],"loss_changes":[3.4885573E0,4.018054E0,6.5564384E0,3.8117073E0,1.7906823E0,7.235111E0,1.8496363E1,0E0,0E0,0E0,0E0,0E0,0E0,0E0,0E0],"parents":[2147483647,0,0,1,1,2,2,3,3,4,4,5,5,6,6],"right_children":[2,4,6,8,10,12,14,-1,-1,-1,-1,-1,-1,-1,-1],"split_conditions":[6.2170517E-2,7.153846E-1,7.11426E-2,5.3846154E-2,8.846154E-1,6.9944896E-2,7.188505E-2,-8.055399E-2,-7.7965404E-3,-1.4688896E-1,6.368753E-2,-4.742019E-3,5.6418248E-2,-1.0281031E-1,3.470858E-4],"split_indices":[2,1,2,1,1,2,2,0,0,0,0,0,0,0,0],"split_type":[0,0,0,0,0,0,0,0,0,0,0,0,0,0,0],"sum_hessian":[2.6779031E4,6.8353345E2,2.6095498E4,6.510344E2,3.249901E1,7.028503E2,2.5392646E4,7.201699E1,5.7901746E2,2.8930693E1,3.5683162E0,3.1476196E2,3.880883E2,1.564086E2,2.5236238E4],"tree_param":{"num_deleted":"0","num_feature":"7","num_nodes":"15","size_leaf_vector":"0"}},{"base_weights":[-1.8316985E-4,-2.1258203E-2,4.962516E-3,2.714363E-2,-3.7733942E-2,6.3817486E-2,-7.389352E-5,1.901491E-1,-8.226336E-3,-1.16487466E-1,-2.4164228E-3,1.3270932E-1,-2.4789775E-2,2.1869922E-2,-9.977583E-3],"categories":[],"categories_nodes":[],"categories_segments":[],"categories_sizes":[],"default_left":[1,1,1,1,1,1,1,0,0,0,0,0,0,0,0],"id":48,"left_children":[1,3,5,7,9,11,13,-1,-1,-1,-1,-1,-1,-1,-1],"loss_changes":[2.9037058E0,4.1913357E0,6.3792524E0,7.6984673E0,1.0904409E1,1.0359039E1,4.308829E0,0E0,0E0,0E0,0E0,0E0,0E0,0E0,0E0],"parents":[2147483647,0,0,1,1,2,2,3,3,4,4,5,5,6,6],"right_children":[2,4,6,8,10,12,14,-1,-1,-1,-1,-1,-1,-1,-1],"split_conditions":[-7.106137E-1,2.1853998E-2,-3.248846E-1,1.6666667E-1,1.2575315E-1,2.018305E-1,2.846154E-1,5.7044733E-2,-2.467901E-3,-3.494624E-2,-7.249269E-4,3.98128E-2,-7.4369325E-3,6.560977E-3,-2.993275E-3],"split_indices":[0,5,0,3,5,5,1,0,0,0,0,0,0,0,0],"split_type":[0,0,0,0,0,0,0,0,0,0,0,0,0,0,0],"sum_hessian":[2.6773742E4,5.2535996E3,2.1520143E4,1.3339937E3,3.919606E3,1.6954631E3,1.982468E4,2.370683E2,1.0969253E3,1.212837E3,2.7067688E3,9.5356885E2,7.418943E2,6.164549E3,1.3660131E4],"tree_param":{"num_deleted":"0","num_feature":"7","num_nodes":"15","size_leaf_vector":"0"}},{"base_weights":[-1.6281535E-4,-1.0398994E-1,8.7499403E-4,-1.4561905E-1,3.1724134E-1,1.8490091E-3,-1.1369507E-1,3.579767E-1,-1.7715098E-1,5.072647E-1,-5.271242E-1,3.1732358E-2,-1.479092E-3,1.0470629E-1,-2.0460138E-1],"categories":[],"categories_nodes":[],"categories_segments":[],"categories_sizes":[],"default_left":[1,1,1,1,1,1,1,0,0,0,0,0,0,0,0],"id":49,"left_children":[1,3,5,7,9,11,13,-1,-1,-1,-1,-1,-1,-1,-1],"loss_changes":[2.8846939E0,4.6921663E0,2.9581628E0,3.9030924E0,4.141213E0,2.6141334E0,4.458049E0,0E0,0E0,0E0,0E0,0E0,0E0,0E0,0E0],"parents":[2147483647,0,0,1,1,2,2,3,3,4,4,5,5,6,6],"right_children":[2,4,6,8,10,12,14,-1,-1,-1,-1,-1,-1,-1,-1],"split_conditions":[4.0342816E-4,1.21155E0,8.6923075E-1,1.7692308E-1,6.0769236E-1,8.84426E-3,1.2575315E-1,1.0739302E-1,-5.3145297E-2,1.521794E-1,-1.5813728E-1,9.519707E-3,-4.4372762E-4,3.1411886E-2,-6.1380416E-2],"split_indices":[5,0,1,1,1,5,5,0,0,0,0,0,0,0,0],"split_type":[0,0,0,0,0,0,0,0,0,0,0,0,0,0,0],"sum_hessian":[2.676957E4,2.6394678E2,2.6505623E4,2.4080316E2,2.3143606E1,2.628316E4,2.2246188E2,1.3579083E1,2.2722408E2,1.9217882E1,3.9257233E0,2.6329658E3,2.3650195E4,6.5337494E1,1.5712439E2],"tree_param":{"num_deleted":"0","num_feature":"7","num_nodes":"15","size_leaf_vector":"0"}},{"base_weights":[-1.3601508E-4,-3.4668233E-2,2.8840404E-3,-3.9058548E-1,-2.0000067E-2,1.4199378E-1,-1.7092236E-3,-3.2131854E-1,-8.349677E-1,1.8473137E-2,-1.5146455E-1,3.0618766E-1,-1.6847009E-2,-6.2388355E-1,2.304877E-3],"categories":[],"categories_nodes":[],"categories_segments":[],"categories_sizes":[],"default_left":[1,1,1,1,1,1,1,0,0,0,0,0,0,0,0],"id":50,"left_children":[1,3,5,7,9,11,13,-1,-1,-1,-1,-1,-1,-1,-1],"loss_changes":[2.7916036E0,1.1230934E1,1.57285595E1,2.3528357E0,1.0465451E1,2.0525494E1,5.951464E1,0E0,0E0,0E0,0E0,0E0,0E0,0E0,0E0],"parents":[2147483647,0,0,1,1,2,2,3,3,4,4,5,5,6,6],"right_children":[2,4,6,8,10,12,14,-1,-1,-1,-1,-1,-1,-1,-1],"split_conditions":[4.5262673E-3,5E-1,8.84426E-3,6.230769E-1,7.404779E-1,1.7774343E-1,1.2922821E-2,-9.639557E-2,-2.504903E-1,5.541941E-3,-4.5439366E-2,9.18563E-2,-5.0541027E-3,-1.8716507E-1,6.914631E-4],"split_indices":[5,4,5,1,0,2,5,0,0,0,0,0,0,0,0],"split_type":[0,0,0,0,0,0,0,0,0,0,0,0,0,0,0],"sum_hessian":[2.6765943E4,2.1517468E3,2.4614197E4,8.415406E1,2.0675928E3,7.85802E2,2.3828395E4,7.429637E1,9.857689E0,1.600163E3,4.674297E2,3.85934E2,3.99868E2,1.5175896E2,2.3676635E4],"tree_param":{"num_deleted":"0","num_feature":"7","num_nodes":"15","size_leaf_vector":"0"}},{"base_weights":[-2.3067511E-4,-3.118029E-1,5.507235E-5,-6.303665E-1,4.1716895E-1,9.460866E-1,-7.6108736E-5,1.4784452E-1,-7.7828866E-1,-1.0051443E-1,1.103216E0,-8.787987E-1,1.976432E-5],"categories":[],"categories_nodes":[],"categories_segments":[],"categories_sizes":[],"default_left":[1,1,1,1,1,0,1,0,0,0,0,0,0],"id":51,"left_children":[1,3,5,7,9,-1,11,-1,-1,-1,-1,-1,-1],"loss_changes":[2.3821502E0,5.956224E0,3.3176405E0,2.1248407E0,2.9724941E0,0E0,2.2519093E0,0E0,0E0,0E0,0E0,0E0,0E0],"parents":[2147483647,0,0,1,1,2,2,3,3,4,4,6,6],"right_children":[2,4,6,8,10,-1,12,-1,-1,-1,-1,-1,-1],"split_conditions":[4.09988E-5,5.648215E-1,4.42787E-5,1.6666667E-1,4.2307693E-1,2.83826E-1,4.9198556E-5,4.435336E-2,-2.3348661E-1,-3.0154329E-2,3.3096483E-1,-2.6363963E-1,5.9292965E-6],"split_indices":[5,0,5,3,1,0,5,0,0,0,0,0,0],"split_type":[0,0,0,0,0,0,0,0,0,0,0,0,0],"sum_hessian":[2.6755232E4,2.3516228E1,2.6731717E4,1.645889E1,7.057336E0,2.706448E0,2.672901E4,2.6289005E0,1.382999E1,4.508649E0,2.5486872E0,1.9160829E0,2.6727094E4],"tree_param":{"num_deleted":"0","num_feature":"7","num_nodes":"13","size_leaf_vector":"0"}},{"base_weights":[-1.719626E-4,-8.8871294E-4,1.1843114E-1,3.40073E-4,-1.4250447E-1,5.048958E-1,3.6031276E-3,-7.68293E-4,3.4520346E-1,-4.3536285E-1,-7.275259E-2,8.488273E-1,1.857227E-1,1.2113752E0,-2.1878233E-2],"categories":[],"categories_nodes":[],"categories_segments":[],"categories_sizes":[],"default_left":[1,1,1,1,1,1,1,0,0,0,0,0,0,0,0],"id":52,"left_children":[1,3,5,7,9,11,13,-1,-1,-1,-1,-1,-1,-1,-1],"loss_changes":[2.2745328E0,4.6280713E0,7.1306696E0,1.0078913E1,4.641784E0,3.8830233E0,3.870874E0,0E0,0E0,0E0,0E0,0E0,0E0,0E0,0E0],"parents":[2147483647,0,0,1,1,2,2,3,3,4,4,5,5,6,6],"right_children":[2,4,6,8,10,12,14,-1,-1,-1,-1,-1,-1,-1,-1],"split_conditions":[3.0991526E0,2.3225198E0,1.2739733E-1,2.2181668E0,1.2289103E-1,5E-1,3.1108375E0,-2.304879E-4,1.03561044E-1,-1.3060886E-1,-2.1825777E-2,2.546482E-1,5.571681E-2,3.634126E-1,-6.5634702E-3],"split_indices":[0,0,2,0,2,3,0,0,0,0,0,0,0,0,0],"split_type":[0,0,0,0,0,0,0,0,0,0,0,0,0,0,0],"sum_hessian":[2.6754193E4,2.6594469E4,1.5972499E2,2.6366684E4,2.2778351E2,3.580909E1,1.2391589E2,2.6283209E4,8.347456E1,4.2808273E1,1.8497523E2,1.6437294E1,1.9371798E1,1.5987402E0,1.22317154E2],"tree_param":{"num_deleted":"0","num_feature":"7","num_nodes":"15","size_leaf_vector":"0"}},{"base_weights":[-1.21357945E-4,2.9265904E-3,-2.7089454E-2,3.6772244E-2,-3.0079735E-3,-1.843753E-2,-2.9000247E-1,-3.5962306E-2,1.2575065E-1,-7.657767E-3,4.740861E-2,-5.685971E-3,-1.8389748E-1,2.4005179E-1,-3.6487538E-1],"categories":[],"categories_nodes":[],"categories_segments":[],"categories_sizes":[],"default_left":[1,1,1,1,1,1,1,0,0,0,0,0,0,0,0],"id":53,"left_children":[1,3,5,7,9,11,13,-1,-1,-1,-1,-1,-1,-1,-1],"loss_changes":[2.1991363E0,4.828291E0,6.1744337E0,2.321307E1,4.7949834E0,5.5505686E0,3.519939E0,0E0,0E0,0E0,0E0,0E0,0E0,0E0,0E0],"parents":[2147483647,0,0,1,1,2,2,3,3,4,4,5,5,6,6],"right_children":[2,4,6,8,10,12,14,-1,-1,-1,-1,-1,-1,-1,-1],"split_conditions":[2.814551E-1,2.0769231E-1,3.1538463E-1,1.2575315E-1,1.2999742E0,9.58428E-1,7.11426E-2,-1.0788692E-2,3.7725195E-2,-2.2973302E-3,1.4222584E-2,-1.7057915E-3,-5.5169247E-2,7.201554E-2,-1.0946262E-1],"split_indices":[5,1,1,5,0,0,2,0,0,0,0,0,0,0,0],"split_type":[0,0,0,0,0,0,0,0,0,0,0,0,0,0,0],"sum_hessian":[2.6752379E4,2.4036637E4,2.715742E3,3.5851016E3,2.0451535E4,2.6302556E3,8.548613E1,1.972938E3,1.6121636E3,1.8725389E4,1.7261469E3,2.4430134E3,1.8724222E2,1.0307716E1,7.517841E1],"tree_param":{"num_deleted":"0","num_feature":"7","num_nodes":"15","size_leaf_vector":"0"}},{"base_weights":[-1.289328E-4,1.5018083E-2,-5.6201504E-3,2.1199134E-1,8.557032E-3,-2.7807245E-1,1.047563E-3,-3.0400196E-1,6.457391E-1,-4.1180473E-2,3.2686707E-2,-3.3372214E-1,2.0250669E-1,-1.2566817E-1,4.534597E-3],"categories":[],"categories_nodes":[],"categories_segments":[],"categories_sizes":[],"default_left":[1,1,1,1,1,1,1,0,0,0,0,0,0,0,0],"id":54,"left_children":[1,3,5,7,9,11,13,-1,-1,-1,-1,-1,-1,-1,-1],"loss_changes":[2.2240615E0,9.0525465E0,3.5651363E1,5.0758595E1,8.2699375E0,1.2605415E1,8.465318E0,0E0,0E0,0E0,0E0,0E0,0E0,0E0,0E0],"parents":[2147483647,0,0,1,1,2,2,3,3,4,4,5,5,6,6],"right_children":[2,4,6,8,10,12,14,-1,-1,-1,-1,-1,-1,-1,-1],"split_conditions":[4.232552E-2,5E-1,1.2575315E-1,1.2922821E-2,-7.256999E-1,1.299037E-1,5E-1,-9.120059E-2,1.9372173E-1,-1.2354142E-2,9.806013E-3,-1.0011665E-1,6.0752008E-2,-3.7700452E-2,1.3603792E-3],"split_indices":[5,4,5,5,0,2,4,0,0,0,0,0,0,0,0],"split_type":[0,0,0,0,0,0,0,0,0,0,0,0,0,0,0],"sum_hessian":[2.6737344E4,7.1135474E3,1.9623797E4,2.2491519E2,6.8886323E3,4.678076E2,1.915599E4,1.0285561E2,1.2205957E2,2.2500305E3,4.6386016E3,4.195325E2,4.8275093E1,5.1208905E2,1.86439E4],"tree_param":{"num_deleted":"0","num_feature":"7","num_nodes":"15","size_leaf_vector":"0"}},{"base_weights":[-2.6567501E-4,9.191309E-3,-8.451274E-3,-4.8299157E-3,1.0396421E-1,-2.6265883E-1,-1.1741564E-3,4.915255E-3,-2.7041537E-1,-2.9414582E-1,1.1223187E-1,-1.7970304E-1,-3.942355E-1,1.429345E-1,-8.648717E-3],"categories":[],"categories_nodes":[],"categories_segments":[],"categories_sizes":[],"default_left":[1,1,1,1,1,1,1,0,0,0,0,0,0,0,0],"id":55,"left_children":[1,3,5,7,9,11,13,-1,-1,-1,-1,-1,-1,-1,-1],"loss_changes":[2.0685139E0,1.6475073E1,2.6496471E1,2.7956034E1,5.292248E0,4.280052E0,1.50013485E1,0E0,0E0,0E0,0E0,0E0,0E0,0E0,0E0],"parents":[2147483647,0,0,1,1,2,2,3,3,4,4,5,5,6,6],"right_children":[2,4,6,8,10,12,14,-1,-1,-1,-1,-1,-1,-1,-1],"split_conditions":[1.2416025E-1,1.2007743E-1,1.2571533E-1,1.12985134E-1,2.3076924E-2,2.018305E-1,1.2739733E-1,1.4745767E-3,-8.112461E-2,-8.824375E-2,3.3669565E-2,-5.3910915E-2,-1.1827065E-1,4.2880353E-2,-2.594615E-3],"split_indices":[2,2,2,2,1,5,2,0,0,0,0,0,0,0,0],"split_type":[0,0,0,0,0,0,0,0,0,0,0,0,0,0,0],"sum_hessian":[2.6719154E4,1.2396783E4,1.4322371E4,1.0799931E4,1.5968522E3,3.9761487E2,1.3924756E4,1.041862E4,3.8131067E2,3.1784128E1,1.565068E3,2.453154E2,1.5229945E2,6.857353E2,1.32390205E4],"tree_param":{"num_deleted":"0","num_feature":"7","num_nodes":"15","size_leaf_vector":"0"}},{"base_weights":[-2.6830847E-4,1.4752735E-2,-5.151235E-3,5.144554E-2,-2.400397E-2,-1.6915053E-2,1.23539455E-2,-1.0584888E-2,1.5985222E-1,-4.1212138E-2,6.6152304E-2,1.7392285E-2,-6.093552E-2,-2.8638827E-2,6.862677E-2],"categories":[],"categories_nodes":[],"categories_segments":[],"categories_sizes":[],"default_left":[1,1,1,1,1,1,1,0,0,0,0,0,0,0,0],"id":56,"left_children":[1,3,5,7,9,11,13,-1,-1,-1,-1,-1,-1,-1,-1],"loss_changes":[1.9595982E0,9.322079E0,4.1522455E0,2.2643951E1,4.9489694E0,1.8213234E1,1.8696884E1,0E0,0E0,0E0,0E0,0E0,0E0,0E0,0E0],"parents":[2147483647,0,0,1,1,2,2,3,3,4,4,5,5,6,6],"right_children":[2,4,6,8,10,12,14,-1,-1,-1,-1,-1,-1,-1,-1],"split_conditions":[2.2307692E-1,2.018305E-1,2.018305E-1,1.2575315E-1,1.6153847E-1,1.6182694E-1,4.3860924E-1,-3.1754666E-3,4.795567E-2,-1.23636415E-2,1.9845692E-2,5.217686E-3,-1.8280657E-2,-8.591648E-3,2.0588031E-2],"split_indices":[1,5,5,5,1,2,0,0,0,0,0,0,0,0,0],"split_type":[0,0,0,0,0,0,0,0,0,0,0,0,0,0,0],"sum_hessian":[2.6714902E4,6.5533174E3,2.0161586E4,3.3661226E3,3.1871948E3,1.2058245E4,8.10334E3,2.1415994E3,1.2245233E3,2.676813E3,5.1038168E2,6.777111E3,5.281135E3,4.6884556E3,3.4148843E3],"tree_param":{"num_deleted":"0","num_feature":"7","num_nodes":"15","size_leaf_vector":"0"}},{"base_weights":[-2.3650378E-4,5.275372E-3,-1.6588185E-2,4.643217E-3,5.898269E-1,-5.7124402E-2,2.6572788E-2,3.9166193E-2,-2.5921904E-3,1.6428916E0,3.4748125E-1,-9.95555E-1,-5.5619504E-2,-6.6527076E-2,6.65158E-2],"categories":[],"categories_nodes":[],"categories_segments":[],"categories_sizes":[],"default_left":[1,1,1,1,1,1,1,0,0,0,0,0,0,0,0],"id":57,"left_children":[1,3,5,7,9,11,13,-1,-1,-1,-1,-1,-1,-1,-1],"loss_changes":[2.405926E0,7.374757E0,1.1775768E1,4.981904E0,4.9311743E0,4.8461113E0,1.2127478E1,0E0,0E0,0E0,0E0,0E0,0E0,0E0,0E0],"parents":[2147483647,0,0,1,1,2,2,3,3,4,4,5,5,6,6],"right_children":[2,4,6,8,10,12,14,-1,-1,-1,-1,-1,-1,-1,-1],"split_conditions":[6.1144614E-1,6.098765E-1,2.018305E-1,1.6666667E-1,4.9510146E-3,6.1226004E-1,3.4615386E-1,1.1749859E-2,-7.7765714E-4,4.928675E-1,1.0424438E-1,-2.986665E-1,-1.6685853E-2,-1.9958124E-2,1.9954741E-2],"split_indices":[0,0,5,3,5,0,1,0,0,0,0,0,0,0,0],"split_type":[0,0,0,0,0,0,0,0,0,0,0,0,0,0,0],"sum_hessian":[2.6692445E4,1.9963697E4,6.7287485E3,1.9943139E4,2.0559277E1,3.4697146E3,3.2590337E3,3.4547505E3,1.6488387E4,2.7650733E0,1.7794203E1,4.4976587E0,3.465217E3,9.7824884E2,2.280785E3],"tree_param":{"num_deleted":"0","num_feature":"7","num_nodes":"15","size_leaf_vector":"0"}},{"base_weights":[-1.866692E-4,1.6505728E-2,-6.2500695E-3,-7.939147E-3,4.572278E-2,-2.0838523E-1,-1.6510331E-3,2.9412484E-1,-1.4940112E-2,3.883717E-1,3.273009E-2,-8.776745E-2,-4.7487846E-1,2.808543E-3,-7.264318E-2],"categories":[],"categories_nodes":[],"categories_segments":[],"categories_sizes":[],"default_left":[1,1,1,1,1,1,1,0,0,0,0,0,0,0,0],"id":58,"left_children":[1,3,5,7,9,11,13,-1,-1,-1,-1,-1,-1,-1,-1],"loss_changes":[2.701354E0,5.0795608E0,1.8200077E1,8.194575E0,1.4410461E1,1.395796E1,6.0609913E0,0E0,0E0,0E0,0E0,0E0,0E0,0E0,0E0],"parents":[2147483647,0,0,1,1,2,2,3,3,4,4,5,5,6,6],"right_children":[2,4,6,8,10,12,14,-1,-1,-1,-1,-1,-1,-1,-1],"split_conditions":[4.232552E-2,1.6735708E-2,1.2575315E-1,3.846154E-2,5E-1,8.461539E-2,7.0000005E-1,8.823746E-2,-4.4820337E-3,1.16511516E-1,9.819028E-3,-2.6330236E-2,-1.4246355E-1,8.4256293E-4,-2.1792956E-2],"split_indices":[5,5,5,1,4,1,1,0,0,0,0,0,0,0,0],"split_type":[0,0,0,0,0,0,0,0,0,0,0,0,0,0,0],"sum_hessian":[2.668786E4,7.110659E3,1.95772E4,3.871903E3,3.2387563E3,4.3453122E2,1.9142668E4,8.6777664E1,3.7851255E3,1.172663E2,3.12149E3,3.0005316E2,1.3447804E2,1.8012145E4,1.130524E3],"tree_param":{"num_deleted":"0","num_feature":"7","num_nodes":"15","size_leaf_vector":"0"}},{"base_weights":[-2.1241256E-4,-5.2671522E-2,1.1427917E-3,3.9060697E-2,-1.0327954E-1,4.092392E-2,-2.0605116E-3,7.968978E-1,1.4744571E-3,-5.787545E-1,-6.68873E-2,-7.5088395E-3,1.9349803E-1,-5.664648E-2,3.2534276E-3],"categories":[],"categories_nodes":[],"categories_segments":[],"categories_sizes":[],"default_left":[1,1,1,1,1,1,1,0,0,0,0,0,0,0,0],"id":59,"left_children":[1,3,5,7,9,11,13,-1,-1,-1,-1,-1,-1,-1,-1],"loss_changes":[1.8968978E0,3.1233997E0,3.3145921E0,6.824388E0,7.459038E0,1.4325361E1,6.9829035E0,0E0,0E0,0E0,0E0,0E0,0E0,0E0,0E0],"parents":[2147483647,0,0,1,1,2,2,3,3,4,4,5,5,6,6],"right_children":[2,4,6,8,10,12,14,-1,-1,-1,-1,-1,-1,-1,-1],"split_conditions":[6.2170517E-2,5.9496395E-2,7.4437484E-2,2.3076924E-2,5.3846154E-2,7.3290944E-2,8.982305E-2,2.3906936E-1,4.4233716E-4,-1.7362635E-1,-2.006619E-2,-2.2526518E-3,5.804941E-2,-1.6993945E-2,9.760283E-4],"split_indices":[2,2,2,1,1,2,2,0,0,0,0,0,0,0,0],"split_type":[0,0,0,0,0,0,0,0,0,0,0,0,0,0,0],"sum_hessian":[2.6680145E4,6.7093164E2,2.6009213E4,2.3862589E2,4.3230576E2,1.9373915E3,2.407182E4,1.03212185E1,2.2830467E2,2.9676083E1,4.0262967E2,1.4712971E3,4.6609427E2,2.134642E3,2.193718E4],"tree_param":{"num_deleted":"0","num_feature":"7","num_nodes":"15","size_leaf_vector":"0"}},{"base_weights":[-1.9315888E-4,-7.0119477E-3,9.548298E-3,2.322802E-2,-1.5777862E-2,1.7341739E-2,-7.57689E-2,7.62967E-2,-2.9305056E-2,-2.4388494E-2,2.2786198E-2,-1.4760951E-2,3.6694255E-2,-6.264446E-1,-6.350356E-2],"categories":[],"categories_nodes":[],"categories_segments":[],"categories_sizes":[],"default_left":[1,1,1,1,1,1,1,0,0,0,0,0,0,0,0],"id":60,"left_children":[1,3,5,7,9,11,13,-1,-1,-1,-1,-1,-1,-1,-1],"loss_changes":[1.7719139E0,4.1599207E0,7.304596E0,9.834561E0,4.0403423E0,6.2537594E0,6.170992E0,0E0,0E0,0E0,0E0,0E0,0E0,0E0,0E0],"parents":[2147483647,0,0,1,1,2,2,3,3,4,4,5,5,6,6],"right_children":[2,4,6,8,10,12,14,-1,-1,-1,-1,-1,-1,-1,-1],"split_conditions":[6.1111116E-1,2.0769231E-1,6.5384614E-1,2.018305E-1,5.7692313E-1,1.1152361E-1,7.740573E-4,2.288901E-2,-8.7915175E-3,-7.3165484E-3,6.8358597E-3,-4.428285E-3,1.1008277E-2,-1.8793339E-1,-1.905107E-2],"split_indices":[3,1,1,5,1,2,5,0,0,0,0,0,0,0,0],"split_type":[0,0,0,0,0,0,0,0,0,0,0,0,0,0,0],"sum_hessian":[2.6673426E4,1.5690634E4,1.0982791E4,3.525835E3,1.21648E4,1.0064252E4,9.1853894E2,1.7537511E3,1.7720839E3,9.944701E3,2.220098E3,3.7852964E3,6.278956E3,1.8922081E1,8.996169E2],"tree_param":{"num_deleted":"0","num_feature":"7","num_nodes":"15","size_leaf_vector":"0"}},{"base_weights":[-1.7565204E-4,7.6665697E-3,-6.966578E-3,-5.150333E-3,5.8668602E-2,-1.9965051E-1,-1.6228238E-3,1.1439412E-2,-5.743321E-2,2.3282185E-1,1.475242E-2,-2.1311085E-1,5.2906525E-1,8.865083E-2,-6.4015156E-3],"categories":[],"categories_nodes":[],"categories_segments":[],"categories_sizes":[],"default_left":[1,1,1,1,1,1,1,0,0,0,0,0,0,0,0],"id":61,"left_children":[1,3,5,7,9,11,13,-1,-1,-1,-1,-1,-1,-1,-1],"loss_changes":[1.420191E0,8.090158E0,1.4715059E1,8.579876E0,1.900621E1,3.8954773E0,5.9998693E0,0E0,0E0,0E0,0E0,0E0,0E0,0E0,0E0],"parents":[2147483647,0,0,1,1,2,2,3,3,4,4,5,5,6,6],"right_children":[2,4,6,8,10,12,14,-1,-1,-1,-1,-1,-1,-1,-1],"split_conditions":[1.2416025E-1,1.1152361E-1,1.2571533E-1,4.6923077E-1,1.12985134E-1,1.8452272E0,1.2739733E-1,3.4318238E-3,-1.7229963E-2,6.9846556E-2,4.425726E-3,-6.393326E-2,1.5871958E-1,2.659525E-2,-1.9204548E-3],"split_indices":[2,2,2,1,2,0,2,0,0,0,0,0,0,0,0],"split_type":[0,0,0,0,0,0,0,0,0,0,0,0,0,0,0],"sum_hessian":[2.6665271E4,1.2374713E4,1.4290559E4,9.890189E3,2.4845234E3,3.8464786E2,1.390591E4,7.5084756E3,2.3817139E3,4.994826E2,1.9850409E3,3.783665E2,6.2813716E0,6.982277E2,1.3207683E4],"tree_param":{"num_deleted":"0","num_feature":"7","num_nodes":"15","size_leaf_vector":"0"}},{"base_weights":[-1.6178447E-4,2.01036E-2,-2.6483021E-3,-1.047461E-2,2.0213315E-1,-4.9747398E-1,1.4936227E-4,6.8057836E-3,-2.1582942E-1,2.6779693E-1,-2.2539994E-1,-3.8240555E-1,-7.38981E-1,4.3590613E-2,-3.3619138E-3],"categories":[],"categories_nodes":[],"categories_segments":[],"categories_sizes":[],"default_left":[1,1,1,1,1,1,1,0,0,0,0,0,0,0,0],"id":62,"left_children":[1,3,5,7,9,11,13,-1,-1,-1,-1,-1,-1,-1,-1],"loss_changes":[1.3434383E0,1.6220188E1,3.2874275E1,8.857355E0,1.1826256E1,3.4275436E0,3.6021535E0,0E0,0E0,0E0,0E0,0E0,0E0,0E0,0E0],"parents":[2147483647,0,0,1,1,2,2,3,3,4,4,5,5,6,6],"right_children":[2,4,6,8,10,12,14,-1,-1,-1,-1,-1,-1,-1,-1],"split_conditions":[8.84426E-3,6.3498933E-3,1.2922821E-2,4.9510146E-3,5.7104194E-1,6.923077E-2,2.1853998E-2,2.0417352E-3,-6.474883E-2,8.033908E-2,-6.761999E-2,-1.1472167E-1,-2.216943E-1,1.3077185E-2,-1.0085742E-3],"split_indices":[5,5,5,5,0,1,5,0,0,0,0,0,0,0,0],"split_type":[0,0,0,0,0,0,0,0,0,0,0,0,0,0,0],"sum_hessian":[2.6658629E4,2.9127031E3,2.3745926E4,2.4945918E3,4.1811124E2,1.3250676E2,2.361342E4,2.3018596E3,1.9273224E2,3.6276816E2,5.5343075E1,9.1496E1,4.1010757E1,1.7650415E3,2.1848379E4],"tree_param":{"num_deleted":"0","num_feature":"7","num_nodes":"15","size_leaf_vector":"0"}},{"base_weights":[-1.8949849E-4,-2.569261E-4,7.245081E-1,2.4474252E-4,-9.49321E-2,-1.2338056E-1,6.992368E-4,-1.2949299E-2,-4.4274366E-1],"categories":[],"categories_nodes":[],"categories_segments":[],"categories_sizes":[],"default_left":[1,1,0,1,1,0,0,0,0],"id":63,"left_children":[1,3,-1,5,7,-1,-1,-1,-1],"loss_changes":[1.3024906E0,1.2657702E0,0E0,1.4896213E0,3.9997427E0,0E0,0E0,0E0,0E0],"parents":[2147483647,0,0,1,1,3,3,4,4],"right_children":[2,4,-1,6,8,-1,-1,-1,-1],"split_conditions":[2.4972584E1,5E-1,2.1735243E-1,4.9664497E-2,4.5384616E-1,-3.7014168E-2,2.0977105E-4,-3.8847898E-3,-1.3282311E-1],"split_indices":[0,6,0,2,1,0,0,0,0],"split_type":[0,0,0,0,0,0,0,0,0],"sum_hessian":[2.665027E4,2.664879E4,1.4798224E0,2.6509318E4,1.3947122E2,9.611079E1,2.6413207E4,1.1370662E2,2.5764605E1],"tree_param":{"num_deleted":"0","num_feature":"7","num_nodes":"9","size_leaf_vector":"0"}},{"base_weights":[-1.4125086E-4,-2.5191063E-2,1.7211997E-3,1.3669964E-2,-1.2448229E-1,2.6188886E-3,-6.44582E-2,-1.1727481E-1,8.434809E-2,-1.9214442E-1,5.1229626E-2,-3.2257062E-1,2.8475197E-3,-2.0707482E-1,8.657265E-3],"categories":[],"categories_nodes":[],"categories_segments":[],"categories_sizes":[],"default_left":[1,1,1,1,1,1,1,0,0,0,0,0,0,0,0],"id":64,"left_children":[1,3,5,7,9,11,13,-1,-1,-1,-1,-1,-1,-1,-1],"loss_changes":[1.2432743E0,7.1177235E0,1.4737761E0,1.2285228E1,6.178608E0,1.8204974E0,3.4636986E0,0E0,0E0,0E0,0E0,0E0,0E0,0E0,0E0],"parents":[2147483647,0,0,1,1,2,2,3,3,4,4,5,5,6,6],"right_children":[2,4,6,8,10,12,14,-1,-1,-1,-1,-1,-1,-1,-1],"split_conditions":[5.5555556E-2,5.3929996E-1,8.384615E-1,-3.472377E-1,5.153847E-1,3.771889E-5,3.888889E-1,-3.5182446E-2,2.5304427E-2,-5.7643328E-2,1.5368888E-2,-9.677119E-2,8.542559E-4,-6.212245E-2,2.5971797E-3],"split_indices":[3,0,1,0,1,5,3,0,0,0,0,0,0,0,0],"split_type":[0,0,0,0,0,0,0,0,0,0,0,0,0,0,0],"sum_hessian":[2.6646873E4,1.8432175E3,2.4803654E4,1.3253562E3,5.1786127E2,2.4472656E4,3.3099832E2,4.6436734E2,8.6098883E2,3.7381952E2,1.4404178E2,1.6203373E1,2.4456453E4,1.115603E2,2.1943803E2],"tree_param":{"num_deleted":"0","num_feature":"7","num_nodes":"15","size_leaf_vector":"0"}},{"base_weights":[-1.3339835E-4,-2.9083444E-3,1.5052617E-2,-2.3672968E-2,2.2531482E-3,-3.0948478E-1,2.0740867E-2,4.174934E-2,-3.73322E-2,1.1081042E0,1.9628531E-3,-1.04309686E-1,-6.7017263E-1,6.116469E-3,1.2318736E-1],"categories":[],"categories_nodes":[],"categories_segments":[],"categories_sizes":[],"default_left":[1,1,1,1,1,1,1,0,0,0,0,0,0,0,0],"id":65,"left_children":[1,3,5,7,9,11,13,-1,-1,-1,-1,-1,-1,-1,-1],"loss_changes":[1.1229277E0,2.4147706E0,7.6065674E0,4.009906E0,5.790936E0,5.182849E0,6.062535E0,0E0,0E0,0E0,0E0,0E0,0E0,0E0,0E0],"parents":[2147483647,0,0,1,1,2,2,3,3,4,4,5,5,6,6],"right_children":[2,4,6,8,10,12,14,-1,-1,-1,-1,-1,-1,-1,-1],"split_conditions":[5.6153846E-1,-7.106137E-1,5E-1,8.1233636E-2,-7.057594E-1,3.730033E-1,1.3186066E0,1.2524802E-2,-1.1199661E-2,3.324313E-1,5.8885594E-4,-3.1292908E-2,-2.010518E-1,1.8349407E-3,3.695621E-2],"split_indices":[1,0,4,2,0,0,0,0,0,0,0,0,0,0,0],"split_type":[0,0,0,0,0,0,0,0,0,0,0,0,0,0,0],"sum_hessian":[2.6645275E4,2.2529297E4,4.115978E3,4.484524E3,1.8044773E4,6.997919E1,4.045999E3,7.7422705E2,3.7102969E3,3.7341475E0,1.804104E4,4.5427326E1,2.4551859E1,3.5415037E3,5.0449548E2],"tree_param":{"num_deleted":"0","num_feature":"7","num_nodes":"15","size_leaf_vector":"0"}},{"base_weights":[-1.210846E-4,2.6086133E-3,-1.7516479E-2,2.420042E-3,1.2476989E0,-8.582288E-2,1.1055975E-2,5.313446E-4,1.0291383E-1,3.6710256E-1,1.7090772E0,-5.3920075E-3,-1.1644175E-1,-3.65542E-2,5.3213995E-2],"categories":[],"categories_nodes":[],"categories_segments":[],"categories_sizes":[],"default_left":[1,1,1,1,1,1,1,0,0,0,0,0,0,0,0],"id":66,"left_children":[1,3,5,7,9,11,13,-1,-1,-1,-1,-1,-1,-1,-1],"loss_changes":[1.2652978E0,5.4047475E0,7.0548506E0,4.3710947E0,7.8885174E-1,2.6247845E0,5.1185727E0,0E0,0E0,0E0,0E0,0E0,0E0,0E0,0E0],"parents":[2147483647,0,0,1,1,2,2,3,3,4,4,5,5,6,6],"right_children":[2,4,6,8,10,12,14,-1,-1,-1,-1,-1,-1,-1,-1],"split_conditions":[9.725259E-1,9.7235143E-1,3.3076924E-1,9.0880936E-1,2.018305E-1,1.2739733E-1,2.018305E-1,1.594034E-4,3.087415E-2,1.1013077E-1,5.127232E-1,-1.6176023E-3,-3.4932528E-2,-1.096626E-2,1.5964199E-2],"split_indices":[0,0,1,0,5,2,5,0,0,0,0,0,0,0,0],"split_type":[0,0,0,0,0,0,0,0,0,0,0,0,0,0,0],"sum_hessian":[2.6644762E4,2.3031494E4,3.6132688E3,2.3029008E4,2.4858482E0,1.0650695E3,2.5481995E3,2.2605168E4,4.2384006E2,1.472008E0,1.0138402E0,2.9398752E2,7.71082E2,1.1967784E3,1.3514209E3],"tree_param":{"num_deleted":"0","num_feature":"7","num_nodes":"15","size_leaf_vector":"0"}},{"base_weights":[-7.6090466E-5,7.2406577E-3,-5.1734145E-3,6.3777347E-3,7.83281E-1,-4.08672E-1,-3.4361626E-3,7.008392E-3,-7.248109E-1,2.1976775E-2,1.1243227E0,-2.7949205E-1,-1.1459675E0,5.5731064E-1,-3.851301E-3],"categories":[],"categories_nodes":[],"categories_segments":[],"categories_sizes":[],"default_left":[1,1,1,1,1,1,1,0,0,0,0,0,0,0,0],"id":67,"left_children":[1,3,5,7,9,11,13,-1,-1,-1,-1,-1,-1,-1,-1],"loss_changes":[9.93749E-1,7.3215747E0,1.100701E1,5.0450106E0,3.128274E0,6.0911694E0,3.6424856E0,0E0,0E0,0E0,0E0,0E0,0E0,0E0,0E0],"parents":[2147483647,0,0,1,1,2,2,3,3,4,4,5,5,6,6],"right_children":[2,4,6,8,10,12,14,-1,-1,-1,-1,-1,-1,-1,-1],"split_conditions":[-1.670817E-2,-1.7580202E-2,-1.25805475E-2,-1.8335965E-2,1.01130724E-1,-1.3045631E-2,-1.176665E-2,2.1025178E-3,-2.1744327E-1,6.5930327E-3,3.372968E-1,-8.384762E-2,-3.4379026E-1,1.671932E-1,-1.1553904E-3],"split_indices":[0,0,0,0,2,0,0,0,0,0,0,0,0,0,0],"split_type":[0,0,0,0,0,0,0,0,0,0,0,0,0,0,0],"sum_hessian":[2.6643037E4,1.0939686E4,1.5703351E4,1.0928542E4,1.1143839E1,6.63163E1,1.5637034E4,1.0920113E4,8.428283E0,3.776974E0,7.3668647E0,5.7602898E1,8.7134E0,1.0575624E1,1.5626459E4],"tree_param":{"num_deleted":"0","num_feature":"7","num_nodes":"15","size_leaf_vector":"0"}},{"base_weights":[-8.365253E-5,-6.0015114E-4,6.655223E-2,4.5238105E-3,-9.741904E-3,-1.4128989E-1,3.460191E-1,4.3386053E-3,9.117718E-1,-1.8452911E-1,-6.861801E-3,4.1245303E-1,-2.0825146E-1,1.248892E0,2.9085007E-1],"categories":[],"categories_nodes":[],"categories_segments":[],"categories_sizes":[],"default_left":[1,1,1,1,1,1,1,0,0,0,0,0,0,0,0],"id":68,"left_children":[1,3,5,7,9,11,13,-1,-1,-1,-1,-1,-1,-1,-1],"loss_changes":[9.170701E-1,1.2385688E0,1.1952998E1,2.843134E0,4.7796807E0,4.470278E0,4.0051584E0,0E0,0E0,0E0,0E0,0E0,0E0,0E0,0E0],"parents":[2147483647,0,0,1,1,2,2,3,3,4,4,5,5,6,6],"right_children":[2,4,6,8,10,12,14,-1,-1,-1,-1,-1,-1,-1,-1],"split_conditions":[1.8924466E-1,4.2307693E-1,4.076923E-1,1.6599033E1,5E-1,1.6735708E-2,5E-1,1.3015816E-3,2.7353156E-1,-5.5358734E-2,-2.0585402E-3,1.2373591E-1,-6.247544E-2,3.7466758E-1,8.725502E-2],"split_indices":[2,1,1,0,4,5,4,0,0,0,0,0,0,0,0],"split_type":[0,0,0,0,0,0,0,0,0,0,0,0,0,0,0],"sum_hessian":[2.6643422E4,2.643948E4,2.0394296E2,1.6943268E4,9.496212E3,1.1724281E2,8.670014E1,1.6940814E4,2.4535017E0,1.5291742E2,9.343295E3,1.2091537E1,1.05151276E2,3.7466414E0,8.29535E1],"tree_param":{"num_deleted":"0","num_feature":"7","num_nodes":"15","size_leaf_vector":"0"}},{"base_weights":[-5.8595673E-5,1.0759544E-2,-3.077458E-3,-5.026384E-2,2.2998197E-2,-3.8219098E-2,1.04286315E-4,6.3346983E-3,-2.5938016E-1,2.9975025E-3,5.9904568E-2,3.2755342E-1,-5.847921E-2,-6.0463583E-1,5.31308E-4],"categories":[],"categories_nodes":[],"categories_segments":[],"categories_sizes":[],"default_left":[1,1,1,1,1,1,1,0,0,0,0,0,0,0,0],"id":69,"left_children":[1,3,5,7,9,11,13,-1,-1,-1,-1,-1,-1,-1,-1],"loss_changes":[8.7003595E-1,4.3419843E0,2.32884E0,1.1497223E1,3.573931E0,1.2833801E1,4.9326406E0,0E0,0E0,0E0,0E0,0E0,0E0,0E0,0E0],"parents":[2147483647,0,0,1,1,2,2,3,3,4,4,5,5,6,6],"right_children":[2,4,6,8,10,12,14,-1,-1,-1,-1,-1,-1,-1,-1],"split_conditions":[2.6831253E-2,8.982305E-2,1.2575315E-1,8.1233636E-2,1.6735708E-2,5E-1,7.6923077E-3,1.9004096E-3,-7.781405E-2,8.992508E-4,1.797137E-2,9.826603E-2,-1.7543763E-2,-1.8139076E-1,1.5939241E-4],"split_indices":[5,2,5,2,5,4,1,0,0,0,0,0,0,0,0],"split_type":[0,0,0,0,0,0,0,0,0,0,0,0,0,0,0],"sum_hessian":[2.6638422E4,5.811229E3,2.0827193E4,9.70265E2,4.840964E3,1.7282338E3,1.9098959E4,7.6435706E2,2.0590793E2,3.1402485E3,1.7007156E3,8.9906685E1,1.638327E3,1.2478307E1,1.908648E4],"tree_param":{"num_deleted":"0","num_feature":"7","num_nodes":"15","size_leaf_vector":"0"}},{"base_weights":[-8.893703E-5,1.7800253E-2,-2.2833254E-3,-3.0539038E-3,1.3908204E-1,-3.908771E-1,-2.9446732E-4,3.439113E-2,-5.707841E-2,1.820065E-1,-1.5671904E-1,-8.0513084E-1,-3.384377E-1,2.3609256E-2,-3.9767637E-3],"categories":[],"categories_nodes":[],"categories_segments":[],"categories_sizes":[],"default_left":[1,1,1,1,1,1,1,0,0,0,0,0,0,0,0],"id":70,"left_children":[1,3,5,7,9,11,13,-1,-1,-1,-1,-1,-1,-1,-1],"loss_changes":[1.045745E0,7.3621974E0,1.8338654E1,5.0281887E0,5.451145E0,2.352232E0,2.0781448E0,0E0,0E0,0E0,0E0,0E0,0E0,0E0,0E0],"parents":[2147483647,0,0,1,1,2,2,3,3,4,4,5,5,6,6],"right_children":[2,4,6,8,10,12,14,-1,-1,-1,-1,-1,-1,-1,-1],"split_conditions":[8.84426E-3,6.3498933E-3,1.2922821E-2,6.1111116E-1,5.7104194E-1,6.9944896E-2,1.15384616E-1,1.031734E-2,-1.7123524E-2,5.460195E-2,-4.7015715E-2,-2.4153925E-1,-1.0153132E-1,7.082777E-3,-1.1930291E-3],"split_indices":[5,5,5,3,0,2,1,0,0,0,0,0,0,0,0],"split_type":[0,0,0,0,0,0,0,0,0,0,0,0,0,0,0],"sum_hessian":[2.6637195E4,2.909678E3,2.3727516E4,2.4836025E3,4.2607553E2,1.1982555E2,2.3607691E4,1.4671008E3,1.0165018E3,3.7241776E2,5.365779E1,1.1851229E1,1.0797432E2,3.15053E3,2.045716E4],"tree_param":{"num_deleted":"0","num_feature":"7","num_nodes":"15","size_leaf_vector":"0"}},{"base_weights":[-1.1305334E-4,-5.3411764E-3,7.3519778E-3,3.4745887E-2,-9.183263E-3,1.1113134E-2,-8.3705015E-2,1.0223653E-2,3.2545072E-1,8.690682E-3,-2.0626366E-2,-3.2573733E-2,2.0692982E-2,-1.8633178E-1,-3.55996E-2],"categories":[],"categories_nodes":[],"categories_segments":[],"categories_sizes":[],"default_left":[1,1,1,1,1,1,1,0,0,0,0,0,0,0,0],"id":71,"left_children":[1,3,5,7,9,11,13,-1,-1,-1,-1,-1,-1,-1,-1],"loss_changes":[1.0397091E0,2.413376E0,3.758834E0,9.766549E0,2.924573E0,4.4110813E0,2.1427426E0,0E0,0E0,0E0,0E0,0E0,0E0,0E0,0E0],"parents":[2147483647,0,0,1,1,2,2,3,3,4,4,5,5,6,6],"right_children":[2,4,6,8,10,12,14,-1,-1,-1,-1,-1,-1,-1,-1],"split_conditions":[6.1111116E-1,4.9510146E-3,7.4615383E-1,4.5262673E-3,1.12985134E-1,1.6153847E-1,-5.982165E-3,3.067096E-3,9.763522E-2,2.6072047E-3,-6.18791E-3,-9.77212E-3,6.207895E-3,-5.5899534E-2,-1.067988E-2],"split_indices":[3,5,1,5,2,1,0,0,0,0,0,0,0,0,0],"split_type":[0,0,0,0,0,0,0,0,0,0,0,0,0,0,0],"sum_hessian":[2.6638008E4,1.5666372E4,1.0971636E4,1.3694929E3,1.4296879E4,1.0537267E4,4.343693E2,1.2639116E3,1.05581345E2,5.580487E3,8.716392E3,1.8946617E3,8.6426045E3,1.3770975E2,2.9665958E2],"tree_param":{"num_deleted":"0","num_feature":"7","num_nodes":"15","size_leaf_vector":"0"}},{"base_weights":[-1.0117973E-4,1.7382888E-2,-2.131299E-3,4.5052066E-2,-3.4904383E-2,7.0939603E-4,-6.2806845E-2,2.7662396E-2,4.875413E-1,-1.2651591E-1,3.437009E-2,2.2757353E-2,-1.8947572E-3,-5.6775376E-2,-5.9454626E-1],"categories":[],"categories_nodes":[],"categories_segments":[],"categories_sizes":[],"default_left":[1,1,1,1,1,1,1,0,0,0,0,0,0,0,0],"id":72,"left_children":[1,3,5,7,9,11,13,-1,-1,-1,-1,-1,-1,-1,-1],"loss_changes":[9.454025E-1,4.010389E0,4.113267E0,1.3933004E1,6.0933356E0,1.3090035E0,3.3892713E0,0E0,0E0,0E0,0E0,0E0,0E0,0E0,0E0],"parents":[2147483647,0,0,1,1,2,2,3,3,4,4,5,5,6,6],"right_children":[2,4,6,8,10,12,14,-1,-1,-1,-1,-1,-1,-1,-1],"split_conditions":[8.461539E-2,2.5283718E-1,2.814551E-1,2.135085E-1,2.814551E-1,2.0769231E-1,2.0503874E0,8.298719E-3,1.4626239E-1,-3.7954774E-2,1.0311028E-2,6.8272064E-3,-5.6842715E-4,-1.7032614E-2,-1.7836389E-1],"split_indices":[1,0,5,0,5,1,0,0,0,0,0,0,0,0,0],"split_type":[0,0,0,0,0,0,0,0,0,0,0,0,0,0,0],"sum_hessian":[2.6632953E4,2.7699192E3,2.3863033E4,1.8114706E3,9.5844867E2,2.2796729E4,1.0663042E3,1.7439946E3,6.747586E1,4.1233414E2,5.4611456E2,2.4073403E3,2.0389389E4,1.0554393E3,1.0864979E1],"tree_param":{"num_deleted":"0","num_feature":"7","num_nodes":"15","size_leaf_vector":"0"}},{"base_weights":[-1.12433736E-4,-2.562855E-3,1.3298477E-2,3.9570418E-4,-3.3823438E-2,8.1443675E-2,-2.484608E-3,4.352382E-2,-2.0990674E-3,-1.9518432E-1,-1.9320775E-2,3.3625323E-2,2.2578803E-1,-5.9736455E-3,4.523981E-1],"categories":[],"categories_nodes":[],"categories_segments":[],"categories_sizes":[],"default_left":[1,1,1,1,1,1,1,0,0,0,0,0,0,0,0],"id":73,"left_children":[1,3,5,7,9,11,13,-1,-1,-1,-1,-1,-1,-1,-1],"loss_changes":[8.752748E-1,2.0827801E0,4.425819E0,2.213713E0,4.552641E0,5.333638E0,5.3067174E0,0E0,0E0,0E0,0E0,0E0,0E0,0E0,0E0],"parents":[2147483647,0,0,1,1,2,2,3,3,4,4,5,5,6,6],"right_children":[2,4,6,8,10,12,14,-1,-1,-1,-1,-1,-1,-1,-1],"split_conditions":[5.6153846E-1,5E-1,-4.785658E-1,7.11426E-2,3.5308162E-3,1.6182694E-1,1.8924466E-1,1.3057146E-2,-6.297203E-4,-5.8555298E-2,-5.7962327E-3,1.0087597E-2,6.773641E-2,-1.7920937E-3,1.3571943E-1],"split_indices":[1,1,0,2,5,2,2,0,0,0,0,0,0,0,0],"split_type":[0,0,0,0,0,0,0,0,0,0,0,0,0,0,0],"sum_hessian":[2.6632518E4,2.2518736E4,4.1137803E3,2.0572688E4,1.9460496E3,7.728323E2,3.340948E3,1.1240658E3,1.9448621E4,1.5945442E2,1.7865951E3,5.8144446E2,1.9138779E2,3.3164966E3,2.4451296E1],"tree_param":{"num_deleted":"0","num_feature":"7","num_nodes":"15","size_leaf_vector":"0"}},{"base_weights":[-9.6862415E-5,-4.5277152E-2,1.0626009E-3,-5.1694594E-2,5.3123945E-1,5.4989524E-2,-4.616228E-4,-3.3293106E-2,-3.3105093E-1,-1.3915543E-1,1.677942E0,2.1340275E-1,-4.492286E-3,-2.549509E-1,1.0261827E-3],"categories":[],"categories_nodes":[],"categories_segments":[],"categories_sizes":[],"default_left":[1,1,1,1,1,1,1,0,0,0,0,0,0,0,0],"id":74,"left_children":[1,3,5,7,9,11,13,-1,-1,-1,-1,-1,-1,-1,-1],"loss_changes":[1.3954473E0,2.493414E0,2.1348312E0,3.382218E0,5.9423904E0,6.7279816E0,9.564093E0,0E0,0E0,0E0,0E0,0E0,0E0,0E0,0E0],"parents":[2147483647,0,0,1,1,2,2,3,3,4,4,5,5,6,6],"right_children":[2,4,6,8,10,12,14,-1,-1,-1,-1,-1,-1,-1,-1],"split_conditions":[6.2170517E-2,1.4046763E0,7.11426E-2,7.964625E-1,7.222222E-1,1.15384616E-1,7.188505E-2,-9.987932E-3,-9.9315286E-2,-4.174663E-2,5.033826E-1,6.402083E-2,-1.3476859E-3,-7.6485276E-2,3.0785482E-4],"split_indices":[2,0,2,0,3,1,2,0,0,0,0,0,0,0,0],"split_type":[0,0,0,0,0,0,0,0,0,0,0,0,0,0,0],"sum_hessian":[2.6636436E4,6.655161E2,2.597092E4,6.5908984E2,6.4262676E0,7.1291626E2,2.5258004E4,6.1940796E2,3.968186E1,4.60986E0,1.8164078E0,1.9390817E2,5.1900806E2,1.458159E2,2.5112188E4],"tree_param":{"num_deleted":"0","num_feature":"7","num_nodes":"15","size_leaf_vector":"0"}},{"base_weights":[-8.716392E-5,-3.3312146E-2,1.1801433E-3,-3.5720655E-1,-1.9895963E-2,1.3661303E-1,-7.08374E-5,-4.5445347E-1,1.850652E-1,7.985594E-3,-1.3133778E-1,5.9171736E-1,-1.3088171E-2,-4.2683724E-2,1.5372748E-3],"categories":[],"categories_nodes":[],"categories_segments":[],"categories_sizes":[],"default_left":[1,1,1,1,1,1,1,0,0,0,0,0,0,0,0],"id":75,"left_children":[1,3,5,7,9,11,13,-1,-1,-1,-1,-1,-1,-1,-1],"loss_changes":[1.1216708E0,4.246047E0,4.3474874E0,2.1339054E0,2.9245703E0,1.6008232E1,1.7424496E0,0E0,0E0,0E0,0E0,0E0,0E0,0E0,0E0],"parents":[2147483647,0,0,1,1,2,2,3,3,4,4,5,5,6,6],"right_children":[2,4,6,8,10,12,14,-1,-1,-1,-1,-1,-1,-1,-1],"split_conditions":[6.9944896E-2,5E-1,7.0439875E-2,3.923077E-1,2.814551E-1,1E-1,7.3290944E-2,-1.3633604E-1,5.5519562E-2,2.3956783E-3,-3.9401334E-2,1.7751521E-1,-3.926452E-3,-1.2805118E-2,4.6118247E-4],"split_indices":[2,4,2,1,5,1,2,0,0,0,0,0,0,0,0],"split_type":[0,0,0,0,0,0,0,0,0,0,0,0,0,0,0],"sum_hessian":[2.6637117E4,9.777654E2,2.5659352E4,3.787041E1,9.39895E2,2.3385347E2,2.5425498E4,3.2249054E1,5.621355E0,7.525447E2,1.8735033E2,5.7152462E1,1.76701E2,9.236784E2,2.450182E4],"tree_param":{"num_deleted":"0","num_feature":"7","num_nodes":"15","size_leaf_vector":"0"}},{"base_weights":[-1.0205941E-4,2.1648698E-2,-1.5690963E-3,-1.0908671E-2,3.024618E-1,-1.9382107E-1,2.2449056E-4,1.8914372E-2,-2.0857032E-1,6.8229306E-1,7.1863336E-3,-4.2818436E-1,-8.940851E-2,6.387064E-2,-7.8780693E-4],"categories":[],"categories_nodes":[],"categories_segments":[],"categories_sizes":[],"default_left":[1,1,1,1,1,1,1,0,0,0,0,0,0,0,0],"id":76,"left_children":[1,3,5,7,9,11,13,-1,-1,-1,-1,-1,-1,-1,-1],"loss_changes":[8.499511E-1,1.5390703E1,8.604513E0,8.900261E0,1.9610374E1,5.6058083E0,1.5929768E0,0E0,0E0,0E0,0E0,0E0,0E0,0E0,0E0],"parents":[2147483647,0,0,1,1,2,2,3,3,4,4,5,5,6,6],"right_children":[2,4,6,8,10,12,14,-1,-1,-1,-1,-1,-1,-1,-1],"split_conditions":[3.296303E-3,3.207746E-3,3.8768463E-3,2.6649218E-3,1.2289103E-1,7.418073E-3,4.9510146E-3,5.674312E-3,-6.25711E-2,2.0468792E-1,2.1559002E-3,-1.2845531E-1,-2.6822554E-2,1.9161193E-2,-2.363421E-4],"split_indices":[5,5,5,5,2,0,5,0,0,0,0,0,0,0,0],"split_type":[0,0,0,0,0,0,0,0,0,0,0,0,0,0,0],"sum_hessian":[2.663452E4,1.6820565E3,2.4952463E4,1.508162E3,1.7389459E2,2.2964908E2,2.4722814E4,1.311229E3,1.9693295E2,7.5484055E1,9.8410545E1,6.982338E1,1.598257E2,3.860901E2,2.4336723E4],"tree_param":{"num_deleted":"0","num_feature":"7","num_nodes":"15","size_leaf_vector":"0"}},{"base_weights":[-1.1387284E-4,-5.223655E-5,-4.93994E-1,-8.059982E-3,3.4809571E-3,-6.0748136E-1,-1.4912118E-1,-1.818623E-3,-1.4771728E-1,3.828622E-2,-1.3162016E-3],"categories":[],"categories_nodes":[],"categories_segments":[],"categories_sizes":[],"default_left":[1,1,1,1,1,0,0,0,0,0,0],"id":77,"left_children":[1,3,5,7,9,-1,-1,-1,-1,-1,-1],"loss_changes":[8.106606E-1,7.5344384E-1,3.9472997E-2,7.1060085E0,3.0851665E0,0E0,0E0,0E0,0E0,0E0,0E0],"parents":[2147483647,0,0,1,1,2,2,3,3,4,4],"right_children":[2,4,6,8,10,-1,-1,-1,-1,-1,-1],"split_conditions":[9.461539E-1,1.024601E-1,2.960319E-1,1.0063654E-1,1.12985134E-1,-1.8224442E-1,-4.4736356E-2,-5.455869E-4,-4.4315185E-2,1.1485866E-2,-3.9486052E-4],"split_indices":[1,2,0,2,2,0,0,0,0,0,0],"split_type":[0,0,0,0,0,0,0,0,0,0,0],"sum_hessian":[2.6630453E4,2.662813E4,2.3230877E0,8.15166E3,1.847647E4,1.1749741E0,1.1481137E0,7.803912E3,3.47748E2,2.2372642E3,1.6239206E4],"tree_param":{"num_deleted":"0","num_feature":"7","num_nodes":"11","size_leaf_vector":"0"}},{"base_weights":[-1.0023668E-4,-5.1788305E-4,6.791093E-2,-2.747541E-4,-5.9289986E-1,2.4841109E-1,-8.286446E-2,-3.821752E-4,1.1188151E0,-9.823671E-1,-2.084917E-2,5.950797E-1,1.257706E-1,-3.4146285E-1,1.1201526E-1],"categories":[],"categories_nodes":[],"categories_segments":[],"categories_sizes":[],"default_left":[1,1,1,1,1,1,1,0,0,0,0,0,0,0,0],"id":78,"left_children":[1,3,5,7,9,11,13,-1,-1,-1,-1,-1,-1,-1,-1],"loss_changes":[7.564299E-1,3.8118606E0,4.4439974E0,3.1810324E0,2.3986561E0,3.080924E0,4.539072E0,0E0,0E0,0E0,0E0,0E0,0E0,0E0,0E0],"parents":[2147483647,0,0,1,1,2,2,3,3,4,4,5,5,6,6],"right_children":[2,4,6,8,10,12,14,-1,-1,-1,-1,-1,-1,-1,-1],"split_conditions":[3.0991526E0,3.02096E0,3.7105637E0,3.0077634E0,6.1111116E-1,1.2796938E-1,4.3676987E0,-1.1465257E-4,3.3564454E-1,-2.9471013E-1,-6.2547512E-3,1.7852393E-1,3.773118E-2,-1.0243886E-1,3.360458E-2],"split_indices":[0,0,0,0,3,2,0,0,0,0,0,0,0,0,0],"split_type":[0,0,0,0,0,0,0,0,0,0,0,0,0,0,0],"sum_hessian":[2.6628285E4,2.646675E4,1.6153595E2,2.6456893E4,9.858132E0,7.322609E1,8.830987E1,2.6455352E4,1.5397828E0,5.4383125E0,4.41982E0,1.8128868E1,5.5097218E1,3.7627438E1,5.068243E1],"tree_param":{"num_deleted":"0","num_feature":"7","num_nodes":"15","size_leaf_vector":"0"}},{"base_weights":[-7.66346E-5,5.514062E-4,-4.280842E-2,-1.6417568E-4,2.3233414E-1,-1.6602287E-1,1.1332403E-2,-7.043193E-5,-7.324578E-1,-3.1438807E-1,3.0384114E-1,-1.0901181E-1,-6.415597E-1,-1.5697926E-1,8.920588E-2],"categories":[],"categories_nodes":[],"categories_segments":[],"categories_sizes":[],"default_left":[1,1,1,1,1,1,1,0,0,0,0,0,0,0,0],"id":79,"left_children":[1,3,5,7,9,11,13,-1,-1,-1,-1,-1,-1,-1,-1],"loss_changes":[7.146506E-1,4.352758E0,2.574892E0,1.7960289E0,3.2532825E0,3.1239145E0,3.53845E0,0E0,0E0,0E0,0E0,0E0,0E0,0E0,0E0],"parents":[2147483647,0,0,1,1,2,2,3,3,4,4,5,5,6,6],"right_children":[2,4,6,8,10,12,14,-1,-1,-1,-1,-1,-1,-1,-1],"split_conditions":[2.3225198E0,2.228195E0,2.5869493E0,2.2252593E0,1.923077E-1,2.5463998E0,3.4615386E-1,-2.1129581E-5,-2.1973735E-1,-9.431642E-2,9.115235E-2,-3.2703545E-2,-1.9246793E-1,-4.7093783E-2,2.6761767E-2],"split_indices":[0,0,0,0,1,0,1,0,0,0,0,0,0,0,0],"split_type":[0,0,0,0,0,0,0,0,0,0,0,0,0,0,0],"sum_hessian":[2.662712E4,2.6242414E4,3.8470483E2,2.6162643E4,7.977252E1,1.1680711E2,2.6789774E2,2.6160293E4,2.3487844E0,8.8339615E0,7.093856E1,1.0540016E2,1.1406952E1,8.4420296E1,1.8347743E2],"tree_param":{"num_deleted":"0","num_feature":"7","num_nodes":"15","size_leaf_vector":"0"}},{"base_weights":[-8.346663E-5,1.043271E-3,-2.357927E-2,2.400065E-4,4.0561965E-1,-3.3380425E-1,7.2347635E-4,4.233548E-4,-9.470984E-1,-2.9926753E-1,7.367721E-1,3.421855E-2,-4.9363083E-1,4.1013825E-1,-1.3609978E-2],"categories":[],"categories_nodes":[],"categories_segments":[],"categories_sizes":[],"default_left":[1,1,1,1,1,1,1,0,0,0,0,0,0,0,0],"id":80,"left_children":[1,3,5,7,9,11,13,-1,-1,-1,-1,-1,-1,-1,-1],"loss_changes":[7.0493895E-1,8.257546E0,9.18696E0,4.4052877E0,1.1973151E1,5.2238693E0,6.642564E0,0E0,0E0,0E0,0E0,0E0,0E0,0E0,0E0],"parents":[2147483647,0,0,1,1,2,2,3,3,4,4,5,5,6,6],"right_children":[2,4,6,8,10,12,14,-1,-1,-1,-1,-1,-1,-1,-1],"split_conditions":[1.604837E0,1.5783561E0,1.6500082E0,1.5769609E0,3.888889E-1,2.777778E-1,1.6700358E0,1.2700644E-4,-2.8412953E-1,-8.978026E-2,2.2103165E-1,1.02655655E-2,-1.4808926E-1,1.2304148E-1,-4.0829936E-3],"split_indices":[0,0,0,0,3,3,0,0,0,0,0,0,0,0,0],"split_type":[0,0,0,0,0,0,0,0,0,0,0,0,0,0,0],"sum_hessian":[2.662606E4,2.5408553E4,1.2175077E3,2.5359203E4,4.9348736E1,8.7524216E1,1.1299835E3,2.5355295E4,3.9077225E0,1.580426E1,3.3544476E1,2.6739262E1,6.0784958E1,3.728809E1,1.0926954E3],"tree_param":{"num_deleted":"0","num_feature":"7","num_nodes":"15","size_leaf_vector":"0"}},{"base_weights":[-9.610636E-5,5.2953478E-2,-5.718294E-4,1.3167374E-1,-1.670688E-1,-7.048903E-2,5.61368E-4,-2.8731155E-1,2.0847379E-1,3.7285084E-1,-3.292507E-1,-4.775446E-1,-4.3748353E-2,2.323087E-2,-1.2827539E-3],"categories":[],"categories_nodes":[],"categories_segments":[],"categories_sizes":[],"default_left":[1,1,1,1,1,1,1,0,0,0,0,0,0,0,0],"id":81,"left_children":[1,3,5,7,9,11,13,-1,-1,-1,-1,-1,-1,-1,-1],"loss_changes":[6.7200524E-1,4.121063E0,2.0909991E0,5.686582E0,5.6221085E0,4.560837E0,1.0857596E0,0E0,0E0,0E0,0E0,0E0,0E0,0E0,0E0],"parents":[2147483647,0,0,1,1,2,2,3,3,4,4,5,5,6,6],"right_children":[2,4,6,8,10,12,14,-1,-1,-1,-1,-1,-1,-1,-1],"split_conditions":[5.9496395E-2,4.2307693E-1,6.2170517E-2,2.1853998E-2,4.232552E-2,5.3846154E-2,7.4437484E-2,-8.619347E-2,6.254214E-2,1.1185525E-1,-9.8775215E-2,-1.4326338E-1,-1.3124506E-2,6.969261E-3,-3.8482618E-4],"split_indices":[2,1,2,5,5,1,2,0,0,0,0,0,0,0,0],"split_type":[0,0,0,0,0,0,0,0,0,0,0,0,0,0,0],