{"learner":{"attributes":{"best_iteration":"39","best_ntree_limit":"40","scikit_learn":"{\"use_label_encoder\": false, \"n_estimators\": 40, \"objective\": \"binary:logistic\", \"max_depth\": 3, \"max_leaves\": null, \"max_bin\": null, \"grow_policy\": null, \"learning_rate\": null, \"verbosity\": null, \"booster\": null, \"tree_method\": null, \"gamma\": null, \"min_child_weight\": null, \"max_delta_step\": null, \"subsample\": null, \"sampling_method\": null, \"colsample_bytree\": null, \"colsample_bylevel\": null, \"colsample_bynode\": null, \"reg_alpha\": null, \"reg_lambda\": null, \"scale_pos_weight\": null, \"base_score\": null, \"missing\": NaN, \"num_parallel_tree\": null, \"random_state\": null, \"n_jobs\": null, \"monotone_constraints\": null, \"interaction_constraints\": null, \"importance_type\": null, \"gpu_id\": null, \"validate_parameters\": null, \"predictor\": null, \"enable_categorical\": false, \"max_cat_to_onehot\": null, \"eval_metric\": null, \"early_stopping_rounds\": null, \"callbacks\": null, \"classes_\": [0, 1], \"n_classes_\": 2, \"_estimator_type\": \"classifier\"}"},"feature_names":["annual_premium","age","region_code","vintage","vehicle_damage","policy_sales_channel","previously_insured"],"feature_types":["float","float","float","float","int","float","int"],"gradient_booster":{"model":{"gbtree_model_param":{"num_parallel_tree":"1","num_trees":"40","size_leaf_vector":"0"},"tree_info":[0,0,0,0,0,0,0,0,0,0,0,0,0,0,0,0,0,0,0,0,0,0,0,0,0,0,0,0,0,0,0,0,0,0,0,0,0,0,0,0],"trees":[{"base_weights":[-1.5097789E0,-1.9788597E0,-1.0483948E0,-1.8467417E0,-1.9982096E0,-1.5499625E0,-9.092601E-1,-1.7489655E0,-1.8745673E0,-1.6447207E0,-1.3439013E0,-7.9687846E-1,-1.3402724E0],"categories":[],"categories_nodes":[],"categories_segments":[],"categories_sizes":[],"default_left":[1,1,1,1,0,1,1,0,0,0,0,0,0],"id":0,"left_children":[1,3,5,7,-1,9,11,-1,-1,-1,-1,-1,-1],"loss_changes":[1.6494547E4,9.29375E1,2.6803555E3,9.894531E0,0E0,1.6070898E2,1.4562324E3,0E0,0E0,0E0,0E0,0E0,0E0],"parents":[2147483647,0,0,1,1,2,2,3,3,5,5,6,6],"right_children":[2,4,6,8,-1,10,12,-1,-1,-1,-1,-1,-1],"split_conditions":[5E-1,5E-1,1.15384616E-1,4.2489514E-2,-5.994629E-1,1.1399302E-1,5.923077E-1,-5.246897E-1,-5.623702E-1,-4.9341622E-1,-4.031704E-1,-2.3906355E-1,-4.0208176E-1],"split_indices":[4,6,1,5,0,2,1,0,0,0,0,0,0],"split_type":[0,0,0,0,0,0,0,0,0,0,0,0,0],"sum_hessian":[7.622175E4,3.7794E4,3.842775E4,4.8405E3,3.29535E4,8.34275E3,3.0085E4,1.0865E3,3.754E3,5.71E3,2.63275E3,2.386525E4,6.21975E3],"tree_param":{"num_deleted":"0","num_feature":"7","num_nodes":"13","size_leaf_vector":"0"}},{"base_weights":[-1.1286438E0,-1.5293883E0,-7.57418E-1,-1.4095784E0,-1.5471653E0,-7.085191E-1,-1.6662333E0,-1.4518456E0,-1.3499252E0,-1.1279516E0,-6.0979337E-1,-1.5905229E0,-1.7102447E0],"categories":[],"categories_nodes":[],"categories_segments":[],"categories_sizes":[],"default_left":[1,1,1,1,0,1,1,0,0,0,0,0,0],"id":1,"left_children":[1,3,5,7,-1,9,11,-1,-1,-1,-1,-1,-1],"loss_changes":[1.0718531E4,7.161719E1,1.6612402E3,9.356445E0,0E0,1.4693203E3,3.6420898E0,0E0,0E0,0E0,0E0,0E0,0E0],"parents":[2147483647,0,0,1,1,2,2,3,3,5,5,6,6],"right_children":[2,4,6,8,-1,10,12,-1,-1,-1,-1,-1,-1],"split_conditions":[5E-1,5E-1,5E-1,1.1399302E-1,-4.641496E-1,1E-1,1.15384616E-1,-4.355537E-1,-4.0497756E-1,-3.383855E-1,-1.8293801E-1,-4.7715688E-1,-5.1307344E-1],"split_indices":[4,6,6,2,0,1,1,0,0,0,0,0,0],"split_type":[0,0,0,0,0,0,0,0,0,0,0,0,0],"sum_hessian":[7.205603E4,3.464887E4,3.740716E4,4.4871855E3,3.0161686E4,3.5498918E4,1.9082423E3,2.6126558E3,1.8745295E3,6.761694E3,2.8737227E4,7.151493E2,1.193093E3],"tree_param":{"num_deleted":"0","num_feature":"7","num_nodes":"13","size_leaf_vector":"0"}},{"base_weights":[-9.048072E-1,-1.3218567E0,-5.6467396E-1,-1.1841E0,-1.3428862E0,-5.2478725E-1,-1.3825719E0,-1.0788751E0,-1.2147691E0,-8.801471E-1,-4.4039935E-1],"categories":[],"categories_nodes":[],"categories_segments":[],"categories_sizes":[],"default_left":[1,1,1,1,0,1,0,0,0,0,0],"id":2,"left_children":[1,3,5,7,-1,9,-1,-1,-1,-1,-1],"loss_changes":[9.155305E3,8.240625E1,1.1591377E3,1.1108887E1,0E0,1.0162588E3,0E0,0E0,0E0,0E0,0E0],"parents":[2147483647,0,0,1,1,2,2,3,3,5,5],"right_children":[2,4,6,8,-1,10,-1,-1,-1,-1,-1],"split_conditions":[5E-1,5E-1,5E-1,4.2489514E-2,-4.028659E-1,1.15384616E-1,-4.147716E-1,-3.2366252E-1,-3.6443076E-1,-2.6404414E-1,-1.321198E-1],"split_indices":[4,6,6,5,0,1,0,0,0,0,0],"split_type":[0,0,0,0,0,0,0,0,0,0,0],"sum_hessian":[6.45453E4,2.899303E4,3.5552273E4,3.8473926E3,2.5145637E4,3.3900668E4,1.6516039E3,8.7646E2,2.9709326E3,6.503752E3,2.7396916E4],"tree_param":{"num_deleted":"0","num_feature":"7","num_nodes":"11","size_leaf_vector":"0"}},{"base_weights":[-7.4168396E-1,-1.2010692E0,-4.2385605E-1,-1.0327265E0,-1.2278367E0,-3.9018536E-1,-1.2272476E0,-1.0875138E0,-9.5727324E-1,-5.7885355E-1,-2.5717673E-1],"categories":[],"categories_nodes":[],"categories_segments":[],"categories_sizes":[],"default_left":[1,1,1,1,0,1,0,0,0,0,0],"id":3,"left_children":[1,3,5,7,-1,9,-1,-1,-1,-1,-1],"loss_changes":[8.311328E3,1.0362891E2,9.097783E2,1.2187744E1,0E0,8.103501E2,0E0,0E0,0E0,0E0,0E0],"parents":[2147483647,0,0,1,1,2,2,3,3,5,5],"right_children":[2,4,6,8,-1,10,-1,-1,-1,-1,-1],"split_conditions":[5E-1,5E-1,5E-1,1.1399302E-1,-3.6835104E-1,1.1251613E-1,-3.6817428E-1,-3.2625416E-1,-2.8718197E-1,-1.7365608E-1,-7.715302E-2],"split_indices":[4,6,6,2,0,2,0,0,0,0,0],"split_type":[0,0,0,0,0,0,0,0,0,0,0],"sum_hessian":[5.692725E4,2.3278277E4,3.3648973E4,3.1990122E3,2.0079266E4,3.2296871E4,1.3520991E3,1.8455372E3,1.3534749E3,1.3352894E4,1.8943979E4],"tree_param":{"num_deleted":"0","num_feature":"7","num_nodes":"11","size_leaf_vector":"0"}},{"base_weights":[-6.082336E-1,-1.1209549E0,-3.1584746E-1,-9.1267425E-1,-1.1559242E0,-7.157305E-1,-2.5296667E-1,-7.68594E-1,-9.565512E-1,-9.0861934E-1,-6.155063E-1,-1.4422163E-1,-5.6957644E-1],"categories":[],"categories_nodes":[],"categories_segments":[],"categories_sizes":[],"default_left":[1,1,1,1,0,1,1,0,0,0,0,0,0],"id":4,"left_children":[1,3,5,7,-1,9,11,-1,-1,-1,-1,-1,-1],"loss_changes":[7.5460273E3,1.320918E2,8.0593555E2,1.5908691E1,0E0,8.364453E1,9.537643E2,0E0,0E0,0E0,0E0,0E0,0E0],"parents":[2147483647,0,0,1,1,2,2,3,3,5,5,6,6],"right_children":[2,4,6,8,-1,10,12,-1,-1,-1,-1,-1,-1],"split_conditions":[5E-1,5E-1,6.923077E-2,4.2489514E-2,-3.4677726E-1,2.3076924E-2,5.307692E-1,-2.3057821E-1,-2.8696537E-1,-2.725858E-1,-1.846519E-1,-4.326649E-2,-1.7087294E-1],"split_indices":[4,6,1,5,0,1,1,0,0,0,0,0,0],"split_type":[0,0,0,0,0,0,0,0,0,0,0,0,0],"sum_hessian":[5.0337535E4,1.8279758E4,3.2057777E4,2.6317737E3,1.5647983E4,4.354631E3,2.7703146E4,6.1868756E2,2.0130862E3,1.4862219E3,2.8684087E3,2.062172E4,7.081427E3],"tree_param":{"num_deleted":"0","num_feature":"7","num_nodes":"13","size_leaf_vector":"0"}},{"base_weights":[-4.9533474E-1,-2.4594054E-1,-1.1075159E0,-1.800241E-1,-6.334923E-1,-1.2073781E-1,-5.898592E-1,-7.2499436E-1,-4.4047594E-1],"categories":[],"categories_nodes":[],"categories_segments":[],"categories_sizes":[],"default_left":[1,1,0,1,1,0,0,0,0],"id":5,"left_children":[1,3,-1,5,7,-1,-1,-1,-1],"loss_changes":[6.8584756E3,8.153523E2,0E0,6.628337E2,8.1624756E1,0E0,0E0,0E0,0E0],"parents":[2147483647,0,0,1,1,3,3,4,4],"right_children":[2,4,-1,6,8,-1,-1,-1,-1],"split_conditions":[5E-1,2.8161907E-1,-3.322548E-1,6.5384614E-1,1.1014524E-1,-3.6221344E-2,-1.7695776E-1,-2.1749832E-1,-1.3214278E-1],"split_indices":[6,5,0,1,2,0,0,0,0],"split_type":[0,0,0,0,0,0,0,0,0],"sum_hessian":[4.492301E4,3.1920457E4,1.3002556E4,2.728173E4,4.6387266E3,2.383507E4,3.4466602E3,3.1450264E3,1.4937004E3],"tree_param":{"num_deleted":"0","num_feature":"7","num_nodes":"9","size_leaf_vector":"0"}},{"base_weights":[-3.9789775E-1,-1.8119916E-1,-1.0711457E0,-7.6642436E-1,-1.4034423E-1,-1.0745959E0,-1.029145E0,-8.4200126E-1,-6.7116714E-1,-6.1187726E-1,-1.0785123E-1,-9.9404496E-1,-1.088153E0],"categories":[],"categories_nodes":[],"categories_segments":[],"categories_sizes":[],"default_left":[1,1,1,1,1,0,1,0,0,0,0,0,0],"id":6,"left_children":[1,3,5,7,9,-1,11,-1,-1,-1,-1,-1,-1],"loss_changes":[5.936539E3,7.359504E2,3.3007812E-1,1.3895752E1,4.4085242E2,0E0,5.251465E-1,0E0,0E0,0E0,0E0,0E0,0E0],"parents":[2147483647,0,0,1,1,2,2,3,3,4,4,6,6],"right_children":[2,4,6,8,10,-1,12,-1,-1,-1,-1,-1,-1],"split_conditions":[5E-1,5E-1,5E-1,1.1399302E-1,3.846154E-2,-3.2237878E-1,4.076923E-1,-2.526004E-1,-2.0135015E-1,-1.8356319E-1,-3.2355372E-2,-2.982135E-1,-3.264459E-1],"split_indices":[6,4,4,2,1,0,1,0,0,0,0,0,0],"split_type":[0,0,0,0,0,0,0,0,0,0,0,0,0],"sum_hessian":[4.06917E4,3.0784385E4,9.9073125E3,2.0076792E3,2.8776705E4,9.13251E3,7.748031E2,1.1151122E3,8.925671E2,1.853996E3,2.6922709E4,4.9701025E2,2.7779285E2],"tree_param":{"num_deleted":"0","num_feature":"7","num_nodes":"13","size_leaf_vector":"0"}},{"base_weights":[-3.157538E-1,-1.3290724E-1,-1.0437341E0,-6.6626436E-1,-1.0117879E-1,-1.0502298E0,-9.6805334E-1,-4.9309862E-1,-7.2541606E-1,-2.4385865E-1,-9.023298E-3,-9.257403E-1,-1.0408337E0],"categories":[],"categories_nodes":[],"categories_segments":[],"categories_sizes":[],"default_left":[1,1,1,1,1,0,1,0,0,0,0,0,0],"id":7,"left_children":[1,3,5,7,9,-1,11,-1,-1,-1,-1,-1,-1],"loss_changes":[4.975244E3,5.055099E2,2.6723633E0,1.6822876E1,3.707865E2,0E0,9.0234375E-1,0E0,0E0,0E0,0E0,0E0,0E0],"parents":[2147483647,0,0,1,1,2,2,3,3,4,4,6,6],"right_children":[2,4,6,8,10,-1,12,-1,-1,-1,-1,-1,-1],"split_conditions":[5E-1,5E-1,5E-1,4.2489514E-2,1.1251613E-1,-3.1506896E-1,4.076923E-1,-1.479296E-1,-2.1762483E-1,-7.31576E-2,-2.7069894E-3,-2.777221E-1,-3.1225014E-1],"split_indices":[6,4,4,5,2,0,1,0,0,0,0,0,0],"split_type":[0,0,0,0,0,0,0,0,0,0,0,0,0],"sum_hessian":[3.7377348E4,2.9874871E4,7.5024775E3,1.676293E3,2.8198578E4,6.8975796E3,6.048981E2,4.291879E2,1.2471051E3,1.1065208E4,1.713337E4,3.911888E2,2.1370926E2],"tree_param":{"num_deleted":"0","num_feature":"7","num_nodes":"13","size_leaf_vector":"0"}},{"base_weights":[-2.4681081E-1,-9.660265E-2,-1.021584E0,-5.247364E-2,-4.0111706E-1,-1.0316095E0,-9.0964544E-1,4.5551166E-2,-2.4774194E-1,-3.718475E-1,-9.30398E-1,-8.6239594E-1,-1.0107374E0],"categories":[],"categories_nodes":[],"categories_segments":[],"categories_sizes":[],"default_left":[1,1,1,1,1,0,1,0,0,0,0,0,0],"id":8,"left_children":[1,3,5,7,9,-1,11,-1,-1,-1,-1,-1,-1],"loss_changes":[4.0572424E3,3.924101E2,5.414551E0,4.8826443E2,5.6914978E1,0E0,1.3916016E0,0E0,0E0,0E0,0E0,0E0,0E0],"parents":[2147483647,0,0,1,1,2,2,3,3,4,4,6,6],"right_children":[2,4,6,8,10,-1,12,-1,-1,-1,-1,-1,-1],"split_conditions":[5E-1,2.8161907E-1,5E-1,4.6923077E-1,3.1538463E-1,-3.0948287E-1,4.3846154E-1,1.366535E-2,-7.432258E-2,-1.1155426E-1,-2.791194E-1,-2.587188E-1,-3.0322123E-1],"split_indices":[6,5,4,1,1,0,1,0,0,0,0,0,0],"split_type":[0,0,0,0,0,0,0,0,0,0,0,0,0],"sum_hessian":[3.486269E4,2.9202266E4,5.6604263E3,2.5507057E4,3.6952087E3,5.1876006E3,4.728257E2,1.6982564E4,8.524491E3,3.5031833E3,1.920255E2,3.287169E2,1.4410883E2],"tree_param":{"num_deleted":"0","num_feature":"7","num_nodes":"13","size_leaf_vector":"0"}},{"base_weights":[-1.9036798E-1,-6.982639E-2,-1.0021416E0,-5.4692554E-1,-4.587466E-2,-1.0164957E0,-8.495328E-1,-5.0975156E-1,-8.911035E-1,-1.6081326E-2,-3.9986038E-1,-7.9268706E-1,-9.764654E-1],"categories":[],"categories_nodes":[],"categories_segments":[],"categories_sizes":[],"default_left":[1,1,1,1,1,0,1,0,0,0,0,0,0],"id":9,"left_children":[1,3,5,7,9,-1,11,-1,-1,-1,-1,-1,-1],"loss_changes":[3.227125E3,3.281362E2,8.477051E0,1.7108429E1,2.883906E2,0E0,1.9150391E0,0E0,0E0,0E0,0E0,0E0,0E0],"parents":[2147483647,0,0,1,1,2,2,3,3,4,4,6,6],"right_children":[2,4,6,8,10,-1,12,-1,-1,-1,-1,-1,-1],"split_conditions":[5E-1,5E-1,5E-1,6.230769E-1,7.0000005E-1,-3.0494872E-1,4.3846154E-1,-1.5292548E-1,-2.6733106E-1,-4.824398E-3,-1.1995812E-1,-2.3780613E-1,-2.9293963E-1],"split_indices":[6,4,4,1,1,0,1,0,0,0,0,0,0],"split_type":[0,0,0,0,0,0,0,0,0,0,0,0,0],"sum_hessian":[3.2979207E4,2.871618E4,4.2630264E3,1.3716754E3,2.7344504E4,3.8913503E3,3.7167633E2,1.2402043E3,1.3147104E2,2.5222674E4,2.1218298E3,2.617146E2,1.0996173E2],"tree_param":{"num_deleted":"0","num_feature":"7","num_nodes":"13","size_leaf_vector":"0"}},{"base_weights":[-1.4537485E-1,-5.0410513E-2,-9.834324E-1,-4.522574E-1,-2.518417E-2,-1.0032524E0,-7.8486323E-1,1.9125311E-1,-5.285934E-1,9.906667E-3,-2.4620008E-1,-7.18122E-1,-9.420487E-1],"categories":[],"categories_nodes":[],"categories_segments":[],"categories_sizes":[],"default_left":[1,1,1,1,1,0,1,0,0,0,0,0,0],"id":10,"left_children":[1,3,5,7,9,-1,11,-1,-1,-1,-1,-1,-1],"loss_changes":[2.5107852E3,2.87263E2,1.1850098E1,8.232611E1,2.0681398E2,0E0,2.4288788E0,0E0,0E0,0E0,0E0,0E0,0E0],"parents":[2147483647,0,0,1,1,2,2,3,3,4,4,6,6],"right_children":[2,4,6,8,10,-1,12,-1,-1,-1,-1,-1,-1],"split_conditions":[5E-1,3.846154E-2,5E-1,4.2489514E-2,6.0769236E-1,-3.0097574E-1,4.3846154E-1,5.7375934E-2,-1.5857804E-1,2.9720003E-3,-7.386003E-2,-2.1543661E-1,-2.8261462E-1],"split_indices":[6,1,4,5,1,0,1,0,0,0,0,0,0],"split_type":[0,0,0,0,0,0,0,0,0,0,0,0,0],"sum_hessian":[3.154787E4,2.8337834E4,3.210036E3,1.6728582E3,2.6664975E4,2.9150234E3,2.9501242E2,1.7723843E2,1.4956198E3,2.301226E4,3.6527158E3,2.1099307E2,8.401936E1],"tree_param":{"num_deleted":"0","num_feature":"7","num_nodes":"13","size_leaf_vector":"0"}},{"base_weights":[-1.1006519E-1,-3.6361407E-2,-9.6377605E-1,-2.330833E-1,2.5165651E-3,-9.905689E-1,-7.142289E-1,-3.5821116E-1,-5.040253E-2,2.131266E-1,-5.4362018E-2,-6.383512E-1,-9.0492517E-1],"categories":[],"categories_nodes":[],"categories_segments":[],"categories_sizes":[],"default_left":[1,1,1,1,1,0,1,0,0,0,0,0,0],"id":11,"left_children":[1,3,5,7,9,-1,11,-1,-1,-1,-1,-1,-1],"loss_changes":[1.9170808E3,2.1451527E2,1.5481934E1,1.0577991E2,2.8057083E2,0E0,2.8711472E0,0E0,0E0,0E0,0E0,0E0,0E0],"parents":[2147483647,0,0,1,1,2,2,3,3,4,4,6,6],"right_children":[2,4,6,8,10,-1,12,-1,-1,-1,-1,-1,-1],"split_conditions":[5E-1,1.3076924E-1,5E-1,1.1014524E-1,2.846154E-1,-2.9717067E-1,4.3846154E-1,-1.0746335E-1,-1.512076E-2,6.3937984E-2,-1.6308606E-2,-1.9150537E-1,-2.7147755E-1],"split_indices":[6,1,4,2,1,0,1,0,0,0,0,0,0],"split_type":[0,0,0,0,0,0,0,0,0,0,0,0,0],"sum_hessian":[3.0467271E4,2.8046926E4,2.420345E3,4.6273945E3,2.3419533E4,2.182996E3,2.3734877E2,2.7457332E3,1.8816613E3,4.9793276E3,1.8440205E4,1.728997E2,6.444906E1],"tree_param":{"num_deleted":"0","num_feature":"7","num_nodes":"13","size_leaf_vector":"0"}},{"base_weights":[-8.2816236E-2,-2.6272213E-2,-9.416143E-1,-4.2522833E-1,-9.136723E-3,-9.772887E-1,-6.376875E-1,-3.017185E-1,-5.606469E-1,-1.2743513E-1,4.1707426E-2,-9.011571E-1,-9.854632E-1,-5.2695465E-1,-8.1078607E-1],"categories":[],"categories_nodes":[],"categories_segments":[],"categories_sizes":[],"default_left":[1,1,1,1,1,1,1,0,0,0,0,0,0,0,0],"id":12,"left_children":[1,3,5,7,9,11,13,-1,-1,-1,-1,-1,-1,-1,-1],"loss_changes":[1.4394628E3,1.9013696E2,1.9230957E1,1.8988083E1,1.6041351E2,1.307373E-1,3.31501E0,0E0,0E0,0E0,0E0,0E0,0E0,0E0,0E0],"parents":[2147483647,0,0,1,1,2,2,3,3,4,4,5,5,6,6],"right_children":[2,4,6,8,10,12,14,-1,-1,-1,-1,-1,-1,-1,-1],"split_conditions":[5E-1,5E-1,5E-1,-2.0030914E-3,1.2536776E-1,4.2489514E-2,1.767591E-1,-9.0515554E-2,-1.6819407E-1,-3.8230542E-2,1.2512228E-2,-2.7034715E-1,-2.9563898E-1,-1.580864E-1,-2.4323583E-1],"split_indices":[6,4,4,0,5,5,0,0,0,0,0,0,0,0,0],"split_type":[0,0,0,0,0,0,0,0,0,0,0,0,0,0,0],"sum_hessian":[2.9642547E4,2.7812385E4,1.8301614E3,1.1443892E3,2.6667996E4,1.6359237E3,1.9423769E2,6.001996E2,5.4418964E2,8.01593E3,1.8652066E4,1.694081E2,1.4665156E3,1.2092502E2,7.3312675E1],"tree_param":{"num_deleted":"0","num_feature":"7","num_nodes":"15","size_leaf_vector":"0"}},{"base_weights":[-6.1874487E-2,-1.8932726E-2,-9.1542196E-1,8.847565E-3,-2.3492627E-1,-9.6230656E-1,-5.566245E-1,-5.726474E-2,1.3889238E-1,-2.065422E-1,-7.6853734E-1,-8.6465776E-1,-9.7307295E-1,-1.8601118E-1,-6.233196E-1],"categories":[],"categories_nodes":[],"categories_segments":[],"categories_sizes":[],"default_left":[1,1,1,1,1,1,1,0,0,0,0,0,0,0,0],"id":13,"left_children":[1,3,5,7,9,11,13,-1,-1,-1,-1,-1,-1,-1,-1],"loss_changes":[1.0647369E3,1.6596767E2,2.287146E1,2.1071866E2,4.758261E1,4.510498E-1,3.9176178E0,0E0,0E0,0E0,0E0,0E0,0E0,0E0,0E0],"parents":[2147483647,0,0,1,1,2,2,3,3,4,4,5,5,6,6],"right_children":[2,4,6,8,10,12,14,-1,-1,-1,-1,-1,-1,-1,-1],"split_conditions":[5E-1,2.8161907E-1,5E-1,2.0150417E-1,3.1538463E-1,4.2489514E-2,2.1845799E-2,-1.7179424E-2,4.1667715E-2,-6.196266E-2,-2.3056121E-1,-2.5939733E-1,-2.9192188E-1,-5.5803355E-2,-1.869959E-1],"split_indices":[6,5,4,5,1,5,5,0,0,0,0,0,0,0,0],"split_type":[0,0,0,0,0,0,0,0,0,0,0,0,0,0,0],"sum_hessian":[2.9048715E4,2.7658256E4,1.3904578E3,2.4507191E4,3.1510654E3,1.2282751E3,1.6218266E2,1.624772E4,8.259472E3,2.993235E3,1.5783037E2,1.3005104E2,1.0982241E3,2.5312794E1,1.3686986E2],"tree_param":{"num_deleted":"0","num_feature":"7","num_nodes":"15","size_leaf_vector":"0"}},{"base_weights":[-4.608624E-2,-1.3710336E-2,-8.837043E-1,-1.0095894E-1,4.2862494E-2,-9.4446766E-1,-4.7371554E-1,-4.597324E-1,-8.097505E-2,1.0831448E-1,-6.7719474E-2,-8.207416E-1,-9.5858514E-1,-3.579141E-1,-7.935446E-1],"categories":[],"categories_nodes":[],"categories_segments":[],"categories_sizes":[],"default_left":[1,1,1,1,1,1,1,0,0,0,0,0,0,0,0],"id":14,"left_children":[1,3,5,7,9,11,13,-1,-1,-1,-1,-1,-1,-1,-1],"loss_changes":[7.7554175E2,1.3591583E2,2.606549E1,7.762084E1,1.20913956E2,8.3044434E-1,4.878023E0,0E0,0E0,0E0,0E0,0E0,0E0,0E0,0E0],"parents":[2147483647,0,0,1,1,2,2,3,3,4,4,5,5,6,6],"right_children":[2,4,6,8,10,12,14,-1,-1,-1,-1,-1,-1,-1,-1],"split_conditions":[5E-1,1.1399302E-1,5E-1,2.3076924E-2,4.3846154E-1,4.2489514E-2,4.3846154E-1,-1.3791972E-1,-2.4292516E-2,3.2494344E-2,-2.0315843E-2,-2.4622248E-1,-2.8757554E-1,-1.0737423E-1,-2.3806338E-1],"split_indices":[6,2,4,1,1,5,1,0,0,0,0,0,0,0,0],"split_type":[0,0,0,0,0,0,0,0,0,0,0,0,0,0,0],"sum_hessian":[2.8597549E4,2.75343E4,1.063249E3,1.0830436E4,1.6703865E4,9.2487244E2,1.3837662E2,5.7027167E2,1.0260164E4,1.0493138E4,6.210727E3,1.00779045E2,8.240934E2,1.0314844E2,3.522818E1],"tree_param":{"num_deleted":"0","num_feature":"7","num_nodes":"15","size_leaf_vector":"0"}},{"base_weights":[-3.425408E-2,-9.9620195E-3,-8.4513104E-1,3.7771598E-3,-3.1456286E-1,-9.225447E-1,-3.9367887E-1,-3.5172284E-1,1.4530119E-2,-2.2069736E-1,-4.3955472E-1,-7.6840484E-1,-9.4091696E-1,-2.4724434E-1,-6.496027E-1],"categories":[],"categories_nodes":[],"categories_segments":[],"categories_sizes":[],"default_left":[1,1,1,1,1,1,1,0,0,0,0,0,0,0,0],"id":15,"left_children":[1,3,5,7,9,11,13,-1,-1,-1,-1,-1,-1,-1,-1],"loss_changes":[5.5621216E2,1.14741554E2,2.8340698E1,1.0029292E2,1.3786079E1,1.260315E0,4.4102097E0,0E0,0E0,0E0,0E0,0E0,0E0,0E0,0E0],"parents":[2147483647,0,0,1,1,2,2,3,3,4,4,5,5,6,6],"right_children":[2,4,6,8,10,12,14,-1,-1,-1,-1,-1,-1,-1,-1],"split_conditions":[5E-1,7.615385E-1,5E-1,2.3076924E-2,8.384615E-1,4.2489514E-2,1.767591E-1,-1.0551686E-1,4.3590358E-3,-6.620921E-2,-1.3186643E-1,-2.3052146E-1,-2.822751E-1,-7.417331E-2,-1.9488083E-1],"split_indices":[6,1,4,1,1,5,0,0,0,0,0,0,0,0,0],"split_type":[0,0,0,0,0,0,0,0,0,0,0,0,0,0,0],"sum_hessian":[2.8236598E4,2.741628E4,8.203181E2,2.6233969E4,1.1823093E3,6.993518E2,1.2096632E2,7.6928204E2,2.5464688E4,6.768095E2,5.0549976E2,7.9040276E1,6.203115E2,7.8192314E1,4.2774002E1],"tree_param":{"num_deleted":"0","num_feature":"7","num_nodes":"15","size_leaf_vector":"0"}},{"base_weights":[-2.5400722E-2,-5.197338E-1,3.1246406E-3,-3.179699E-1,-8.952297E-1,-1.19683005E-1,3.3586778E-2,-1.9762018E-1,-4.784588E-1,-7.073247E-1,-9.188807E-1,-2.116154E-2,-1.513578E-1,-6.159074E-1,3.9104436E-2],"categories":[],"categories_nodes":[],"categories_segments":[],"categories_sizes":[],"default_left":[1,1,1,1,1,1,1,0,0,0,0,0,0,0,0],"id":16,"left_children":[1,3,5,7,9,11,13,-1,-1,-1,-1,-1,-1,-1,-1],"loss_changes":[3.9447418E2,1.15343445E2,9.895123E1,1.9110542E1,1.7182922E0,1.64021E1,7.597491E1,0E0,0E0,0E0,0E0,0E0,0E0,0E0,0E0],"parents":[2147483647,0,0,1,1,2,2,3,3,4,4,5,5,6,6],"right_children":[2,4,6,8,10,12,14,-1,-1,-1,-1,-1,-1,-1,-1],"split_conditions":[5E-1,5E-1,-9.9825466E-1,3.1538463E-1,4.2489514E-2,2.1845799E-2,7.6923077E-3,-5.9286058E-2,-1.4353764E-1,-2.1219741E-1,-2.756642E-1,-6.3484623E-3,-4.540734E-2,-1.8477222E-1,1.1731331E-2],"split_indices":[4,6,0,1,5,5,1,0,0,0,0,0,0,0,0],"split_type":[0,0,0,0,0,0,0,0,0,0,0,0,0,0,0],"sum_hessian":[2.797373E4,1.5252113E3,2.644852E4,9.933206E2,5.3189075E2,5.256021E3,2.1192498E4,5.689212E2,4.243994E2,6.29182E1,4.6897253E2,1.2791166E3,3.9769045E3,1.7758842E2,2.101491E4],"tree_param":{"num_deleted":"0","num_feature":"7","num_nodes":"15","size_leaf_vector":"0"}},{"base_weights":[-1.8917289E-2,-5.1091043E-3,-7.4796706E-1,1.4278969E-2,-1.6395669E-1,-8.6118746E-1,-3.147803E-1,1.1580646E-1,-3.4314632E-2,-7.508562E-2,-3.2259136E-1,-6.3815683E-1,-8.911922E-1,-1.9458444E-1,-6.970762E-1],"categories":[],"categories_nodes":[],"categories_segments":[],"categories_sizes":[],"default_left":[1,1,1,1,1,1,1,0,0,0,0,0,0,0,0],"id":17,"left_children":[1,3,5,7,9,11,13,-1,-1,-1,-1,-1,-1,-1,-1],"loss_changes":[2.7955176E2,8.3940056E1,2.5045166E1,1.1984543E2,4.1773453E1,2.165924E0,4.8514805E0,0E0,0E0,0E0,0E0,0E0,0E0,0E0,0E0],"parents":[2147483647,0,0,1,1,2,2,3,3,4,4,5,5,6,6],"right_children":[2,4,6,8,10,12,14,-1,-1,-1,-1,-1,-1,-1,-1],"split_conditions":[5E-1,2.8161907E-1,5E-1,3.1538463E-1,1E-1,4.2489514E-2,4.3846154E-1,3.4741938E-2,-1.029439E-2,-2.2525687E-2,-9.677742E-2,-1.9144706E-1,-2.6735768E-1,-5.8375336E-2,-2.0912287E-1],"split_indices":[6,5,4,1,1,5,1,0,0,0,0,0,0,0,0],"split_type":[0,0,0,0,0,0,0,0,0,0,0,0,0,0,0],"sum_hessian":[2.7768906E4,2.7253729E4,5.151779E2,2.428994E4,2.963788E3,4.0764517E2,1.0753273E2,7.86211E3,1.642783E4,1.9005348E3,1.0632533E3,5.09788E1,3.5666638E2,8.295898E1,2.4573751E1],"tree_param":{"num_deleted":"0","num_feature":"7","num_nodes":"15","size_leaf_vector":"0"}},{"base_weights":[-1.40227275E-2,-3.7936326E-3,-6.8468684E-1,-2.8221008E-1,5.9952126E-3,-8.191853E-1,-2.4955744E-1,-5.0113946E-1,-2.3012018E-1,-1.8734542E-1,1.9040633E-2,-5.6272566E-1,-8.565328E-1,2.177727E-1,-3.4750986E-1],"categories":[],"categories_nodes":[],"categories_segments":[],"categories_sizes":[],"default_left":[1,1,1,1,1,1,1,0,0,0,0,0,0,0,0],"id":18,"left_children":[1,3,5,7,9,11,13,-1,-1,-1,-1,-1,-1,-1,-1],"loss_changes":[1.8948497E2,7.415096E1,2.4079926E1,1.04231415E1,6.629705E1,2.5497894E0,4.626443E0,0E0,0E0,0E0,0E0,0E0,0E0,0E0,0E0],"parents":[2147483647,0,0,1,1,2,2,3,3,4,4,5,5,6,6],"right_children":[2,4,6,8,10,12,14,-1,-1,-1,-1,-1,-1,-1,-1],"split_conditions":[5E-1,6.809742E-2,5E-1,6.2350966E-3,3.1864266E-3,4.2489514E-2,2.1845799E-2,-1.5034184E-1,-6.903606E-2,-5.6203626E-2,5.71219E-3,-1.688177E-1,-2.5695986E-1,6.533182E-2,-1.04252964E-1],"split_indices":[6,2,4,5,5,5,5,0,0,0,0,0,0,0,0],"split_type":[0,0,0,0,0,0,0,0,0,0,0,0,0,0,0],"sum_hessian":[2.7619938E4,2.7205992E4,4.1394528E2,9.231018E2,2.628289E4,3.155318E2,9.841348E1,1.7576324E2,7.4733856E2,1.6604661E3,2.4622426E4,4.215146E1,2.7338034E2,1.684117E1,8.157231E1],"tree_param":{"num_deleted":"0","num_feature":"7","num_nodes":"15","size_leaf_vector":"0"}},{"base_weights":[-1.0342748E-2,-3.5466713E-1,4.737454E-3,-2.4111205E-1,-7.683137E-1,1.5872546E-2,-1.9235514E-1,-1.4990556E-1,-4.658271E-1,-4.8396662E-1,-8.1369066E-1,-7.70248E-2,3.8761355E-2,-3.3360913E-1,-1.1758587E-1],"categories":[],"categories_nodes":[],"categories_segments":[],"categories_sizes":[],"default_left":[1,1,1,1,1,1,1,0,0,0,0,0,0,0,0],"id":19,"left_children":[1,3,5,7,9,11,13,-1,-1,-1,-1,-1,-1,-1,-1],"loss_changes":[1.4291728E2,5.406093E1,5.787515E1,1.8531403E1,2.8098602E0,5.307671E1,1.4854652E1,0E0,0E0,0E0,0E0,0E0,0E0,0E0,0E0],"parents":[2147483647,0,0,1,1,2,2,3,3,4,4,5,5,6,6],"right_children":[2,4,6,8,10,12,14,-1,-1,-1,-1,-1,-1,-1,-1],"split_conditions":[5E-1,5E-1,7.307693E-1,3.1578988E-1,4.2489514E-2,-9.9825466E-1,2.2923559E-2,-4.497167E-2,-1.3974814E-1,-1.4518999E-1,-2.441072E-1,-2.3107441E-2,1.1628407E-2,-1.0008275E-1,-3.527576E-2],"split_indices":[4,6,1,0,5,0,0,0,0,0,0,0,0,0,0],"split_type":[0,0,0,0,0,0,0,0,0,0,0,0,0,0,0],"sum_hessian":[2.7522564E4,1.1538702E3,2.6368695E4,9.065777E2,2.4729257E2,2.4959484E4,1.4092103E3,6.4603467E2,2.6054306E2,3.563806E1,2.1165451E2,4.933567E3,2.0025918E4,4.865532E2,9.2265717E2],"tree_param":{"num_deleted":"0","num_feature":"7","num_nodes":"15","size_leaf_vector":"0"}},{"base_weights":[-7.739072E-3,-2.0031915E-3,-5.4552984E-1,-4.7490498E-1,1.8999045E-3,-7.082857E-1,-1.9164397E-1,2.7646855E-1,-6.372657E-1,1.6716385E-2,-1.2196551E-1,-4.0553412E-1,-7.617926E-1,-3.5597865E-2,-4.9759904E-1],"categories":[],"categories_nodes":[],"categories_segments":[],"categories_sizes":[],"default_left":[1,1,1,1,1,1,1,0,0,0,0,0,0,0,0],"id":20,"left_children":[1,3,5,7,9,11,13,-1,-1,-1,-1,-1,-1,-1,-1],"loss_changes":[8.4559875E1,5.0067173E1,1.6526375E1,2.7264248E1,4.9376972E1,2.8950195E0,4.3987284E0,0E0,0E0,0E0,0E0,0E0,0E0,0E0,0E0],"parents":[2147483647,0,0,1,1,2,2,3,3,4,4,5,5,6,6],"right_children":[2,4,6,8,10,12,14,-1,-1,-1,-1,-1,-1,-1,-1],"split_conditions":[5E-1,7.6923077E-3,5E-1,4.2489514E-2,2.8161907E-1,4.2489514E-2,1.767591E-1,8.294056E-2,-1.9117971E-1,5.014916E-3,-3.6589656E-2,-1.2166024E-1,-2.2853778E-1,-1.067936E-2,-1.4927971E-1],"split_indices":[6,1,4,5,5,5,0,0,0,0,0,0,0,0,0],"split_type":[0,0,0,0,0,0,0,0,0,0,0,0,0,0,0],"sum_hessian":[2.7411994E4,2.7123707E4,2.8828787E2,2.2104518E2,2.690266E4,1.9678357E2,9.150431E1,3.915245E1,1.8189273E2,2.4029209E4,2.873451E3,3.0843693E1,1.6593988E2,6.1336987E1,3.0167322E1],"tree_param":{"num_deleted":"0","num_feature":"7","num_nodes":"15","size_leaf_vector":"0"}},{"base_weights":[-5.77971E-3,-2.5090647E-1,3.5722244E-3,-1.7676118E-1,-6.397555E-1,-3.2907613E-2,5.5705447E-2,-1.364251E-1,-6.5452904E-1,-7.583021E-1,-4.4245324E-1,7.3227316E-2,-1.03345804E-1,1.00314714E-1,-8.4677786E-2],"categories":[],"categories_nodes":[],"categories_segments":[],"categories_sizes":[],"default_left":[1,1,1,1,1,1,1,0,0,0,0,0,0,0,0],"id":21,"left_children":[1,3,5,7,9,11,13,-1,-1,-1,-1,-1,-1,-1,-1],"loss_changes":[6.2643326E1,2.8840157E1,5.006282E1,1.6190895E1,3.4170609E0,1.157874E2,6.787294E1,0E0,0E0,0E0,0E0,0E0,0E0,0E0,0E0],"parents":[2147483647,0,0,1,1,2,2,3,3,4,4,5,5,6,6],"right_children":[2,4,6,8,10,12,14,-1,-1,-1,-1,-1,-1,-1,-1],"split_conditions":[5E-1,5E-1,2.0150417E-1,6.230769E-1,1.923077E-1,3.1538463E-1,2.8161907E-1,-4.092753E-2,-1.9635873E-1,-2.2749063E-1,-1.3273598E-1,2.1968195E-2,-3.1003742E-2,3.0094415E-2,-2.5403338E-2],"split_indices":[4,6,5,1,1,1,5,0,0,0,0,0,0,0,0],"split_type":[0,0,0,0,0,0,0,0,0,0,0,0,0,0,0],"sum_hessian":[2.7325021E4,1.0032284E3,2.6321793E4,8.4379004E2,1.5943837E2,1.5485969E4,1.0835823E4,7.792837E2,6.450635E1,9.782069E1,6.1617683E1,6.1776157E3,9.308354E3,8.223079E3,2.6127441E3],"tree_param":{"num_deleted":"0","num_feature":"7","num_nodes":"15","size_leaf_vector":"0"}},{"base_weights":[-4.4231093E-3,2.378181E-2,-6.0847368E-2,-7.59288E-2,5.2631218E-2,-1.2196212E-1,1.1587076E-2,-2.6059118E-1,1.1371552E-2,1.611305E-1,1.2269857E-2,-6.2448233E-2,-1.7919475E-1,-3.6569607E-2,2.3578359E-1],"categories":[],"categories_nodes":[],"categories_segments":[],"categories_sizes":[],"default_left":[1,1,1,1,1,1,1,0,0,0,0,0,0,0,0],"id":22,"left_children":[1,3,5,7,9,11,13,-1,-1,-1,-1,-1,-1,-1,-1],"loss_changes":[4.334905E1,5.2245476E1,4.018824E1,6.570915E1,6.1683586E1,1.6760078E1,4.487058E1,0E0,0E0,0E0,0E0,0E0,0E0,0E0,0E0],"parents":[2147483647,0,0,1,1,2,2,3,3,4,4,5,5,6,6],"right_children":[2,4,6,8,10,12,14,-1,-1,-1,-1,-1,-1,-1,-1],"split_conditions":[4.3846154E-1,1.3076924E-1,2.0150417E-1,1.2536776E-1,2.5384617E-1,4.2489514E-2,1.0699883E0,-7.8177355E-2,3.4114658E-3,4.8339155E-2,3.6809572E-3,-1.873447E-2,-5.3758428E-2,-1.0970882E-2,7.073508E-2],"split_indices":[1,1,5,5,1,5,0,0,0,0,0,0,0,0,0],"split_type":[0,0,0,0,0,0,0,0,0,0,0,0,0,0,0],"sum_hessian":[2.7236943E4,1.8159895E4,9.077049E3,4.0747905E3,1.40851045E4,4.922841E3,4.154208E3,1.3073751E3,2.7674153E3,3.8181562E3,1.0266948E4,2.4143486E3,2.5084922E3,3.4203623E3,7.338458E2],"tree_param":{"num_deleted":"0","num_feature":"7","num_nodes":"15","size_leaf_vector":"0"}},{"base_weights":[-3.3803496E-3,-1.9825831E-1,3.1162186E-3,-6.4999807E-1,-1.7377897E-1,7.841623E-3,-2.821451E-1,-9.257104E-1,-5.565364E-1,-3.618653E-1,-1.3068126E-1,1.0967304E-2,-3.8842076E-1,-9.297482E-1,-2.6404807E-1],"categories":[],"categories_nodes":[],"categories_segments":[],"categories_sizes":[],"default_left":[1,1,1,1,1,1,1,0,0,0,0,0,0,0,0],"id":23,"left_children":[1,3,5,7,9,11,13,-1,-1,-1,-1,-1,-1,-1,-1],"loss_changes":[3.4396194E1,9.579437E0,3.544372E1,6.363869E-1,6.7034035E0,3.2040302E1,4.77602E0,0E0,0E0,0E0,0E0,0E0,0E0,0E0,0E0],"parents":[2147483647,0,0,1,1,2,2,3,3,4,4,5,5,6,6],"right_children":[2,4,6,8,10,12,14,-1,-1,-1,-1,-1,-1,-1,-1],"split_conditions":[6.809742E-2,5E-1,8.384615E-1,5.249591E-2,6.2350966E-3,5E-1,5E-1,-2.7771312E-1,-1.6696092E-1,-1.085596E-1,-3.920438E-2,3.2901913E-3,-1.1652623E-1,-2.7892447E-1,-7.9214424E-2],"split_indices":[2,4,1,2,5,6,4,0,0,0,0,0,0,0,0],"split_type":[0,0,0,0,0,0,0,0,0,0,0,0,0,0,0],"sum_hessian":[2.7166885E4,8.7548193E2,2.6291404E4,4.3689354E1,8.3179254E2,2.5863936E4,4.2746817E2,8.806233E0,3.488312E1,1.536853E2,6.7810724E2,2.5662484E4,2.0145096E2,1.0251254E1,4.1721692E2],"tree_param":{"num_deleted":"0","num_feature":"7","num_nodes":"15","size_leaf_vector":"0"}},{"base_weights":[-2.5625913E-3,-4.4741858E-2,2.1847812E-2,-3.0600091E-2,-3.2054675E-1,-1.3959301E-2,7.07305E-2,8.165622E-2,-6.89701E-2,-3.2868445E-1,1.7847838E0,1.1836432E-1,-5.239656E-2,7.915841E-2,-1.9468708E-1],"categories":[],"categories_nodes":[],"categories_segments":[],"categories_sizes":[],"default_left":[1,1,1,1,1,1,1,0,0,0,0,0,0,0,0],"id":24,"left_children":[1,3,5,7,9,11,13,-1,-1,-1,-1,-1,-1,-1,-1],"loss_changes":[2.7931925E1,3.8778397E1,3.0078724E1,4.075598E1,8.894833E0,5.0457355E1,1.6267841E1,0E0,0E0,0E0,0E0,0E0,0E0,0E0,0E0],"parents":[2147483647,0,0,1,1,2,2,3,3,4,4,5,5,6,6],"right_children":[2,4,6,8,10,12,14,-1,-1,-1,-1,-1,-1,-1,-1],"split_conditions":[1.1014524E-1,1.0269021E-1,2.0150417E-1,4.2489514E-2,-3.5885847E-1,2.3846154E-1,8.076923E-1,2.4496866E-2,-2.069103E-2,-9.860534E-2,5.354352E-1,3.5509296E-2,-1.5718969E-2,2.3747524E-2,-5.8406126E-2],"split_indices":[2,2,5,5,0,1,1,0,0,0,0,0,0,0,0],"split_type":[0,0,0,0,0,0,0,0,0,0,0,0,0,0,0],"sum_hessian":[2.712662E4,9.943756E3,1.7182863E4,9.459818E3,4.8393677E2,9.918307E3,7.264556E3,2.409473E3,7.0503457E3,4.8291406E2,1.0227191E0,2.2320837E3,7.686223E3,7.041661E3,2.2289484E2],"tree_param":{"num_deleted":"0","num_feature":"7","num_nodes":"15","size_leaf_vector":"0"}},{"base_weights":[-1.9490771E-3,-1.7137688E-1,3.9589144E-3,4.7869302E-2,-2.5883895E-1,-5.7133347E-2,1.8564515E-2,-4.4380766E-1,6.442236E-1,-3.9894044E-1,-1.0902385E-1,-1.1396558E-1,-1.7695787E-3,1.4406069E-1,7.5588226E-3],"categories":[],"categories_nodes":[],"categories_segments":[],"categories_sizes":[],"default_left":[1,1,1,1,1,1,1,0,0,0,0,0,0,0,0],"id":25,"left_children":[1,3,5,7,9,11,13,-1,-1,-1,-1,-1,-1,-1,-1],"loss_changes":[2.7117393E1,1.7516674E1,2.3359747E1,7.68591E1,1.3655899E1,1.5893314E1,2.9180487E1,0E0,0E0,0E0,0E0,0E0,0E0,0E0,0E0],"parents":[2147483647,0,0,1,1,2,2,3,3,4,4,5,5,6,6],"right_children":[2,4,6,8,10,12,14,-1,-1,-1,-1,-1,-1,-1,-1],"split_conditions":[5E-1,4.2489514E-2,-9.9825466E-1,1.2921181E-2,1.1014524E-1,1.2536776E-1,-3.2450798E-1,-1.331423E-1,1.9326708E-1,-1.1968214E-1,-3.2707155E-2,-3.4189675E-2,-5.308736E-4,4.3218207E-2,2.2676468E-3],"split_indices":[4,5,0,5,2,5,0,0,0,0,0,0,0,0,0],"split_type":[0,0,0,0,0,0,0,0,0,0,0,0,0,0,0],"sum_hessian":[2.7089219E4,9.118356E2,2.6177383E4,2.6015152E2,6.51684E2,5.05026E3,2.1127123E4,1.427303E2,1.17421234E2,3.3590002E2,3.15784E2,2.4915579E3,2.5587021E3,1.702435E3,1.942469E4],"tree_param":{"num_deleted":"0","num_feature":"7","num_nodes":"15","size_leaf_vector":"0"}},{"base_weights":[-1.623336E-3,-3.4983405E-1,8.5000735E-4,2.4330905E-1,-5.1217914E-1,1.0657035E-2,-8.25892E-2,1.6714743E0,5.9303645E-2,-5.7049775E-1,-2.0029896E-1,3.8538426E-2,-3.0657146E-2,7.5790705E-3,-2.0861731E-1],"categories":[],"categories_nodes":[],"categories_segments":[],"categories_sizes":[],"default_left":[1,1,1,1,1,1,1,0,0,0,0,0,0,0,0],"id":26,"left_children":[1,3,5,7,9,11,13,-1,-1,-1,-1,-1,-1,-1,-1],"loss_changes":[2.330797E1,1.8504587E1,2.1990723E1,1.08577385E1,2.6172523E0,2.770139E1,3.2120388E1,0E0,0E0,0E0,0E0,0E0,0E0,0E0,0E0],"parents":[2147483647,0,0,1,1,2,2,3,3,4,4,5,5,6,6],"right_children":[2,4,6,8,10,12,14,-1,-1,-1,-1,-1,-1,-1,-1],"split_conditions":[7.6923077E-3,4.2489514E-2,2.8161907E-1,7.246563E-2,5.6610346E-1,4.2307693E-1,8.461539E-2,5.014423E-1,1.7791094E-2,-1.7114933E-1,-6.0089692E-2,1.1561528E-2,-9.197144E-3,2.2737212E-3,-6.25852E-2],"split_indices":[1,5,5,2,0,1,1,0,0,0,0,0,0,0,0],"split_type":[0,0,0,0,0,0,0,0,0,0,0,0,0,0,0],"sum_hessian":[2.7061775E4,1.8987375E2,2.6871902E4,4.069435E1,1.491794E2,2.4046473E4,2.82543E3,3.7220075E0,3.6972343E1,1.24980095E2,2.4199305E1,1.4357321E4,9.68915E3,1.6475856E3,1.1778442E3],"tree_param":{"num_deleted":"0","num_feature":"7","num_nodes":"15","size_leaf_vector":"0"}},{"base_weights":[-1.2774064E-3,-1.1318914E-1,5.8693597E-3,-5.2946698E-2,-3.6590672E-1,1.23259194E-1,-1.0965653E-2,-3.059161E-1,-3.2217933E-3,-2.594683E-1,-5.961131E-1,5.2867013E-1,1.01598255E-1,-1.6381568E-1,1.3599822E-2],"categories":[],"categories_nodes":[],"categories_segments":[],"categories_sizes":[],"default_left":[1,1,1,1,1,1,1,0,0,0,0,0,0,0,0],"id":27,"left_children":[1,3,5,7,9,11,13,-1,-1,-1,-1,-1,-1,-1,-1],"loss_changes":[2.1613543E1,2.4676691E1,5.0201252E1,1.6490728E1,7.492199E0,2.7924717E1,8.342125E1,0E0,0E0,0E0,0E0,0E0,0E0,0E0,0E0],"parents":[2147483647,0,0,1,1,2,2,3,3,4,4,5,5,6,6],"right_children":[2,4,6,8,10,12,14,-1,-1,-1,-1,-1,-1,-1,-1],"split_conditions":[3.1864266E-3,2.5320856E-3,2.1845799E-2,8.9947104E-2,7.222222E-1,3.2782638E-3,1.2536776E-1,-9.1774836E-2,-9.6653803E-4,-7.784049E-2,-1.7883393E-1,1.5860105E-1,3.0479478E-2,-4.9144704E-2,4.079947E-3],"split_indices":[5,5,5,2,3,5,5,0,0,0,0,0,0,0,0],"split_type":[0,0,0,0,0,0,0,0,0,0,0,0,0,0,0],"sum_hessian":[2.702162E4,1.6211454E3,2.5400473E4,1.3100638E3,3.1108157E2,3.185035E3,2.2215438E4,2.1436348E2,1.0957003E3,2.1418018E2,9.69014E1,1.6035675E2,3.0246782E3,3.0752305E3,1.9140207E4],"tree_param":{"num_deleted":"0","num_feature":"7","num_nodes":"15","size_leaf_vector":"0"}},{"base_weights":[-1.0927538E-3,-2.257217E-1,1.6288636E-3,-1.0976616E-1,-4.438512E-1,3.5595314E-3,-2.796586E-1,-1.7952059E-1,5.0769645E-1,-4.7801214E-1,1.0584813E0,-1.0791809E-1,8.285507E-3,-1.5228187E-2,-4.7196525E-1],"categories":[],"categories_nodes":[],"categories_segments":[],"categories_sizes":[],"default_left":[1,1,1,1,1,1,1,0,0,0,0,0,0,0,0],"id":28,"left_children":[1,3,5,7,9,11,13,-1,-1,-1,-1,-1,-1,-1,-1],"loss_changes":[1.6508394E1,8.127432E0,1.4490252E1,9.238762E0,6.2471294E0,1.3961775E1,9.242147E0,0E0,0E0,0E0,0E0,0E0,0E0,0E0,0E0],"parents":[2147483647,0,0,1,1,2,2,3,3,4,4,5,5,6,6],"right_children":[2,4,6,8,10,12,14,-1,-1,-1,-1,-1,-1,-1,-1],"split_conditions":[4.181877E-4,4.846154E-1,5E-1,1.0720534E0,9E-1,6.966193E-2,2.0150417E-1,-5.385618E-2,1.5230894E-1,-1.4340365E-1,3.175444E-1,-3.237543E-2,2.485652E-3,-4.568456E-3,-1.4158958E-1],"split_indices":[5,1,6,0,1,2,5,0,0,0,0,0,0,0,0],"split_type":[0,0,0,0,0,0,0,0,0,0,0,0,0,0,0],"sum_hessian":[2.70014E4,3.2225336E2,2.6679146E4,2.1138588E2,1.1086748E2,2.6498258E4,1.8088828E2,1.905669E2,2.0818981E1,1.09069214E2,1.7982624E0,1.0767903E3,2.5421467E4,7.661642E1,1.04271866E2],"tree_param":{"num_deleted":"0","num_feature":"7","num_nodes":"15","size_leaf_vector":"0"}},{"base_weights":[-8.48516E-4,1.8163127E-3,-1.7731746E-1,-1.4107275E-1,5.24564E-3,-8.9476556E-1,-1.6142844E-1,3.3795908E-1,-2.4856828E-1,1.37746595E-2,-7.047822E-2,9.249111E-1,-1.7065912E-1],"categories":[],"categories_nodes":[],"categories_segments":[],"categories_sizes":[],"default_left":[1,1,1,1,1,0,1,0,0,0,0,0,0],"id":29,"left_children":[1,3,5,7,9,-1,11,-1,-1,-1,-1,-1,-1],"loss_changes":[1.2689752E1,1.3026991E1,4.43165E0,3.2168953E1,1.6768133E1,0E0,4.108242E0,0E0,0E0,0E0,0E0,0E0,0E0],"parents":[2147483647,0,0,1,1,2,2,3,3,4,4,6,6],"right_children":[2,4,6,8,10,-1,12,-1,-1,-1,-1,-1,-1],"split_conditions":[8.384615E-1,2.3076924E-2,5E-1,4.2489514E-2,2.8161907E-1,-2.6842967E-1,6.1935257E-2,1.0138773E-1,-7.4570484E-2,4.132398E-3,-2.1143468E-2,2.7747333E-1,-5.119774E-2],"split_indices":[1,1,4,5,5,0,2,0,0,0,0,0,0],"split_type":[0,0,0,0,0,0,0,0,0,0,0,0,0],"sum_hessian":[2.698289E4,2.6582463E4,4.0042773E2,6.220839E2,2.5960379E4,7.477494E0,3.9295023E2,1.13619225E2,5.0846472E2,2.3333113E4,2.6272646E3,2.4749835E0,3.9047525E2],"tree_param":{"num_deleted":"0","num_feature":"7","num_nodes":"13","size_leaf_vector":"0"}},{"base_weights":[-6.993855E-4,3.409734E-2,-1.4815183E-2,-6.734246E-2,8.9353286E-2,-1.1192978E-2,-3.991109E-1,7.3434666E-2,-5.6360364E-1,2.7676868E-1,3.3357344E-3,-3.9897617E-2,3.1469554E-2,-2.1669583E-1,-4.9933165E-1],"categories":[],"categories_nodes":[],"categories_segments":[],"categories_sizes":[],"default_left":[1,1,1,1,1,1,1,0,0,0,0,0,0,0,0],"id":30,"left_children":[1,3,5,7,9,11,13,-1,-1,-1,-1,-1,-1,-1,-1],"loss_changes":[1.3236422E1,4.359732E1,2.66815E1,1.9167291E2,8.116861E1,2.3260317E1,3.1638927E0,0E0,0E0,0E0,0E0,0E0,0E0,0E0,0E0],"parents":[2147483647,0,0,1,1,2,2,3,3,4,4,5,5,6,6],"right_children":[2,4,6,8,10,12,14,-1,-1,-1,-1,-1,-1,-1,-1],"split_conditions":[2.5384617E-1,1.2536776E-1,2.8161907E-1,4.2489514E-2,2.0150417E-1,2.0150417E-1,3.1538463E-1,2.20304E-2,-1.6908109E-1,8.303061E-2,1.0007203E-3,-1.1969286E-2,9.440866E-3,-6.500875E-2,-1.497995E-1],"split_indices":[1,5,5,5,5,5,1,0,0,0,0,0,0,0,0],"split_type":[0,0,0,0,0,0,0,0,0,0,0,0,0,0,0],"sum_hessian":[2.6945986E4,7.7760063E3,1.9169979E4,2.7419922E3,5.034014E3,1.8991998E4,1.7798123E2,2.1367114E3,6.0528064E2,1.5829213E3,3.451093E3,1.1353252E4,7.638746E3,6.423224E1,1.13749E2],"tree_param":{"num_deleted":"0","num_feature":"7","num_nodes":"15","size_leaf_vector":"0"}},{"base_weights":[-8.6335995E-4,-6.22952E-2,4.6174633E-3,-3.9570653E-1,-4.7240667E-2,2.1637198E-1,-2.1546036E-3,-3.1499165E-1,-8.1620747E-1,-3.040457E-3,-1.6345263E-1,1.0584809E-2,4.185225E-1,-5.7773083E-1,1.5152193E-3],"categories":[],"categories_nodes":[],"categories_segments":[],"categories_sizes":[],"default_left":[1,1,1,1,1,1,1,0,0,0,0,0,0,0,0],"id":31,"left_children":[1,3,5,7,9,11,13,-1,-1,-1,-1,-1,-1,-1,-1],"loss_changes":[9.054371E0,1.1037455E1,3.5405144E1,2.9681616E0,1.0830923E1,3.1824532E1,5.05369E1,0E0,0E0,0E0,0E0,0E0,0E0,0E0,0E0],"parents":[2147483647,0,0,1,1,2,2,3,3,4,4,5,5,6,6],"right_children":[2,4,6,8,10,12,14,-1,-1,-1,-1,-1,-1,-1,-1],"split_conditions":[4.522987E-3,5E-1,8.8524595E-3,5.923077E-1,6.22472E-1,6.2350966E-3,1.2921181E-2,-9.44975E-2,-2.4486224E-1,-9.121371E-4,-4.903579E-2,3.1754428E-3,1.2555675E-1,-1.7331925E-1,4.5456583E-4],"split_indices":[5,4,5,1,0,5,5,0,0,0,0,0,0,0,0],"split_type":[0,0,0,0,0,0,0,0,0,0,0,0,0,0,0],"sum_hessian":[2.6889887E4,2.2017043E3,2.4688184E4,9.402637E1,2.107678E3,7.641195E2,2.3924062E4,8.035195E1,1.3674418E1,1.5276687E3,5.800094E2,3.791753E2,3.849442E2,1.5058025E2,2.3773482E4],"tree_param":{"num_deleted":"0","num_feature":"7","num_nodes":"15","size_leaf_vector":"0"}},{"base_weights":[-7.5887627E-4,2.9958164E-2,-1.1839714E-2,-3.6991064E-2,6.745089E-2,-5.115878E-1,3.4944373E-3,-3.0971217E-1,-2.1038316E-2,1.2462281E-1,-1.1571681E-2,-3.641066E-1,-9.340231E-1,6.457755E-2,-1.6365882E-2],"categories":[],"categories_nodes":[],"categories_segments":[],"categories_sizes":[],"default_left":[1,1,1,1,1,1,1,0,0,0,0,0,0,0,0],"id":32,"left_children":[1,3,5,7,9,11,13,-1,-1,-1,-1,-1,-1,-1,-1],"loss_changes":[9.148174E0,1.7887695E1,1.5136398E2,1.1124558E1,2.0638102E1,3.629451E1,2.3250416E1,0E0,0E0,0E0,0E0,0E0,0E0,0E0,0E0],"parents":[2147483647,0,0,1,1,2,2,3,3,4,4,5,5,6,6],"right_children":[2,4,6,8,10,12,14,-1,-1,-1,-1,-1,-1,-1,-1],"split_conditions":[4.2489514E-2,6.2350966E-3,1.2536776E-1,6.572072E-2,1.3526434E-1,1.15384616E-1,2.3846154E-1,-9.291366E-2,-6.3114953E-3,3.7386842E-2,-3.4715044E-3,-1.09231986E-1,-2.8020695E-1,1.9373266E-2,-4.909765E-3],"split_indices":[5,5,5,2,2,1,1,0,0,0,0,0,0,0,0],"split_type":[0,0,0,0,0,0,0,0,0,0,0,0,0,0,0],"sum_hessian":[2.6875062E4,7.1242686E3,1.9750793E4,2.557485E3,4.5667837E3,5.8702356E2,1.916377E4,1.4031459E2,2.4171707E3,2.6493977E3,1.9173859E3,4.3649554E2,1.50528E2,4.7014795E3,1.4462291E4],"tree_param":{"num_deleted":"0","num_feature":"7","num_nodes":"15","size_leaf_vector":"0"}},{"base_weights":[-8.0714654E-4,-4.057281E-2,8.7934295E-3,6.783451E-2,-6.1296806E-2,5.509551E-2,-8.0640735E-3,2.4420429E-2,2.6378155E-1,-3.0432028E-1,-4.3639492E-2,1.0931389E-1,-5.0039077E-3,-1.977258E-1,-3.3249508E-3],"categories":[],"categories_nodes":[],"categories_segments":[],"categories_sizes":[],"default_left":[1,1,1,1,1,1,1,0,0,0,0,0,0,0,0],"id":33,"left_children":[1,3,5,7,9,11,13,-1,-1,-1,-1,-1,-1,-1,-1],"loss_changes":[1.0256331E1,1.1741927E1,1.6891619E1,7.1304727E0,1.8810438E1,1.8821712E1,1.4259649E1,0E0,0E0,0E0,0E0,0E0,0E0,0E0,0E0],"parents":[2147483647,0,0,1,1,2,2,3,3,4,4,5,5,6,6],"right_children":[2,4,6,8,10,12,14,-1,-1,-1,-1,-1,-1,-1,-1],"split_conditions":[-9.558183E-1,8.100469E-2,-1.7244123E-2,7.8364104E-2,8.9947104E-2,3.3076924E-1,5E-1,7.326129E-3,7.9134464E-2,-9.1296084E-2,-1.3091848E-2,3.279417E-2,-1.5011724E-3,-5.931774E-2,-9.974852E-4],"split_indices":[0,2,0,2,2,1,4,0,0,0,0,0,0,0,0],"split_type":[0,0,0,0,0,0,0,0,0,0,0,0,0,0,0],"sum_hessian":[2.6863047E4,5.223605E3,2.1639441E4,8.379599E2,4.3856455E3,5.7750337E3,1.5864408E4,6.868957E2,1.5106418E2,2.959637E2,4.0896816E3,3.0356335E3,2.7394001E3,3.8575134E2,1.5478656E4],"tree_param":{"num_deleted":"0","num_feature":"7","num_nodes":"15","size_leaf_vector":"0"}},{"base_weights":[-6.609903E-4,5.625783E-3,-5.5323713E-2,-9.686104E-2,1.0420579E-2,-2.6259711E-2,-3.7551188E-1,-1.9015957E-2,-2.6044828E-1,8.2014255E-2,-2.6353558E-3,6.1254937E-2,-1.0392801E-1,-7.9689616E-1,-2.9192823E-1],"categories":[],"categories_nodes":[],"categories_segments":[],"categories_sizes":[],"default_left":[1,1,1,1,1,1,1,0,0,0,0,0,0,0,0],"id":34,"left_children":[1,3,5,7,9,11,13,-1,-1,-1,-1,-1,-1,-1,-1],"loss_changes":[9.227996E0,1.1835497E1,2.576561E1,1.3703103E1,2.1505919E1,1.7273508E1,7.8829536E0,0E0,0E0,0E0,0E0,0E0,0E0,0E0,0E0],"parents":[2147483647,0,0,1,1,2,2,3,3,4,4,5,5,6,6],"right_children":[2,4,6,8,10,12,14,-1,-1,-1,-1,-1,-1,-1,-1],"split_conditions":[2.8161907E-1,6.923077E-2,9.584437E-1,3.1590623E-1,2.3846154E-1,6.923077E-2,1.0439855E0,-5.704787E-3,-7.8134485E-2,2.4604278E-2,-7.906068E-4,1.8376483E-2,-3.1178404E-2,-2.3906885E-1,-8.7578475E-2],"split_indices":[5,1,0,0,1,1,0,0,0,0,0,0,0,0,0],"split_type":[0,0,0,0,0,0,0,0,0,0,0,0,0,0,0],"sum_hessian":[2.6850818E4,2.4082035E4,2.768784E3,1.0754535E3,2.3006582E4,2.5393638E3,2.2942015E2,7.294511E2,3.4600238E2,3.5476062E3,1.9458975E4,1.194097E3,1.3452667E3,3.656165E1,1.928585E2],"tree_param":{"num_deleted":"0","num_feature":"7","num_nodes":"15","size_leaf_vector":"0"}},{"base_weights":[-5.853041E-4,-2.5508225E-1,5.1811326E-4,-1.1557825E-1,-4.6681577E-1,2.3832963E-1,-7.5762876E-4,-1.9305472E-1,3.8627753E-1,-9.194111E-1,-3.3289146E-1,1.5265813E0,1.7086379E-1,-1.4792724E-1,2.0034346E-3],"categories":[],"categories_nodes":[],"categories_segments":[],"categories_sizes":[],"default_left":[1,1,1,1,1,1,1,0,0,0,0,0,0,0,0],"id":35,"left_children":[1,3,5,7,9,11,13,-1,-1,-1,-1,-1,-1,-1,-1],"loss_changes":[7.532833E0,3.3665543E0,8.103472E0,2.8405118E0,2.4618406E0,1.212617E1,1.079605E1,0E0,0E0,0E0,0E0,0E0,0E0,0E0,0E0],"parents":[2147483647,0,0,1,1,2,2,3,3,4,4,5,5,6,6],"right_children":[2,4,6,8,10,12,14,-1,-1,-1,-1,-1,-1,-1,-1],"split_conditions":[5.249591E-2,-1.1296595E-1,6.1935257E-2,-2.0228887E-1,-1.4655475E-2,2.3076924E-2,6.572072E-2,-5.7916418E-2,1.1588326E-1,-2.7582335E-1,-9.986744E-2,4.579744E-1,5.125914E-2,-4.4378173E-2,6.010304E-4],"split_indices":[2,0,2,0,0,1,2,0,0,0,0,0,0,0,0],"split_type":[0,0,0,0,0,0,0,0,0,0,0,0,0,0,0],"sum_hessian":[2.6823299E4,1.1480154E2,2.6708496E4,7.013671E1,4.466482E1,1.4152196E2,2.6566975E4,6.1290073E1,8.846641E0,8.85941E0,3.5805412E1,5.9664207E0,1.3555554E2,4.8827853E2,2.6078695E4],"tree_param":{"num_deleted":"0","num_feature":"7","num_nodes":"15","size_leaf_vector":"0"}},{"base_weights":[-4.57659E-4,3.0957984E-3,-7.048955E-2,-2.8972384E-2,1.0902535E-2,-1.01072885E-1,1.216477E-1,-4.8100475E-2,7.4928336E-2,1.0248938E-1,4.636726E-3,5.934895E-2,-1.3649298E-1,2.032239E0,9.691447E-2],"categories":[],"categories_nodes":[],"categories_segments":[],"categories_sizes":[],"default_left":[1,1,1,1,1,1,1,0,0,0,0,0,0,0,0],"id":36,"left_children":[1,3,5,7,9,11,13,-1,-1,-1,-1,-1,-1,-1,-1],"loss_changes":[6.6745563E0,6.3906846E0,7.623118E0,9.936267E0,1.1780526E1,6.360119E0,8.228922E0,0E0,0E0,0E0,0E0,0E0,0E0,0E0,0E0],"parents":[2147483647,0,0,1,1,2,2,3,3,4,4,5,5,6,6],"right_children":[2,4,6,8,10,12,14,-1,-1,-1,-1,-1,-1,-1,-1],"split_conditions":[7.307693E-1,-9.9648046E-1,1.3199238E0,5.153847E-1,-3.7697902E-1,1.6666667E-1,1.3236177E0,-1.4430143E-2,2.2478502E-2,3.0746816E-2,1.3910178E-3,1.7804686E-2,-4.0947895E-2,6.096717E-1,2.9074343E-2],"split_indices":[1,0,0,1,0,3,0,0,0,0,0,0,0,0,0],"split_type":[0,0,0,0,0,0,0,0,0,0,0,0,0,0,0],"sum_hessian":[2.6819152E4,2.5524959E4,1.294195E3,4.996761E3,2.0528197E4,1.1168888E3,1.7730618E2,4.220336E3,7.764255E2,1.3135007E3,1.9214695E4,2.01879E2,9.1500977E2,1.2286566E0,1.7607753E2],"tree_param":{"num_deleted":"0","num_feature":"7","num_nodes":"15","size_leaf_vector":"0"}},{"base_weights":[-3.4760893E-4,-1.4708391E-3,1.9935283E-1,-9.0186106E-5,-1.6106735E-1,1.2200631E0,1.281481E-1,-1.0856867E-3,3.2903653E-1,-4.061652E-1,-3.1506285E-2,1.4072597E0,-1.4481431E-1,-1.3271442E-1,2.6512283E-1],"categories":[],"categories_nodes":[],"categories_segments":[],"categories_sizes":[],"default_left":[1,1,1,1,1,1,1,0,0,0,0,0,0,0,0],"id":37,"left_children":[1,3,5,7,9,11,13,-1,-1,-1,-1,-1,-1,-1,-1],"loss_changes":[6.014448E0,5.875083E0,1.074332E1,8.661743E0,7.2489367E0,2.6725016E0,5.084303E0,0E0,0E0,0E0,0E0,0E0,0E0,0E0,0E0],"parents":[2147483647,0,0,1,1,2,2,3,3,4,4,5,5,6,6],"right_children":[2,4,6,8,10,12,14,-1,-1,-1,-1,-1,-1,-1,-1],"split_conditions":[3.1005068E0,2.3300202E0,3.1514945E0,2.2290049E0,3.4615386E-1,7.3846155E-1,3.4615386E-1,-3.2570603E-4,9.871096E-2,-1.2184957E-1,-9.451886E-3,4.2217794E-1,-4.3444294E-2,-3.9814327E-2,7.9536855E-2],"split_indices":[0,0,0,0,1,1,1,0,0,0,0,0,0,0,0],"split_type":[0,0,0,0,0,0,0,0,0,0,0,0,0,0,0],"sum_hessian":[2.6810852E4,2.6661883E4,1.4896913E2,2.6434203E4,2.27679E2,8.662259E0,1.4030687E2,2.6355484E4,7.872001E1,7.799556E1,1.4968344E2,7.590192E0,1.0720674E0,4.8318146E1,9.198872E1],"tree_param":{"num_deleted":"0","num_feature":"7","num_nodes":"15","size_leaf_vector":"0"}},{"base_weights":[-2.58559E-4,8.7446347E-4,-1.862318E-1,-1.3331676E-1,2.4127988E-3,-6.115192E-2,-6.714039E-1,-1.8441018E-1,2.2257404E-1,1.73021E-1,-4.82299E-4,-3.220236E-1,4.201494E-1,-2.2959207E-1,-7.5031984E-1],"categories":[],"categories_nodes":[],"categories_segments":[],"categories_sizes":[],"default_left":[1,1,1,1,1,1,1,0,0,0,0,0,0,0,0],"id":38,"left_children":[1,3,5,7,9,11,13,-1,-1,-1,-1,-1,-1,-1,-1],"loss_changes":[5.6493754E0,5.5014586E0,9.811408E0,5.5334344E0,1.301395E1,1.648005E1,9.8446274E-1,0E0,0E0,0E0,0E0,0E0,0E0,0E0,0E0],"parents":[2147483647,0,0,1,1,2,2,3,3,4,4,5,5,6,6],"right_children":[2,4,6,8,10,12,14,-1,-1,-1,-1,-1,-1,-1,-1],"split_conditions":[5E-1,4.181877E-4,4.3846154E-1,1.0019271E0,1.3791996E-3,1.923077E-1,1.6666667E-1,-5.5323057E-2,6.6772215E-2,5.1906303E-2,-1.4468971E-4,-9.660708E-2,1.2604482E-1,-6.887762E-2,-2.2509596E-1],"split_indices":[6,5,1,0,5,1,3,0,0,0,0,0,0,0,0],"split_type":[0,0,0,0,0,0,0,0,0,0,0,0,0,0,0],"sum_hessian":[2.6809133E4,2.664778E4,1.613535E2,3.0105045E2,2.6346729E4,1.2917703E2,3.2176464E1,2.6367746E2,3.7372997E1,4.386443E2,2.5908084E4,8.398628E1,4.5190746E1,5.468777E0,2.670769E1],"tree_param":{"num_deleted":"0","num_feature":"7","num_nodes":"15","size_leaf_vector":"0"}},{"base_weights":[-2.602053E-4,4.217796E-3,-3.9596096E-2,2.0971676E-2,-1.40775535E-2,-1.8912617E-2,-2.8647164E-1,4.558371E-3,1.0118879E-1,-5.633734E-2,4.5116376E-2,-5.4194136E-3,-3.7656313E-1,-7.484117E-1,-2.2183391E-1],"categories":[],"categories_nodes":[],"categories_segments":[],"categories_sizes":[],"default_left":[1,1,1,1,1,1,1,0,0,0,0,0,0,0,0],"id":39,"left_children":[1,3,5,7,9,11,13,-1,-1,-1,-1,-1,-1,-1,-1],"loss_changes":[4.7218432E0,7.3771734E0,1.3984409E1,1.6540306E1,2.878186E1,1.2202655E1,6.1557865E0,0E0,0E0,0E0,0E0,0E0,0E0,0E0,0E0],"parents":[2147483647,0,0,1,1,2,2,3,3,4,4,5,5,6,6],"right_children":[2,4,6,8,10,12,14,-1,-1,-1,-1,-1,-1,-1,-1],"split_conditions":[2.8161907E-1,1.3526434E-1,9.584437E-1,1.23363525E-1,2.0150417E-1,3.1538463E-1,1.0169936E0,1.3675113E-3,3.0356636E-2,-1.6901202E-2,1.3534914E-2,-1.6258241E-3,-1.12968944E-1,-2.2452353E-1,-6.655018E-2],"split_indices":[5,2,0,2,5,1,0,0,0,0,0,0,0,0,0],"split_type":[0,0,0,0,0,0,0,0,0,0,0,0,0,0,0],"sum_hessian":[2.6804445E4,2.4065697E4,2.7387483E3,1.2561979E4,1.1503719E4,2.5280244E3,2.107238E2,1.0429121E4,2.1328567E3,6.711959E3,4.7917603E3,2.4370945E3,9.092995E1,2.4567944E1,1.8615585E2],"tree_param":{"num_deleted":"0","num_feature":"7","num_nodes":"15","size_leaf_vector":"0"}}]},"name":"gbtree"},"learner_model_param":{"base_score":"5E-1","num_class":"0","num_feature":"7","num_target":"1"},"objective":{"name":"binary:logistic","reg_loss_param":{"scale_pos_weight":"1"}}},"version":[1,6,2]}